2708 128
12 -0.62334025 -0.13441752 0.1798345 0.4904923 -0.06911087 -0.09402359 0.67697006 -0.109554276 -0.22508332 0.25572193 -0.14657575 -0.049056448 0.5736723 -0.024583591 0.103458814 0.17057139 -0.031006554 -0.15259011 -0.11285635 -0.5582539 0.33674297 0.49421567 0.004981631 -0.13347062 -0.119330555 -0.32446912 0.112491496 0.62036484 -0.18680175 -0.37380457 0.17086759 -0.26610628 0.039911103 -0.117134035 0.33497384 -0.02979102 0.28400174 0.070314005 -0.3831144 -0.07894996 -0.024903238 -0.55450314 0.0013536962 -0.09256112 0.20767564 -0.11578059 0.15403274 -0.10819542 0.18400277 -0.20313694 -0.021437878 -0.16110711 -0.36037192 -0.07958322 -0.57047653 -0.7285942 0.30016556 -0.3647723 -0.797069 0.67894804 0.10892198 -0.13515171 -0.40180752 -0.093886524 0.51572895 0.14002612 -0.22846957 -0.07686428 -0.054555334 0.35645607 -0.2123014 -0.022037908 -0.38805416 -0.16234127 -0.19591565 0.47035187 -0.28189707 0.21309607 -0.29051545 -0.023096254 -0.1281858 -0.03910172 0.08314051 0.46393874 0.3376419 0.5223386 -0.42935482 0.22189763 -0.4926807 0.4942087 -0.069940366 0.17237324 -0.22093433 -0.20868947 0.10324423 0.04305922 0.06804879 -0.20114455 0.07867804 0.4216906 -0.06612114 -0.050517198 -0.056498747 -0.040334325 -0.20866573 -0.14470428 -0.3711119 0.22156115 0.33538595 -0.078129455 -0.2778365 0.020527624 -0.038008124 0.7340247 -0.027207134 -0.30647832 0.3179865 0.24403894 -0.20751844 -0.14357416 -0.21100965 -0.107066326 0.3516613 0.42229864 -0.549106 0.3747173 0.2300067 0.15422359
27 -0.69013226 -0.16155392 0.19241196 0.4270846 0.0064548883 -0.040427368 0.72897184 -0.12145311 -0.15701164 0.21914919 -0.0963873 -0.03994731 0.5754284 -0.014568302 0.07205979 0.17110237 -0.00046770278 -0.10915092 -0.11661438 -0.5309874 0.37599757 0.47124127 0.040452395 -0.07974698 -0.064492986 -0.34121865 0.119546324 0.6340199 -0.23572192 -0.44678533 0.1695248 -0.31024116 0.024283404 -0.098561235 0.3387664 0.00088088005 0.27265835 0.011792062 -0.29482156 -0.084741205 -0.0066405903 -0.55110943 -0.015314916 -0.12687969 0.18519056 -0.19920275 0.14934544 -0.06245566 0.16220978 -0.19577725 -0.040052272 -0.09041868 -0.37371612 -0.022419311 -0.6405663 -0.7325614 0.29092628 -0.39197695 -0.8539777 0.6510899 0.14068413 -0.15529215 -0.35448816 -0.09171249 0.48236224 0.11161561 -0.14396083 -0.033695493 0.037931547 0.38600284 -0.22669138 -0.03152151 -0.40232533 -0.11769543 -0.21203177 0.46197787 -0.33778048 0.22538215 -0.27973223 -0.023256972 -0.15794009 -0.020034326 0.08464597 0.4618859 0.348549 0.5725372 -0.46242222 0.21477969 -0.53987724 0.5233428 -0.07207945 0.16639052 -0.23388846 -0.21294154 0.024994276 0.06758579 0.05336682 -0.19418234 0.056136154 0.3852234 -0.07906867 -0.0061351554 -0.07749878 0.05748022 -0.17345276 -0.13184728 -0.40108865 0.26035848 0.25891182 -0.10464361 -0.2016989 -0.023432396 -0.06935859 0.74175334 0.018658258 -0.3715839 0.33756074 0.22364016 -0.15752561 -0.14116912 -0.19595474 -0.12344686 0.33299002 0.45118 -0.52849805 0.34060335 0.25157124 0.2166392
49 -0.89435726 -0.23440328 0.045393083 0.3717241 0.11223286 0.43193415 0.36603957 0.39504042 0.055228762 0.1878394 0.2601033 -0.032945126 0.26663673 0.13103536 -0.7136367 0.25020722 -0.069637574 0.046597213 -0.2487287 -0.37202975 0.16655937 -0.079682805 -0.25186864 0.3260429 -0.17173243 -0.5603348 0.3879776 0.055605706 0.012927236 0.0040908293 -0.50938517 -0.103608534 -0.12486025 -0.08956916 0.4604626 -0.19418883 0.40610218 -0.11394659 -0.5572987 -0.37199765 -0.48336986 -0.25895444 0.21336047 -0.02356327 0.72090805 -0.17153457 -0.02671559 -0.26369426 0.37597564 -0.038526613 0.20042653 -0.21540545 0.20685317 -0.27763802 0.053256705 -0.58987576 -0.28881475 -0.46549052 -0.46221048 0.60311425 0.21235146 0.42180657 -0.15000516 -0.22104274 0.39193684 0.611546 -0.3469315 0.37689582 -0.07316183 0.38407046 -0.5153951 -0.2674731 -0.39805737 -0.26563403 -0.14799398 0.59889746 -0.053125955 0.46577382 -0.076126866 -0.045476396 0.26329663 0.05447938 -0.5001134 0.057138797 -0.024643496 0.18469277 -0.16385837 0.62806886 -0.26533765 -0.1555071 0.09647503 0.15488307 0.073013484 0.21848384 0.05482693 -0.40594214 0.15261905 -0.04542869 -0.17384781 0.23471229 -0.016364524 -0.2672537 -0.19748694 -0.2897521 -0.5495129 0.046816092 -0.035048153 0.37790716 0.22552289 0.44785106 0.3333945 0.12954551 0.5428933 0.22127593 -0.48190936 -0.34432793 0.53162676 -0.048758406 -0.061538886 -0.060676984 -0.6014924 0.32696176 0.29771632 0.21941832 -0.3540221 -0.11776507 0.019437697 -0.18126915
150 -0.9168856 -0.23818256 0.021070486 0.35794434 0.052076492 0.41963208 0.3494252 0.3881165 0.08431577 0.12880227 0.2457859 -0.09408928 0.20514455 0.18337277 -0.6779434 0.23761494 -0.10882402 -0.003144394 -0.29992053 -0.44205216 0.20386547 -0.03489117 -0.22914094 0.29699883 -0.10846188 -0.49742362 0.3054607 0.12585206 0.05055613 0.0006314631 -0.5185632 -0.04914644 -0.100579135 -0.10911998 0.4736371 -0.12953973 0.3890582 -0.08788401 -0.536244 -0.34137487 -0.3773577 -0.24503294 0.18813586 0.07052404 0.65370923 -0.14256223 -0.019785106 -0.30714765 0.37476254 0.00911351 0.21154913 -0.23463206 0.2027078 -0.3077167 0.020615404 -0.57526517 -0.21120156 -0.43306187 -0.51361716 0.6151274 0.20604263 0.41752285 -0.17675231 -0.18501382 0.44250515 0.55908394 -0.30248845 0.4394173 -0.082677685 0.37010035 -0.54699147 -0.2747265 -0.4333272 -0.30800146 -0.07305651 0.6399542 -0.056025647 0.45878592 -0.08279716 0.020408051 0.2367875 0.08193486 -0.42769325 0.049117956 0.04891968 0.1956074 -0.17563559 0.6129377 -0.33476508 -0.15932342 0.10945665 0.13841982 0.053982433 0.18223843 0.048579022 -0.37073058 0.19508773 -0.054457273 -0.21131393 0.24395037 -0.056335382 -0.24494137 -0.20501678 -0.27335116 -0.59748244 0.068266794 0.018496264 0.30415294 0.2622404 0.44795144 0.3217194 0.1597199 0.55773115 0.16515635 -0.46253124 -0.38880584 0.5771255 -0.066240795 -0.023739293 -0.11542432 -0.5409044 0.34896457 0.2766519 0.13169132 -0.43660685 -0.13233311 0.06341501 -0.21741788
51 0.20353031 0.19804525 0.09743188 -0.27726376 0.09859409 -0.0916054 0.38448304 -0.19740176 -0.28838196 -0.28909484 0.062079936 -0.6016898 0.05788367 0.17835972 -0.05344654 -0.028727457 0.16670823 0.2639452 -0.31209216 -0.54385465 -0.18329802 0.12776127 -0.31792226 -0.5812824 0.055021055 -0.19828227 -0.17469674 -0.09041143 0.38931274 -0.45772395 -0.20871039 -0.034841467 0.3141269 -0.6937195 0.46390298 -0.42871532 0.2807623 -0.215124 -0.37893358 0.5741117 -0.34655318 -0.059384044 -0.114153996 -0.3440393 0.25067973 0.1864853 0.20807019 -0.33771548 0.1271213 -0.4742103 0.02352784 0.04443853 0.23125419 -0.27599642 0.22148679 -0.20382743 0.061524425 -0.385816 -0.5616287 0.10400245 0.19918671 0.060690932 0.30292934 -0.27225035 0.23788725 0.088954255 -0.15973896 0.24761884 -0.14088501 -0.13183898 0.08601727 0.40429085 0.07558306 -0.17059205 0.085577026 -0.10478566 -0.10332696 0.13276182 -0.48660243 -0.16927125 -0.27879786 0.122897975 0.1676426 -0.092959985 0.22481279 -0.23551878 -0.45579115 0.0057854033 0.3540239 0.092096366 0.7819336 0.63139045 0.16083062 -0.020867828 0.43031326 -0.43336138 -0.07029864 0.06789348 -0.437358 0.20306143 0.35542834 0.34795973 0.2706858 0.2338817 0.003281115 0.05490003 0.50426847 -0.19569117 0.4293027 0.050345115 0.55479825 0.07928434 -0.052072678 -0.4272015 0.15233068 0.32973 0.13097686 0.10268832 0.27079445 -0.27159965 -0.058457833 -0.2811243 0.2659798 -0.17270273 -0.05960222 0.14352052 0.20085755 -0.49622628
222 -0.9760561 -0.30230737 0.0012076237 0.3478099 0.097258486 0.4562924 0.31999555 0.40368715 0.04671391 0.19871967 0.253635 -0.023506248 0.18489133 0.16965228 -0.72555196 0.24927129 -0.15457234 0.0632626 -0.24910402 -0.3969712 0.27213365 -0.02085068 -0.23560724 0.36052683 -0.16944085 -0.5579584 0.44026223 0.058380727 0.051308382 0.087822154 -0.55105704 -0.13396175 -0.06241879 -0.059291244 0.41258925 -0.13282712 0.37500167 -0.09858365 -0.56782293 -0.23178884 -0.48479375 -0.2925595 0.13398284 -0.030654754 0.7620226 -0.1977582 -0.022541115 -0.27258277 0.3532251 -0.0346262 0.17017557 -0.22196136 0.2801935 -0.25145075 -0.055305663 -0.58219874 -0.23371397 -0.41644874 -0.5116215 0.7604219 0.19156076 0.45362133 -0.19471285 -0.25616306 0.43667045 0.6037727 -0.32852635 0.43923637 -0.11030082 0.34270278 -0.6163129 -0.25629693 -0.4514547 -0.26840088 -0.120166056 0.6550901 -0.046759073 0.44435248 -0.11792156 -0.1145016 0.31181794 0.067910746 -0.5228464 0.02762809 -0.031063117 0.22616789 -0.15897441 0.6407606 -0.2661525 -0.1693943 0.11501779 0.19858563 0.08418029 0.16188753 0.06803968 -0.40522194 0.15442178 -0.057941157 -0.20859829 0.19680788 -0.047459252 -0.3147178 -0.1815396 -0.31087497 -0.6184491 0.009393766 0.003741162 0.34818423 0.25632367 0.41295654 0.40723947 0.20962405 0.5815792 0.18111463 -0.45827702 -0.36665004 0.6048142 -0.09506747 0.046057727 -0.11401406 -0.55730075 0.25832033 0.31504425 0.19572382 -0.4231544 -0.2147839 0.13269971 -0.29691848
116 -0.10556149 0.08329753 0.20108259 -0.22148557 0.30990472 0.3807411 0.594896 -0.14232266 -0.8595216 -0.3083365 -0.039757952 -0.43476543 -0.13833466 -0.12255481 0.29280874 0.62932324 0.36533266 0.008500044 -0.014054209 -0.4549798 -0.08042785 -0.3901892 -0.06795508 -0.3909471 -0.03499638 0.27716887 0.06837687 -0.43612385 0.41869864 -0.44719142 0.19660276 -0.035312966 0.3289171 -0.19733232 0.2797533 0.13262263 0.37624845 0.101671934 -0.06828077 0.2969753 -0.33489004 0.34719104 -0.14572762 -0.46608555 -0.3822795 0.5196192 -0.14771262 -0.7828757 0.15461159 -0.52722645 -0.15251471 -0.26593003 0.5160328 -0.22146347 -0.27396634 -0.4333416 0.3552789 -0.060331628 -1.2871839 -0.2847106 0.30870178 0.11291782 0.15415666 0.0641351 -0.30862188 -0.07578638 0.16707252 0.3523269 -0.0315941 -0.10621214 0.088325016 -0.30962086 -0.099788025 0.31932184 -0.4429944 -0.09593773 0.29379922 -0.0023757704 -0.09956775 -0.061196275 0.028262448 -0.05376162 -0.1446329 -0.25530952 0.31264699 -0.18810019 -0.7070294 0.25438085 0.43345723 0.4909004 0.34010977 0.575782 0.08737787 -0.14394812 -0.0036211165 -0.8433012 -0.014685244 0.4698746 -0.41252968 0.41359794 -0.015690245 0.3545628 0.048943672 0.6191735 -0.17106865 0.27656722 -0.3374914 0.38232872 -0.12104262 0.30851817 0.07876956 -0.590084 0.13184614 -0.046589267 0.05499439 -0.1018736 -0.23932786 0.3544864 0.07026699 -0.6213734 0.14344996 -0.92561704 0.2399139 0.36204776 0.27118722 0.22461437 0.3325054 0.16796835
44 -0.14579453 0.099977255 0.12365025 -0.17784476 0.29687494 0.3813999 0.5399271 -0.081544735 -0.7814215 -0.32735765 -0.032633718 -0.44530076 -0.15438317 -0.12784109 0.32243323 0.57754093 0.3177608 0.00027388567 0.04422213 -0.42596558 -0.08069364 -0.40862638 -0.052559752 -0.4068374 0.0051803966 0.27376086 0.09394874 -0.37356013 0.38905075 -0.5402808 0.17203599 -0.029485716 0.41819113 -0.20709634 0.32439548 0.044027556 0.29971275 0.0627682 -0.082034595 0.3357607 -0.3691869 0.3897227 -0.119389445 -0.37240195 -0.4820746 0.53410494 -0.22230816 -0.7248731 0.09121 -0.49509692 -0.20866625 -0.29953536 0.50546867 -0.19406511 -0.17382185 -0.3723408 0.37579846 -0.058871377 -1.2653496 -0.23996833 0.17857455 0.1303139 0.23523186 0.09396754 -0.26951596 -0.03536684 0.21126918 0.3876762 0.009691791 -0.056692146 0.17885838 -0.36975807 -0.08958907 0.33341596 -0.45512816 0.02593685 0.24236825 0.064723484 -0.14544985 -0.022499012 0.06496955 -0.106520794 -0.18598062 -0.29698524 0.28338477 -0.10561048 -0.6175816 0.21020387 0.40470475 0.5095862 0.40929732 0.55597126 0.13088739 -0.13445501 0.03416039 -0.81339926 -0.022366883 0.40740517 -0.41872045 0.39620695 -0.029051635 0.43777364 0.062544286 0.5706754 -0.23049025 0.28323987 -0.35891977 0.3855523 -0.11055182 0.32794046 0.04082778 -0.5785453 0.12560013 -0.09332402 -0.012923356 -0.11333469 -0.19606069 0.41363332 -0.045300152 -0.6868285 0.18128583 -0.8541248 0.39560798 0.374083 0.250337 0.23046845 0.37534407 0.19592065
100 0.008105644 0.21644154 -0.0021091872 -0.06342979 0.5478357 0.59956217 0.7109754 -0.6649811 -0.7557731 0.19613537 -0.10696248 -0.46417 0.3909499 -0.06755444 0.39333588 0.17956017 -0.16348666 0.06509794 -0.32136625 -0.05630283 -0.1450703 -0.120975 -0.21136302 -0.3926874 0.048006717 -0.27796808 0.009534287 0.13452455 0.17894642 -0.45061272 0.6512599 0.1368964 0.3229911 -0.16736603 0.25396952 -0.36403605 0.37152842 -0.45945355 -0.16962597 0.19897234 0.0049643037 -0.30888996 0.24994709 -0.0666617 -0.44445348 -0.10459618 -0.3980272 -0.082414284 0.6052263 -0.17765777 -0.1682546 -0.24776821 0.52007854 -0.39093968 0.2398185 -0.107078925 -0.21809031 -0.5880317 -0.85810125 0.46558058 0.4130093 -0.17374142 0.66321474 0.09276303 -0.34188667 -0.29604366 0.07324048 -0.294778 0.34346732 -0.29439938 0.1427802 -0.3140236 0.040702518 0.059492946 0.42389143 0.23543799 0.6611427 -0.46431628 -0.027597446 0.18313101 0.11492862 -0.1351058 -0.02288227 0.31659228 -0.011130369 0.26039147 -0.53293777 0.5161448 0.8657098 -0.03323332 0.15958698 0.45152575 0.29492247 -0.35868332 0.34137678 0.00969957 0.3991121 -0.34158197 -0.350346 0.011375981 0.40601477 0.75813735 -0.01679483 0.8055986 -0.30685124 0.09482343 -0.0940059 0.031843442 -0.042862207 0.12074349 0.2963469 0.12331732 -0.12370491 0.041391876 0.3909125 -0.05086804 0.093969636 0.1059949 0.23311506 -0.08832472 -0.14272028 -0.2946366 -0.22873537 -0.18682633 -0.32501867 0.22083953 0.54635817 0.18345718
45 -0.15065788 -0.22033305 -0.032179605 0.50644106 0.36613485 0.030982006 0.83520764 0.4597778 -0.38734174 0.035155997 0.12684377 -0.27443355 0.10468755 0.47646847 0.051849008 0.08104657 -0.068758704 -0.66270936 -0.18599285 0.09058043 0.2895458 0.460709 0.50178784 -0.017391674 0.3203752 -0.26402903 0.55170953 0.07765505 -0.13484818 -0.16260488 0.15997277 -0.13584946 -0.3334829 -0.009881774 -0.11604942 -0.2550707 -0.18120922 -0.0058433935 0.09215197 -0.18578023 0.6122535 0.34430388 -0.3347105 0.070239246 0.52489305 0.43771428 0.347003 -0.17001116 0.72804075 -0.0059565846 0.35080272 -0.39250103 0.096280366 -0.5772853 -0.2949599 -0.61416715 0.45614603 -0.3556447 0.01194803 0.42665794 0.5209724 0.1849362 -0.059911057 -0.4834242 -0.18869853 -0.027049953 -0.17720138 0.08458873 0.12200659 -0.04963808 0.61265826 -0.028725207 -0.06813967 0.5254269 0.1320225 0.5436974 -0.40472856 -0.43220428 -0.026743328 0.31946257 -0.17980263 -0.1138079 -0.13248609 0.5502324 -0.17917563 -0.29967174 -0.014996531 -0.32041427 0.2802613 -0.045778014 0.39889887 0.021665655 0.19866414 0.15888155 0.059536543 0.14871533 0.49508864 -0.40534285 0.1200276 0.19857423 0.11837452 -0.12270115 0.059386004 0.14681074 -0.121806994 0.08862131 -0.67786026 -0.06668523 -0.31133536 0.0727634 0.36209202 -0.33291486 0.2940624 -1.0052865 0.31176767 0.43438673 0.23242192 0.32953098 0.47612184 -0.3487058 -0.014052499 -0.17563553 0.26923466 0.25512204 0.47910228 -0.26721752 0.24860674 -0.077473514
19 -0.3245022 -0.38090026 0.07411234 0.618978 0.20192154 0.30201572 0.76332146 0.5890715 -0.61725426 0.18329003 0.049796302 -0.6185049 0.4577428 -0.039306093 0.1225976 -0.1369565 -0.42792207 -0.092826374 -0.31139895 -1.143849 0.039708372 -0.032206368 -0.35041368 -0.09550711 -0.3411022 -0.3472412 0.44298545 -0.013050594 0.3356975 -0.46343377 0.36528453 0.007577596 -0.2534556 -0.24122341 -0.21491414 -0.5069967 0.123483606 -0.22131601 -0.49936083 -0.36677003 -0.17847432 0.1943474 -0.41017053 -0.119692676 -0.21934673 -0.60220164 0.6396893 -0.021344729 0.4441215 -0.2187602 -0.026810132 -0.14192435 -0.19897944 -0.28415027 -0.5666431 -0.20490292 0.03956212 -0.09323202 -0.3895004 -0.39538145 0.532004 0.24743693 -0.29202953 -0.07433893 0.684687 0.02927607 0.046000674 -0.115135185 -0.61614984 0.028032701 -0.0175286 0.05907213 -0.3247477 0.6630057 0.25961655 0.037044544 -0.13943624 -0.009525125 0.25726488 0.23060317 0.08269215 0.102481626 0.0140263345 0.12284002 0.053946335 0.23071939 0.0075104083 0.21131156 -0.50515544 -0.2808173 0.16515909 -0.24281293 0.00042270357 -0.42269942 0.2063937 -0.22735374 0.65033984 -0.35937536 -0.23178712 0.25344256 -0.28338704 -0.1791211 -0.29295412 0.19604322 -0.13511933 0.17029655 0.056490652 -0.13343479 0.09663526 0.1573088 -0.41447967 0.004380202 -0.060405247 0.6259731 -0.47049817 -0.15890001 0.61349803 0.30816042 -0.38943267 0.29009223 -0.11705713 0.08120941 0.53355324 -0.1317146 -0.28446552 0.27252665 0.34432328 0.32117864
67 -0.17455737 0.45162636 -0.026338754 0.56175566 -0.06469583 -0.42052537 -0.2528115 0.35068408 -0.2661161 0.5618745 0.3764861 -0.089496866 0.07764937 0.022438513 0.15916657 -0.1827424 -0.06291141 0.72495025 -0.7025554 -0.109029464 0.4649713 0.40209404 0.12168172 0.0014573593 -0.20916238 -0.49933812 -0.095706426 0.30460754 0.09581062 -0.503909 0.26331547 -0.13716134 0.22346725 -0.38231814 0.24486217 0.14901122 0.043068487 -0.13314183 0.34440023 0.4894009 -0.37194782 0.104595006 0.01145803 0.26369378 0.11249335 0.64221483 0.05388009 -0.47106227 0.24938558 -0.43228915 0.08318991 -0.24457456 0.14846104 -0.3169824 -0.08352263 0.112339795 -0.45787048 0.034066852 0.23624362 -0.197888 0.60288006 -0.17048293 -0.368275 0.0051629813 -0.04492631 0.0325885 0.006376012 -0.11651208 0.18930632 0.0033914582 0.3583987 -0.074322544 0.22620858 0.4184077 -0.64530045 -0.10619176 -0.110979185 0.11605277 0.029006401 -0.067661695 0.009206239 0.76184356 -0.017394718 0.11613545 0.08895415 -0.044144597 -0.019686582 0.39035907 0.59264547 0.52191675 -0.045958232 0.25232792 -0.08261115 0.07127825 0.08123881 0.041112747 0.17908841 -0.7710451 0.16880743 0.15807988 0.40296918 -0.15785329 0.1203953 -0.21719691 0.033556838 -0.085003085 0.4037116 0.13797091 -0.26988858 0.09299318 0.39933276 -0.22318965 0.44357103 0.24464853 -0.04559179 0.21632387 0.3368444 0.4473037 0.20870996 -0.07869479 -0.11446241 0.20135792 -0.31088346 0.13869832 -0.4741966 0.32419792 -0.13634293 0.5307515
97 -0.36413994 0.22275138 0.024261363 0.45940453 -0.09793528 -0.49551567 -0.28382537 0.23420522 -0.2561061 -0.046238046 0.21653967 0.1389574 -0.037960824 0.15623957 0.0066639646 0.13268414 0.16726941 0.6843011 -0.5996688 -0.24188909 0.54612297 0.14737703 0.25988793 -0.002082935 -0.2790564 -0.64748126 -0.14080599 0.2532984 0.0024323326 -0.23848534 0.18954124 0.22247615 0.2416583 -0.47382787 0.14579268 0.23460434 -0.18533587 -0.28452125 0.3544098 0.12885132 -0.34122613 -0.3325965 -0.06386776 -0.0055717966 0.3587699 0.587035 -0.1417131 -0.7083046 0.47993138 -0.4231869 0.060583863 -0.23804079 0.18472484 -0.110387556 -0.24248989 0.43085963 -0.39392692 -0.11609671 -0.24270144 0.038173433 0.49329764 -0.17461118 -0.28129378 -0.031995386 -0.13689408 0.024034122 -0.23820068 -0.12728189 0.06877015 -0.05702243 0.48928007 0.07919721 0.19676621 0.46659902 -0.25520036 -0.1674229 -0.030592857 -0.08545518 0.19228294 -0.122253716 -0.029384695 0.68881905 -0.0070703253 0.02552119 0.04312593 -0.023439862 0.2301756 0.54899454 0.15466997 0.24981928 0.12728447 0.3953446 -0.1411294 0.17422637 -0.063594155 -0.03197283 0.35760677 -0.5757201 0.16981053 -0.2737366 0.3024916 0.22350274 0.44417593 -0.23959911 0.09200197 -0.09967334 0.45193967 -0.031845532 0.045862433 0.15538725 -0.062864274 -0.15598632 0.45379764 -0.098197296 -0.12110331 -0.1729605 0.07311816 -0.019071849 0.11929454 0.08301566 0.13481356 0.21563281 0.0023421824 0.071054004 -0.46804905 0.29151177 -0.14800021 0.56585604
91 0.044916376 -0.40569586 -0.03263944 0.3316503 -0.19343856 -0.32272366 0.48773202 0.32593885 -0.8034992 -0.12931669 0.12520412 -0.33831742 0.184673 0.70240015 -0.37934962 0.04312986 -0.68807554 0.24129394 0.22047195 -0.6278547 0.14890568 -0.121912025 -0.06815906 -0.038333394 -0.26251957 -0.40390718 0.37102425 -0.103300504 0.5270991 -0.37473944 -0.011326641 -0.45903882 0.047008816 -0.27298713 -0.07869073 -0.21890487 0.5793885 -0.65781224 -0.4388345 -0.26413098 -0.28772023 -0.29359776 0.12607576 0.16314667 -0.3262673 -0.04318915 0.53437465 -0.30945656 0.46061233 0.0780749 -0.07835511 -0.40632778 -0.48518157 -0.45379958 -0.48148426 -0.2762845 -0.21338071 -0.5808866 -0.74636954 -0.37103027 0.34162328 0.70033175 -0.18712404 0.05784324 0.7005968 0.08914698 0.07801743 0.0016414064 -0.07559002 -0.2700846 -1.2077057 0.38024595 -0.048349477 0.37631863 0.50189775 0.06190319 0.075123094 0.19363543 -0.022971343 0.047915455 -0.43372443 0.30041617 0.16714148 0.6612089 -0.31447512 0.1873343 0.14904246 0.2845196 -0.41761833 -0.015171991 -0.8961369 -0.44799867 0.13150431 -0.0753689 -0.110153176 -0.422421 0.62861294 -0.7424473 0.064689346 0.2723416 0.34164396 0.45697674 -0.20924129 0.469642 0.19457343 0.35922363 0.42127618 0.16985856 -0.15216231 0.33585447 0.06817867 -0.30647042 0.28439254 0.36943257 -0.36468366 -0.78665525 0.2552567 0.62107944 0.1295578 -0.29422742 0.087207325 0.3971784 0.76867896 -0.117426604 0.2923218 0.7070642 0.37795326 -0.07708918
65 -0.35008496 -0.6288586 -0.20789054 0.39277586 0.26472747 0.020364115 0.3585139 0.21904863 0.15753108 -0.059466984 0.27557668 -0.16210398 0.04365931 0.3180239 -0.24349369 -0.046310883 -0.04512758 -0.15041941 -0.3700879 0.124780186 0.31650245 0.51786476 -0.35472333 -0.21413328 0.029075319 -0.78280514 0.19574822 -0.21829595 0.3221107 -0.30181882 0.014065138 -0.53574085 0.4281084 -0.16314216 -0.081785195 0.46195552 0.117949285 0.009610369 -0.6819671 -0.064337514 -0.055087097 -0.59383184 -0.117684565 0.08724777 -0.055425726 0.4267268 0.13497566 -0.18498227 0.39961094 -0.3743417 -0.6778451 -0.38238165 -0.4304613 -0.77837723 -0.083093435 -0.51113856 0.4952113 -0.36122033 -0.86517256 0.10115842 0.17877065 0.28967464 -0.1623676 0.35880962 0.50069773 0.49377826 -0.06936941 0.07404089 0.38614374 -0.12992935 -0.54991186 -0.27212077 -0.53335184 -0.5252313 -0.5160591 0.5025097 0.21344842 0.2452589 0.1076676 0.32573748 -0.03747515 0.12113045 -0.19267175 0.03461964 0.24529113 0.29787618 0.25212014 0.41280323 -0.14704162 0.16493961 0.06959089 0.14217208 -0.1242397 -0.20440033 0.42783383 -0.80269593 0.3115982 -0.68534064 0.08885906 0.26240504 -0.5732802 0.0073741856 -0.035271656 -0.15403835 0.2141801 -0.35662144 -0.118245274 0.3626442 0.69948006 0.33118242 0.09366562 0.34766766 -0.447082 -0.13352922 0.5009336 -0.47534284 0.08003451 0.1890678 -0.36954188 0.19710195 -0.24659277 0.3286167 -0.055568736 -0.19868156 -0.0039292458 0.3896171 0.01071994 -0.037889257
94 -0.7963796 0.062352642 0.47046292 0.56051695 0.2965653 0.15879889 0.6729224 0.23829791 -0.19857927 -0.21301052 -0.044759642 0.11972973 -0.033347163 0.06101206 0.10599373 0.20187832 -0.34147602 0.19650495 -0.11226525 -0.28117418 0.51715934 -0.30450583 -0.11219667 -0.30694816 -0.36417145 -0.35884354 0.15951793 0.3341839 0.34348792 -0.029774733 -0.14285913 -0.5442162 -0.8036981 0.32428604 0.18076505 -0.3906915 -0.13981253 -0.06915762 -0.78792304 -0.07501276 -0.43579575 -0.10747534 -0.32734802 0.20757753 0.76355857 0.11729181 0.35015064 -0.12539099 0.054309767 -0.07092921 -0.25774264 -0.39073175 -0.12144316 -0.3080171 -0.25302488 -0.37841308 0.2863991 0.039291568 -0.6439367 0.42695263 0.19967143 -0.06404685 -0.46622467 0.1697971 0.35186103 0.21514946 -0.41155732 -0.10057294 -0.16660856 0.32414463 -0.50904244 -0.0067623006 -0.47925252 -0.11116116 -0.11005919 0.3392977 0.32293606 0.69444335 -0.3756006 0.399804 0.22192685 -0.06490472 -0.23264565 0.060687736 0.12095774 0.551586 -0.17394051 0.27328214 0.30889463 0.09182343 -0.2996223 0.6007482 0.27402443 -0.20320632 0.0150663415 -0.3106205 0.21668456 -0.3904249 0.085533954 0.41197187 -0.2931026 0.28136057 -0.37022176 -0.06155885 0.52773666 -0.12261625 0.23503205 -0.19101484 0.048610184 0.28433767 -0.27094874 0.52238935 -0.02832839 0.6965275 0.37027615 -0.42769513 0.22793613 -0.007666943 -0.2567725 -0.39201593 -0.20553017 0.26686218 0.26429817 0.46439144 -0.032240488 0.21828419 -0.011029539 0.27650374
133 -0.21378382 -0.018656952 0.05357657 0.6373133 -0.05557734 -0.07014699 0.18851392 0.507285 -0.52965134 0.12010391 -0.37550735 -0.5448775 -0.09157436 -0.22169527 0.022470102 0.1299794 0.39535806 -0.16019368 -0.12189166 -0.3388609 0.21786906 -0.2813778 -0.12241683 -0.33117923 0.19460171 -0.72788906 0.06719544 0.13013558 0.48364708 -0.44249037 -0.41654307 -0.022708254 0.21552186 -0.38666406 0.16814734 -0.029223468 0.44476566 0.060773868 -0.33463156 0.22714293 0.4769515 -0.5366644 0.065751985 -0.3690718 0.043663107 0.04206334 0.24951558 -0.4870997 0.25386208 -0.23383175 -0.30670327 -0.41107062 0.33575317 -0.3349909 0.48794377 0.1791949 -0.1312622 -0.008316164 -0.56471974 0.24680445 -0.33243507 -0.2008315 0.61739755 -0.1843052 0.5129782 0.24042794 0.30971503 0.18074702 -0.45970747 -0.34112304 0.32275665 0.16947626 -0.15137118 -0.2226007 0.6298847 0.13650839 0.104931474 -0.06134818 -0.28005016 -0.5766912 -0.10953631 -0.4361546 0.36163962 -0.14318652 0.082084805 0.09551521 -0.8373373 0.28781816 0.49807552 0.43707967 0.59729135 0.5119172 -0.4160897 -0.042171862 -0.056389146 -0.4791069 -0.0792292 -0.117246 -0.24459186 0.3481612 0.45800483 0.6610347 0.123665266 0.020424673 0.49717042 0.7483496 0.36729777 -0.00567903 0.020241382 0.37755135 0.37736294 -0.5630174 0.03171751 -0.1592844 0.06026906 0.051365353 -0.17584412 -0.4575384 0.4008396 -0.351952 -0.19629842 -0.5273843 -0.08031452 0.26335445 -0.041464236 -0.21731001 0.04447116 -0.08658456
37 -0.17075789 0.22167623 -0.30002704 0.15367915 0.10846121 -0.11894754 0.10604942 0.13513692 -0.23144428 -0.4278784 0.08498691 0.27496147 -0.011932455 -0.45914504 -0.22123186 -0.021182781 -0.04687926 0.76793045 -0.89683205 0.027149457 0.35722542 0.6653382 0.122748636 0.16830423 0.0874373 -0.73388326 0.603093 0.54960746 0.49763912 -0.1540995 0.24307443 -0.08416094 0.2487427 -0.5391579 -0.4500697 -0.37142065 -0.048370507 -0.15418707 -0.11888768 0.32466388 -0.24614106 0.47850567 0.47624895 -0.29145095 0.39221004 0.29135194 0.18643174 0.042380154 0.4526724 -0.22069308 0.2890001 -0.9344089 -0.19460407 -0.15609173 0.06654561 0.3498002 0.7579581 -0.15867814 -0.13940012 0.3581674 0.6587244 0.053423762 0.06718005 0.25715652 -0.75027937 0.069034405 0.40831262 -0.011055377 0.40092176 0.23430014 0.3512784 0.16891804 0.4424655 0.1920537 -0.22039948 0.10150478 0.030031899 -0.2696714 -0.5488849 0.24712034 0.14065374 0.35518816 -0.6762138 0.08535759 0.29467583 -0.024805361 -0.4603698 0.108345486 0.1275394 0.040702317 -0.0044371686 0.01047219 -0.45804763 -0.19046639 -0.13689353 -0.15640047 0.33068854 -0.49399152 -0.6290407 0.47158432 0.26842183 0.16979554 -0.3708367 -0.25932515 0.50469315 0.471564 0.18098716 -0.1508377 0.27405408 0.055471454 0.10585355 -0.34746745 0.18946269 -0.068408884 -0.23014955 0.41691256 -0.07885096 -0.2202968 -0.07330836 0.22628905 -0.63934004 0.09214115 0.13461427 0.91010284 -0.61043674 0.03932884 -0.010077406 0.13519207
98 -0.16934468 0.2710259 0.14285962 -0.18442032 0.32523164 0.071290426 0.4198572 -0.31098315 -0.60137266 0.03164934 0.3116806 -0.3124733 0.00010735168 -0.045738548 -0.044408645 -0.33517006 -0.0605189 0.23050036 -0.10299793 -0.2490367 0.17764 -0.62342674 -0.14867564 -0.43823928 -0.08327756 -0.122086935 -0.28477773 -0.12760423 0.2625856 -0.36751717 -0.24581666 -0.2921395 -0.13363767 -0.09393919 -0.042466912 -0.47072515 0.55411524 -0.2964102 -0.1555884 0.5283331 -0.048725873 -0.13806193 -0.06605547 -0.4400264 -0.052384157 0.39745682 -0.045677457 -0.09084643 0.21665001 -0.2618362 -0.046878662 0.2334784 0.485264 -0.26446763 -0.015887154 -0.0006597646 0.11401843 -0.18970795 -0.5075269 0.26782238 0.2297284 0.09761979 0.03265646 0.18905143 0.06752575 0.20421308 -0.006327772 0.28541562 -0.392794 -0.040154494 0.38288695 -0.5284988 0.06334262 0.4657783 -0.037269067 0.34590903 -0.03645442 -0.5415585 -0.43466616 0.2477389 -0.21031478 -0.34649578 0.1503673 -0.228282 0.29942575 0.05164418 -0.47836033 0.1295533 0.30053347 0.3123908 0.8803592 0.6373838 0.25839436 -0.21558326 0.42811972 -0.3853008 0.0050476417 0.13558806 -0.51522386 0.03415919 0.13635293 0.21498534 -0.4106189 0.1817647 0.03608749 0.08205467 0.31119063 0.20033446 0.18571036 -0.058584876 0.72038674 -0.01675695 -0.058119684 -0.20598966 0.117624424 0.051785182 0.33093902 -0.15223576 0.15195876 -0.27063194 0.16534121 -0.28547004 0.10719048 0.16942707 -0.18181802 0.12588306 0.49264157 -0.34965238
123 -0.1704691 0.1550407 0.13990591 0.03240842 -0.019262645 -0.29718897 0.22219157 0.33791605 -0.0062289387 -0.21194221 -0.17975365 -0.16361213 0.09172856 -0.13906263 0.41157055 0.08582914 -0.2824832 0.56927526 -0.54096776 -0.23629306 0.09184951 0.204787 -0.1380992 0.12046258 0.115114376 -0.58679974 -0.072253175 0.2223739 0.33796203 0.13770069 0.5331026 0.16464813 0.2995619 -0.41450548 0.0045009633 -0.11340679 -0.21432532 -0.4006745 0.053508006 -0.067394994 -0.17735635 -0.14645591 -0.06462417 0.1680768 0.28655434 0.4961626 -0.33119285 -0.5699788 -0.36336398 -0.40878436 -0.3465936 -0.31480396 -0.23752601 -0.22702278 -0.08763714 0.10441663 -0.07642087 -0.3588114 0.23921764 0.108043924 0.8045402 0.45791876 -0.012438457 -0.1882867 0.089740835 -0.017944405 -0.34787476 -0.45455918 0.4188325 0.051288728 0.67542756 -0.28300914 0.4265279 0.31182882 -0.074150376 -0.038784202 -0.23814154 -0.46423683 -0.111093305 0.15387899 0.1268491 0.35499594 -0.1589671 0.039396893 0.31753415 0.50116354 0.3738019 0.25760415 0.14387085 0.3905424 0.1920041 0.06222819 -0.4399203 -0.062411696 -0.13043007 -0.21121874 0.17815083 -0.50918394 0.11880718 0.016059885 0.060037892 0.2248984 0.18261756 -0.34766155 0.16582932 -0.16501829 0.29743004 0.009071136 0.17222592 -0.0116505725 0.75455964 -0.4902549 0.34712535 0.06982724 -0.583476 0.24906263 0.61843276 0.76396763 0.21120214 -0.12158902 0.1098883 -0.034508474 -0.6163059 0.42155057 -0.3963488 0.07713845 0.14909528 0.1955545
80 -0.6126766 0.22739254 -0.117070995 0.46069887 0.05054783 0.09398178 0.40914682 -0.27240726 -0.20415178 -0.21899067 0.27639243 -0.21285279 -0.1808669 0.59181124 0.60266036 0.07879871 0.0031517136 -0.08907254 -0.36139163 -0.8092787 0.08409418 -0.071501695 0.3523731 0.09248751 -0.36834466 -0.22479431 0.22035694 0.5057135 -0.01992387 0.005028931 0.12568085 -0.40901744 0.18864325 0.50505066 -0.16067737 0.04378138 0.18371038 0.1600425 -0.4698333 -0.3713096 0.31088153 0.00079873623 -0.40432817 -0.11182632 0.14819779 0.45987144 0.023182288 0.05955126 0.4788518 -0.052493904 -0.31998187 -0.6464601 0.0716838 -0.7963335 -0.26558083 -0.35827547 0.12987383 0.0030533376 -0.9110728 0.12143816 0.93556714 0.20669682 -0.20611164 0.2876599 0.5176558 0.4536644 0.18488312 -0.08963548 -0.06748359 -0.30368865 -0.60385585 -0.19345966 -0.54337245 0.554359 -0.19931217 0.029061744 0.0037174006 0.6574443 -0.17176501 0.4351099 0.025703581 -0.029754737 -0.29292765 -0.106436215 0.27428675 -0.1215035 0.040791 0.28941178 -0.6119981 0.076367274 0.06595006 -0.11731264 -0.17619218 0.46536076 0.0006954525 -0.24166244 0.015965858 0.03270494 -0.011298273 0.74073803 -0.053087153 -0.20770526 -0.069251545 0.22910208 0.04317077 -0.33601782 0.12016265 0.31163424 0.4036685 0.0020552317 0.113791265 0.254578 -0.22168534 0.31023085 -0.34589833 -0.3659647 -0.10061205 -0.18557028 -0.16032504 -0.028114952 -0.3193285 0.07298771 0.21788958 0.32975364 -0.12329109 0.5231225 -0.661099 0.03019087
202 -0.11813492 -0.03151306 -0.04176816 0.2687886 0.23957057 -0.38151392 -0.035644673 0.35246456 0.17541474 -0.33664706 0.3377751 0.14567639 1.0659177 -0.47065565 -0.40169007 -0.44404355 0.09794784 0.91625506 -0.45847076 -0.5616209 -0.3109278 0.017517202 0.33447132 -0.6771686 0.33978304 0.11893301 0.56887054 0.28224364 0.7345622 -0.601517 -0.19222659 -0.3655458 0.1737869 0.5367782 -0.2149843 -0.3302823 0.09741893 -0.04082997 -0.58047336 0.14413726 -0.09187713 0.021118969 -0.38080537 0.41931444 -0.17429148 -0.24150959 -0.3880018 -0.24906217 0.46791682 0.0139316665 0.50343865 0.019898884 -0.472315 -0.4044781 -0.22459072 -0.7926773 0.013736767 -0.03702539 -0.6730564 0.20564336 0.051342778 -0.099556655 -0.4138997 -0.7197406 0.020276533 0.480127 0.10750924 -0.094643824 0.09318798 -0.15577821 0.6333691 -0.5300076 -0.54575264 0.367 -0.269437 0.077345155 -0.16398218 -0.3535736 -0.0034828093 -0.4926456 -0.09205079 -0.49637675 -0.32102165 -0.13612051 0.41439402 0.44760135 0.19685195 -0.12051131 0.29773098 0.19666407 0.06690901 -0.27531374 0.053637527 -0.17423172 0.22903396 0.23402953 0.44111738 -0.24067092 0.07832918 0.2792276 0.13018328 0.41036254 0.18896377 0.7041023 -0.43160155 -0.5936838 -0.42888382 -0.06582752 0.31554404 0.172674 0.0834758 0.09479924 0.76511914 -0.3876734 0.20963408 -0.43079612 -0.14798462 0.2704318 0.67081803 -0.33124465 -0.38023502 -0.44415176 -0.2572053 0.29404396 -0.11529804 -0.13788357 0.20932345 0.26238567
804 -0.11764497 -0.23214796 -0.019928444 0.5110372 0.37647757 0.07366643 0.9126635 0.44783282 -0.41585028 0.069765866 0.114866115 -0.3354901 0.12648271 0.5398827 0.09505676 0.09757763 0.0077875424 -0.6595597 -0.23070273 0.074785665 0.4020537 0.50214905 0.45803186 0.09404288 0.34107292 -0.26878056 0.52008164 0.056511194 -0.15882283 -0.100881055 0.09867306 -0.10052456 -0.3524316 -0.058517117 -0.058875035 -0.2319128 -0.20612115 -0.09229262 0.16361876 -0.21404998 0.5834136 0.3702597 -0.37827647 0.036702055 0.5353877 0.3245383 0.36081746 -0.24522585 0.77159435 -0.006520678 0.39618352 -0.35279462 0.10329527 -0.55224884 -0.36377743 -0.63663 0.5169872 -0.3510121 -0.026980942 0.46376473 0.5982549 0.21847431 -0.07437886 -0.55604124 -0.18437436 -0.046616405 -0.106649876 0.15330492 -0.026644679 0.044081606 0.6494972 -0.021240065 -0.09539235 0.7350889 0.20405093 0.6117793 -0.516524 -0.55086505 -0.03698015 0.28935063 -0.23424916 -0.16253725 -0.16569352 0.538273 -0.09926636 -0.3797693 0.12380909 -0.42068505 0.32512042 -0.08783522 0.41674107 0.04837461 0.29508996 0.14119188 0.08517859 0.12192725 0.6111446 -0.47987866 0.26211974 0.2395685 0.20626627 -0.16972116 0.004136196 0.121923886 -0.089166135 0.095007874 -0.6850258 -0.074792236 -0.35342434 0.047630917 0.28786448 -0.33843413 0.2890497 -1.049156 0.24138434 0.4068546 0.14625803 0.39276457 0.46994776 -0.3548427 -0.07972534 -0.26568425 0.2988524 0.27888706 0.46087646 -0.28664604 0.23230754 -0.09928979
114 -0.43834728 -0.2645562 -0.5903198 0.31530088 -0.39678898 -0.09862343 -0.19991222 0.10002535 -0.074721135 -0.15657751 -0.008776935 -0.103523694 -0.11280206 0.28877822 -0.20756744 0.0577008 0.42057967 0.32316428 -0.30548152 -0.6054081 0.38248274 0.24274932 0.0596326 0.24209218 -0.31064194 -0.36570746 -0.01127288 0.4314537 -0.08201975 0.26445562 -0.0149024315 -0.6124561 0.10704973 -0.65855616 -0.65290296 -0.0010222594 0.18153457 -0.35457623 0.017672276 -0.0799407 -0.051076066 0.0012730472 0.2560453 -0.3015592 -0.09560071 0.014918014 0.42939308 -0.9274288 -0.16693603 -0.38247383 -0.25757805 -0.46803 0.17562893 -0.04876583 0.6382738 -0.018181171 -0.33634406 -0.45806584 0.11650841 0.61657006 0.818857 0.00830238 -0.20826194 -0.3133423 0.079842374 0.31420547 0.5470771 -0.29924724 0.082646914 -0.24208876 0.23397239 -0.39543092 0.9731584 0.45641473 -0.45315325 -0.29303172 0.7525761 -0.60876286 0.0110043315 0.20561682 -0.26206052 -0.12362671 0.036713723 -0.28463215 0.22245552 0.24463351 -0.09846101 0.05032624 0.014058376 0.26203611 0.025833528 0.19828318 0.5303132 -0.28998393 -0.24783887 -0.44516036 0.5262086 -0.44299552 -0.5933445 -0.4407974 0.3226309 0.079535946 0.483284 -0.33936045 0.18124345 0.20003425 -1.4793819e-05 -0.18799794 0.19474584 0.6035079 0.7793755 -0.42664778 0.4619259 0.24772757 -0.1237477 0.0030801862 0.26840553 0.24667427 -0.31176186 -0.11828046 0.23746485 0.23107862 0.39431047 0.6518006 -0.5863763 -0.06884427 -0.5105612 0.5480881
107 -0.60401195 0.5658891 -0.1840093 0.30198583 0.21684815 -0.5080327 -0.77922314 0.235706 -0.70607287 -0.4477446 -0.31183574 -0.88108987 -0.10547373 -0.2429386 -0.4611849 0.66578364 -0.05145621 0.6812896 -0.91176766 -0.15039134 0.45945328 0.43082708 -0.55184805 -0.17122012 -0.06038486 -0.07466539 0.059664957 -0.3239319 -0.15381305 0.0072001843 -0.06920631 -0.671315 -0.69387656 0.71673834 -0.33836213 -0.6941558 -0.0073685483 0.034135282 -0.10882358 0.12716123 0.66600645 0.37898514 -0.2733774 0.051689804 0.35655472 -0.008720937 -0.34439752 0.32122922 -0.43067023 -0.49268112 0.40590292 0.27616525 1.0244004 -0.6271831 -0.54233706 -0.02612789 -0.24627851 0.0791837 -0.5332801 0.5362474 0.19730091 0.8429231 0.51017034 -0.6858737 0.19740383 0.023533331 -0.7246014 0.26483458 -0.109961 -0.20157251 -0.40069363 0.027100224 -0.42674002 0.07626837 -0.3280227 0.7179045 -0.22065686 -0.79886526 0.8367107 0.010883673 -0.37620217 -0.12160323 0.12980051 -0.016960504 0.21571556 0.050265875 -0.5492132 -0.03106207 -0.06531489 1.1789455 -0.16703838 0.3673508 -0.1657828 0.06822843 0.81240284 -0.4163079 1.0201325 -0.060785208 -0.7488078 -0.3010753 -0.13911775 0.42763013 0.8707326 -0.0068258536 -0.4882906 0.27335358 -0.06930442 -0.14027975 0.68065107 0.1530187 0.52093554 -0.2048974 -0.02368745 0.018895654 -0.50179213 -0.25051692 0.56122464 0.11795791 -0.33827472 0.5055167 -0.5005128 0.4918048 0.58103025 0.37864354 -0.664497 -0.5096967 0.16830787 0.024458893
108 -0.5932047 0.54728955 -0.16978212 0.31452984 0.21420816 -0.51692504 -0.7865454 0.2588952 -0.65952206 -0.48615396 -0.2819173 -0.9056944 -0.124053374 -0.24751 -0.4925658 0.6263633 -0.05472048 0.6576616 -0.9048448 -0.11494017 0.40602717 0.44587147 -0.58990824 -0.17460348 -0.15388335 -0.062146083 0.007967975 -0.2237148 -0.17117895 0.004342573 -0.059523974 -0.6739447 -0.7023484 0.6335208 -0.3360939 -0.76185673 0.05473147 0.07749058 -0.073860146 0.10701371 0.73412746 0.38158703 -0.27459317 0.11193374 0.40459448 -0.08261836 -0.3999351 0.3881349 -0.37051722 -0.5264882 0.46166596 0.3379562 0.9965201 -0.645598 -0.54906774 -0.028552487 -0.23634377 0.15421906 -0.491585 0.54279226 0.19398786 0.7951617 0.59031475 -0.6280382 0.1856933 -0.016017579 -0.7825062 0.3105399 -0.12907611 -0.21064244 -0.3105928 -0.051752772 -0.390756 0.06438514 -0.264673 0.7211904 -0.31256372 -0.8345621 0.76722676 -0.0090797255 -0.3270002 -0.20640704 0.09288629 -0.023388805 0.09831602 -0.045224477 -0.53538686 -0.020870415 -0.076541446 1.1214955 -0.08911856 0.42011705 -0.19484773 0.042685725 0.80781686 -0.49146444 1.0125421 -0.0779471 -0.7343497 -0.26902115 -0.11346421 0.43600446 0.80820924 0.02632574 -0.40359232 0.24421844 -0.034446973 -0.09261963 0.752004 0.18978769 0.5347729 -0.22328384 0.02512331 0.02377348 -0.5942677 -0.30691114 0.57611465 0.15944158 -0.3086584 0.43366134 -0.56629574 0.57373255 0.6983433 0.41196704 -0.65966344 -0.42828587 0.17413671 -0.040754206
130 -0.33189225 0.082161404 0.041532945 0.09465689 0.06096462 -0.57988757 0.38403526 -0.12492835 -0.41314268 -0.00075159094 0.11080126 -0.848496 0.06094067 0.3186489 0.09139688 -0.024219017 0.18495263 0.04891959 -0.4506206 -0.69593364 -0.12619479 -0.41876617 0.03169153 -0.62825346 0.5399856 -0.20673016 -0.12183872 -0.63780427 0.0238788 -0.022874484 0.16369382 -0.14645067 0.66073346 -0.3017317 -0.32134816 -0.6214737 0.34367934 -0.10600557 -0.40589637 0.6840876 -0.13032416 0.07198619 -0.16133358 -0.49790102 0.08021768 -0.101918526 -0.40999267 -0.049322743 -0.0022813338 -0.23778616 0.2838791 0.4810433 0.27405527 -0.33578914 -0.036380656 -0.6018633 -0.21274826 -0.22664203 -0.7972114 0.3084579 -0.12311864 0.22957975 0.22634275 0.052651666 -0.15326646 0.0067590717 -0.026697194 0.14298724 -0.122729786 -0.05755103 0.32146794 0.043455604 0.21214177 -0.31900454 -0.05159879 0.017789142 -0.5440462 0.08246544 -0.06529294 -0.24416438 -0.04662795 0.14210118 0.16483912 -0.14859147 0.06520223 0.16901772 -0.33964506 0.7027075 0.8066287 0.011971653 0.2604294 0.42622834 0.49303493 0.71853113 0.25606394 -0.45305583 -0.086658195 0.1367457 -0.5271761 0.02237729 0.60237193 0.10701042 -0.03403738 0.3262084 -0.047380786 0.5230727 0.37587422 -0.01081173 0.19597602 -0.056698535 0.6161812 -0.18148135 -0.05382579 -0.2228127 -0.05398658 0.029981384 0.017647464 0.23920482 -0.008987958 -0.058579005 0.014326369 -0.23376672 0.29474336 0.4300284 -0.021982426 -0.203531 0.14730938 -0.36685318
50 -0.2217273 0.07026226 0.2257366 0.060302794 0.018505694 -0.09664156 0.8840639 0.6123025 -0.621202 0.17278633 0.025713751 -0.23639551 0.030763386 0.4485963 0.2931721 -0.20975584 -0.015218515 -0.19565457 -0.21865486 0.19114754 0.5767426 0.2107942 0.28710902 0.29027382 0.10042708 -0.019395828 0.3305451 0.24769649 -0.032112524 -0.057255257 -0.038153786 -0.53899705 0.14654753 0.5038188 -0.19974968 -0.4883236 -0.24030131 -0.019034764 -0.021902861 -0.09590183 0.17148341 -0.00017125663 -0.023084804 -0.15850537 0.23180136 0.3765141 -0.22041671 0.22166464 0.37638226 0.52282125 0.85890955 -0.58638483 0.18380277 -0.37487307 -0.048516184 -0.24827372 -0.13185193 -0.018382391 -0.026695777 0.47731522 0.038993243 0.27194488 -0.28216803 -0.41795564 0.042692285 0.17619449 -0.31743976 0.328523 -0.007920475 0.15579236 0.43441838 0.33433384 -0.53397024 -0.29615077 0.010492977 -0.41336644 0.1992893 -0.4740415 0.057557285 -0.0944329 -0.034870654 0.408819 -0.28981248 0.34813452 0.47358215 0.03131031 -0.112179965 -0.12180189 -0.06455887 0.06119935 0.4465897 0.07230184 0.17705175 -0.23707354 -0.13005504 0.009406643 0.5790109 -0.7201596 0.03944843 0.35897246 0.59639394 0.37439823 0.42563507 0.25586507 0.046765868 -0.44949389 -0.11310985 -0.046740122 -0.03692606 0.07756122 0.14469022 -0.24172732 -0.45659095 -0.45366156 0.30904543 0.30559385 -0.40981334 0.17185956 -0.195651 -0.46418288 0.20378964 -0.24806066 0.49866098 0.15479675 -0.15242277 -0.016984073 0.22930366 0.2430894
5 -0.06376247 -0.5828722 -0.64142007 0.9762099 -0.1487874 0.2497925 0.5054621 -0.03377928 -0.1649942 0.012713607 0.043303274 -0.49811602 0.014195143 0.35553584 -0.26197368 0.6053366 0.075262 0.28880605 -0.4217618 -0.086460784 0.40775213 0.096348174 -0.22347106 0.12612426 0.11365352 -0.59378976 -0.26683566 0.4344476 0.4448486 0.2586733 -0.25843272 -0.085698366 -0.24707296 0.031300843 0.4046797 -0.26823267 0.52359873 0.25706932 -0.46213907 -0.50156176 0.090411544 -0.16389735 -0.28257802 -0.11743022 -0.004036816 -0.12657914 0.5010231 -0.02362253 0.28368604 -0.30226624 0.20352393 -0.34038112 0.22042567 -0.718637 0.046117004 -0.44407064 -0.016494058 -0.28484526 -0.26997802 0.5691002 0.10003314 0.25936145 -0.8770821 -0.37762296 0.16765164 0.24558114 -0.055162247 0.299799 -0.25480554 0.03140546 -0.7309181 0.2721128 0.093440875 0.18522212 -0.27524385 -0.08229384 0.056577653 0.5220373 -0.322046 0.111101024 0.08801917 -0.05287994 0.12077462 0.37506917 -0.33678818 0.15691558 0.40378615 0.4463011 -0.07024857 0.22601089 0.044846278 -0.022944992 -0.01067955 -0.21924357 0.12896125 -0.2211446 0.17197102 -0.3896785 -0.22312137 0.45891044 -0.08318835 0.018207746 -0.0038519471 0.36934072 -0.08657676 0.261729 -0.116977096 0.37192664 0.17150046 -0.341698 0.36472988 0.07548184 -0.0030019672 0.4514761 -0.16552174 -0.1794727 0.062355645 -0.018753616 -0.1570522 0.04537264 -0.36871922 0.51035196 0.3023319 0.3639989 -0.43602633 0.6338439 0.02771017 0.26570338
106 -0.34267884 -0.26597682 -0.1525658 0.5641121 -0.17331977 -0.57960594 -0.010243017 0.057328224 0.21904899 -0.3881652 0.016698245 0.045562748 0.018852152 -0.19033982 -0.35252202 0.1236864 0.09395347 0.1198553 -0.76876646 -0.330467 0.47270736 0.038792584 -0.057735372 0.15780987 -0.013051363 -0.70375854 0.1342833 0.33186212 0.24669676 -0.31327757 0.09579859 -0.03213525 0.18786378 -0.16365586 0.06357054 0.007403383 0.20909147 0.13507043 0.08450201 0.3484957 -0.12615429 0.004636243 0.36548284 -0.26153883 0.05978261 0.48904592 0.5539296 -0.26939946 0.15085317 -0.13421974 0.23870975 0.060247827 0.5018921 -0.19172692 -0.34956294 0.27476725 -0.03066089 0.0527427 -0.2560733 0.25690532 0.39036724 -0.105785325 -0.2719137 -0.25754875 -0.27176106 -0.022880873 -0.3824435 0.018887876 0.26181564 -0.093064465 0.5355017 -0.48273644 0.6046059 0.5883053 -0.32458606 0.11842709 0.39475003 -0.31454974 -0.24304189 0.05188001 0.0013717368 0.52675074 -0.20671691 -0.4411366 -0.029021585 0.3175341 -0.19757313 0.115455344 0.24503544 0.32800123 -0.2930091 0.46789917 -0.07772045 -0.21628669 -0.24532817 0.13622358 0.32030767 -0.123636544 0.2979009 0.298112 0.75556856 -0.22112079 0.3092071 0.100901864 0.107948504 -0.44731545 0.39444867 -0.11194058 0.23939224 0.4602186 -0.09298251 -0.24028009 0.3168114 -0.13350978 0.17448457 -0.2965336 0.30241886 -0.077970386 0.24068369 0.38732138 0.20368235 0.29417306 -0.0150741115 0.4339418 -0.63184804 0.086321644 -0.1826256 0.14111294
105 0.31340224 0.32039183 0.5315364 -0.12668523 -0.1993883 0.42574316 0.46783173 -0.29997912 -0.3165084 -0.019707581 -0.14321654 -0.7719648 0.085468285 -0.4088129 0.020586118 -0.62732005 -0.20899518 0.008549439 -0.3403589 -0.59591264 -0.055332318 -0.23628275 -0.21571933 -0.6478502 0.17370865 -0.44319004 -0.0026657998 -0.07469358 0.226436 -0.34944916 0.37044603 -0.27415156 -0.08250647 -0.03976315 0.008070976 0.06550749 0.34951207 -0.23312305 0.09523995 0.4730453 -0.4381477 0.39943483 -0.09173487 0.60940623 0.10474803 -0.05428093 -0.02229114 -0.2759906 0.03469646 -0.5064545 0.21145485 -0.49560812 0.35576272 -0.28593698 -0.02476463 -0.20496653 -0.47813696 -0.065249585 -0.43995973 0.43298092 0.42019385 -0.20904647 -0.36530557 -0.16816206 -0.17435253 -0.09409851 0.016860338 0.14277308 -0.08640092 -0.3948696 -0.035742406 -0.44585258 -0.21348259 0.32015386 -0.23420699 0.37446967 -0.45881334 -0.18146162 -0.30920357 -0.5503689 -0.013696776 0.09728926 0.4163335 0.0676387 0.0202368 -0.20195726 -0.24502929 0.042901076 0.5915233 -0.04061734 1.0216669 0.640143 0.49961546 -0.33950216 0.20642635 -0.319398 0.19820763 0.21369676 -0.21515128 0.47203994 0.51401144 -0.04753855 -0.3064525 0.34543428 -0.11224853 0.3460895 0.35913944 0.47724342 0.3475619 -0.19534065 0.14393845 -0.08421663 -0.4280594 -0.43648815 0.44575825 0.057250377 -0.11540408 0.25953567 -0.18960375 -0.2476255 -0.088153295 -0.22062603 -0.0115908515 0.008209781 -0.012211045 0.23945865 0.42049274 0.30292913
1162 -0.1740553 0.42782328 0.08039586 0.5372892 -0.0018978857 -0.35257557 -0.20857482 0.40542674 -0.28513244 0.7358595 0.3942202 -0.13276951 0.13302618 0.122521624 0.18903287 -0.23186655 -0.057150796 0.7393306 -0.7713747 -0.12119672 0.5759124 0.49528775 0.13388112 0.05779746 -0.22921506 -0.51860774 -0.22980495 0.28076577 0.045559365 -0.54162776 0.22873482 -0.1595957 0.19725382 -0.4454662 0.25264454 0.26834866 0.018507663 -0.15487806 0.32521367 0.5918118 -0.31126568 0.15656626 0.08811581 0.22999096 0.120759204 0.65216726 0.037050586 -0.5475875 0.28641817 -0.38884875 0.080178455 -0.31703162 0.09543222 -0.28491578 -0.09629493 0.10085317 -0.43635276 0.028299255 0.27071756 -0.3492887 0.6868068 -0.18429594 -0.35942724 0.026647568 0.0048201303 -0.060697757 0.0064055594 -0.032277312 0.14941835 0.12172548 0.24708402 -0.0756094 0.07150825 0.5244686 -0.55296624 -0.17600818 -0.09386757 0.15578762 0.15591198 -0.13982065 -0.023423854 0.8738895 -0.062111065 0.1461796 0.18054466 -0.07321782 0.04215962 0.4233959 0.73438567 0.61708766 -0.055233017 0.15700327 -0.036126815 0.09857857 0.17860697 -0.013680426 0.20377544 -0.76763856 0.20925508 0.08760744 0.45374385 -0.16562171 0.19310452 -0.1974631 0.013203628 -0.101706535 0.46903682 0.09650368 -0.24232323 0.054708544 0.49148443 -0.20670652 0.43552035 0.31993884 -0.06753886 0.12987971 0.36256602 0.54967195 0.3228071 -0.11445398 -0.15712216 0.1058336 -0.36495697 0.18272157 -0.5775492 0.3402178 -0.17300549 0.50582
2 0.07582462 -0.76895237 -0.27166218 0.31028008 -0.49430886 -0.35055232 0.68615824 0.5441489 -0.7612156 -0.20572375 -0.74091053 -0.07200223 0.068616584 0.47521996 0.1327848 0.03139543 -0.36902553 0.07466679 0.11197191 -0.0144683 0.027128166 -0.25807494 -0.30865902 0.09256303 0.18779871 -0.048306257 0.4440619 -0.120989785 -0.19295596 -0.22447656 -0.3683413 -0.067861974 -0.5094639 -0.08937061 -0.23954809 -0.12414316 -0.20654766 0.41245073 0.09817388 -0.5178667 -0.04957037 -0.011321115 -0.13559887 -0.59922636 0.07253079 0.10482245 -0.022235315 0.12694195 0.28071016 0.014423399 0.597029 -0.11298679 0.32504225 -0.32512486 0.030144598 -0.6779293 -0.17497826 0.5643661 0.28898808 0.5276338 1.0626031 -0.1431468 -0.30765706 -0.4953394 0.3477115 0.334196 0.07951187 0.14485873 0.7815231 -1.1414679 -0.05228377 -0.4018205 -0.25864607 -0.46215805 0.072969116 0.09008928 0.92028356 -0.09455151 0.1483049 -0.058534015 -0.23366521 0.7135646 -0.62278765 0.20220357 -0.12362505 -0.022805234 -0.5156146 -0.32819828 -0.09912683 0.10366856 0.20201929 0.54354894 0.0789818 -0.032594644 0.7150137 -0.13467461 0.368957 0.03047357 0.3296183 -0.39627603 0.11916598 0.030739607 0.3598619 0.33239797 0.30463526 0.6017514 0.041856263 -0.06639849 0.3014325 0.30074206 0.33743215 -0.34704602 0.2848674 -0.9608967 0.020018183 0.049483195 -0.06527528 0.35028532 0.011112376 -0.29515317 -0.12309543 0.24613607 0.47414827 0.58726853 -0.032448824 0.6784106 -0.42888728 -0.111299135
6 -0.7646947 -0.29715398 -0.05347604 0.93927974 -0.24416952 0.08347491 0.67419857 -0.13485275 -0.2036402 -0.084482014 0.027977388 -0.27716416 0.050348647 0.24088657 0.44245407 0.29709843 -0.17700413 0.13714835 -0.4021072 -0.52347475 0.2581694 0.20583567 0.07018271 -0.08574108 -0.18418822 -0.3492259 0.05620137 0.29299322 0.12152903 0.17606297 0.1765344 0.027769797 0.23248355 0.26818737 0.31900382 0.0016413619 0.07050111 0.3118841 -0.31148207 -0.34048057 -0.13040297 -0.47476935 0.11394041 0.059286773 -0.060515884 0.193491 0.41792378 -0.026213704 0.25625804 -0.34996513 0.01285615 -0.0007896644 -0.048731167 -0.1293938 -0.13245824 -0.3674761 0.3666307 -0.17940333 -0.6206551 0.22259444 0.6221141 0.20866661 -0.3929444 0.00819116 0.42917493 0.24834247 0.046592295 0.072474115 -0.3022507 0.1781442 -0.24759167 0.28758177 -0.540698 -0.058171846 -0.06300106 0.462218 0.040462535 0.42193332 -0.16420546 0.30155355 -0.20762676 -0.15516333 0.12699787 0.4607735 -0.055275764 0.19901332 0.07846212 0.6161907 -0.3237897 0.16023408 -0.15286586 0.018060865 -0.025447762 -0.27954558 0.1975028 -0.05274046 0.081283405 -0.105143026 -0.19467099 0.41490066 -0.04708518 -0.16428071 0.124247156 -0.11974456 -0.6649364 0.290265 -0.0746754 0.13848285 0.50473714 -0.09874548 0.10611988 -0.01270642 0.10201328 0.4790818 -0.063314684 -0.2500902 0.037390795 0.04880831 0.03269467 0.23333812 -0.17887028 0.08590829 0.19810721 0.3703931 -0.22782683 0.56260353 -0.04737725 0.20642479
458 0.041336518 -0.437063 -0.020342609 0.22491527 -0.11716428 -0.4040391 0.50769335 0.38298276 -0.8646865 -0.05432699 0.055775262 -0.40003496 0.10850133 0.6527528 -0.3174046 -0.029151786 -0.64316916 0.27842095 0.25277686 -0.63667226 0.13427953 -0.14242148 -0.060587388 -0.028380718 -0.26425356 -0.41713715 0.49522233 -0.121673875 0.5815421 -0.43717587 0.1069838 -0.43082502 0.053912994 -0.2517123 -0.09107048 -0.2449924 0.5866565 -0.6810057 -0.41255575 -0.30908787 -0.2839194 -0.23847009 0.16173382 0.17659286 -0.3451682 -0.029219547 0.53757423 -0.32796824 0.53793776 0.0931527 -0.05249358 -0.43074894 -0.46731266 -0.49518293 -0.52420974 -0.33430725 -0.2611408 -0.6055501 -0.9243643 -0.46820912 0.42129612 0.6876269 -0.1416292 -0.040545505 0.77036595 0.038895525 0.13481052 -0.04004133 -0.007795904 -0.26913416 -1.3011694 0.39457077 -0.06474487 0.4445829 0.5615654 0.012660999 0.07346225 0.24235761 -0.040723566 0.028570278 -0.41501027 0.24747773 0.14367363 0.7610297 -0.36549577 0.12566973 0.16974202 0.22365768 -0.32779306 -0.021563962 -0.9041992 -0.48921946 0.120994955 -0.14396295 -0.041854832 -0.39861697 0.7386326 -0.77359223 0.128115 0.35913965 0.28089556 0.5447764 -0.15161948 0.43745866 0.13955557 0.3632215 0.53771794 0.06212005 -0.22875163 0.300988 0.043158855 -0.45973265 0.35861897 0.49363014 -0.4013866 -0.8673786 0.3820115 0.6189098 0.13624744 -0.29339746 0.13375936 0.43928093 0.8615048 -0.1260542 0.27821636 0.6256123 0.38731828 -0.15035857
1658 -0.5196446 -0.23769224 -0.56165195 0.29454628 -0.40777385 -0.103761725 -0.13676406 0.18306129 -0.051614217 -0.042681515 -0.07077823 -0.115182765 -0.07016645 0.31861892 -0.26652572 0.013435202 0.44946823 0.3318816 -0.283736 -0.561201 0.5769526 0.22722353 0.043740112 0.31969878 -0.362236 -0.3293889 0.014740978 0.5365564 -0.098673776 0.26706743 0.042073842 -0.7127512 0.15869236 -0.66655076 -0.7718502 -0.03321791 0.24471627 -0.36522475 -0.0780873 -0.08485367 -0.024500674 0.14737114 0.28044477 -0.38604575 -0.079224 -0.021416212 0.56167513 -1.0438272 -0.23383354 -0.48721465 -0.37570453 -0.4942587 0.10571241 -0.13786024 0.67344844 -0.03301018 -0.3735716 -0.48316017 0.060457673 0.6901921 0.79266155 -0.008260264 -0.24622627 -0.3897349 0.060487323 0.29782954 0.5556049 -0.33192044 0.03103277 -0.23394565 0.11214958 -0.5966367 1.0299705 0.5125859 -0.60531795 -0.31303266 0.86147606 -0.6678318 0.0057184068 0.2146371 -0.34378523 -0.21539305 0.028294217 -0.23328593 0.16794509 0.29138565 -0.050638143 -0.021448562 0.1300921 0.1649194 0.079258084 0.13275449 0.6458874 -0.22221838 -0.31353346 -0.555252 0.5880527 -0.36271316 -0.614516 -0.5573346 0.41024524 0.09239345 0.6431222 -0.46288913 0.14735559 0.232073 -0.06343593 -0.22558098 0.2949266 0.5072691 0.8264825 -0.44691205 0.48370078 0.27084604 -0.19709228 -0.032968838 0.260407 0.20049804 -0.2767767 -0.16719002 0.2978451 0.28427476 0.39558542 0.68084484 -0.6980564 -0.046222348 -0.5978601 0.5491508
46 -0.21105523 0.0067804907 -0.07006218 0.42739308 0.34962016 -0.056377854 0.026068568 0.43520012 -0.6010666 -0.3638625 -0.3849036 -0.22451524 -0.17781204 0.5242965 0.14446329 0.21116482 0.10324272 0.059950005 0.339275 -0.37421536 0.5675849 0.34592852 -0.014537381 0.4867648 -0.24073705 -0.47455263 0.47339144 0.2960741 -0.091926694 0.026859637 0.05555206 -0.546217 -0.15188368 0.18567668 -0.053287875 0.01368329 -0.34739956 0.13144073 -0.27238083 -0.19884399 0.49930432 -0.057420157 -0.34397346 0.13805057 0.3134557 0.9006212 0.11173515 0.3811248 0.35842672 0.24291481 0.69267756 -0.21273455 -0.28457406 0.09660596 -0.03937919 -0.54881364 0.43911493 -0.39763278 0.031851735 0.45126796 0.6705164 0.30568355 -0.1337541 -0.28025448 -0.35361686 0.22117229 -0.09359821 0.12727591 0.38832688 -0.22066903 0.06450062 0.076372616 -0.5832186 -0.298787 0.33409873 0.25570667 0.3028296 -0.7990103 -0.1891212 0.17358492 -0.18179236 0.28581652 -0.2169654 0.27676934 0.3465391 0.17262678 -0.1292237 -0.14143136 -0.08380653 -0.017881323 0.5135541 0.25272003 0.24665305 0.33996227 -0.2145047 0.093978345 0.13739009 -0.46614575 -0.278113 0.28689897 0.19328102 0.28821287 0.16455565 0.27839857 -0.08370471 0.25442258 0.18650506 -0.025852237 0.26508892 0.2885672 0.117619716 -0.34923652 -0.112428024 -0.3284527 0.1929568 0.2655049 -0.09056772 0.0654334 0.105612345 -0.70690495 0.28960645 -0.3075271 0.4782888 0.31661326 0.57119894 -0.20027223 0.5761301 0.23656131
31 0.45298538 0.32387584 -0.3101446 -0.11843837 0.28747708 -0.06901694 0.6337744 -0.1855176 -0.9924305 -0.6442651 -0.49269357 -0.6021596 -0.2747173 0.14144675 0.47725278 -0.36683127 0.030554585 0.31207517 0.049218234 -0.3752841 0.20123304 -0.3634954 -0.21755323 0.014847198 -0.36038354 -0.43442854 0.002334697 -0.29311767 0.21461922 -0.4849081 0.1238726 -0.011102411 0.25212133 -0.081947595 -0.02066165 0.28220618 0.27896217 -0.08420663 -0.5937733 0.52220917 -0.33408555 0.32454804 -0.29115018 -0.34975657 -0.14060618 0.15497074 0.2345778 -0.71712387 0.576459 0.25783178 -0.21669583 -0.2629096 0.34512773 0.13461435 0.22757548 -0.43529493 -0.08007894 0.100843616 -1.0830036 0.16603932 -0.44378534 0.59308547 0.22893067 0.03264094 0.2663721 0.5775374 0.1485469 -0.43053433 -0.31731862 -0.566639 -0.29121748 0.18934418 0.015107365 0.34982497 0.09626165 -0.05495371 -0.083863065 0.17532411 0.040156998 -0.051027026 0.3116569 0.050181426 0.10830834 -0.3313064 0.3081832 -0.08628116 -0.51097333 0.42683855 0.20075643 0.1368841 0.6943127 0.5680674 -0.3471104 -0.09910366 0.05169937 -0.48076802 -0.15488221 0.34805608 -0.4661534 -0.10591461 0.19083712 0.62571084 -0.06612363 0.4388048 0.25420755 0.48556525 0.016429732 0.42991313 -0.30422038 0.29420993 0.7028084 -0.4526229 -0.21315448 -0.46345493 -0.31643772 -0.2834526 -0.24155138 0.3770245 0.767951 -0.17430353 0.38500676 -0.23499751 0.00893371 0.80945367 -0.014509141 -0.060967285 -0.24573375 0.12995312
179 -0.29078987 -0.012401693 0.04629932 0.68239516 -0.0920085 -0.1397782 0.19996887 0.5974582 -0.5430716 0.18943428 -0.3866402 -0.54869163 -0.059543096 -0.19828351 0.054593004 0.045000788 0.41998076 -0.17627452 -0.14442624 -0.33605585 0.27419153 -0.16826168 -0.14928882 -0.36405203 0.30112913 -0.7313277 0.16278851 0.024829993 0.5226832 -0.48216406 -0.51309836 0.01147158 0.25219432 -0.4831497 0.13553762 -0.09466298 0.497132 0.032838088 -0.42952925 0.19312297 0.53786975 -0.6279215 0.08262539 -0.38051137 0.08453807 0.012224535 0.33946806 -0.505759 0.25291333 -0.24757704 -0.3237734 -0.45372695 0.34614617 -0.33484402 0.5170182 0.23727879 -0.10238548 0.025452087 -0.62888336 0.34658775 -0.32774204 -0.23785414 0.6308711 -0.19975023 0.53708553 0.22477023 0.29475063 0.29008695 -0.57807875 -0.34540555 0.27603567 0.05857919 -0.2971273 -0.24855891 0.65325963 0.12859243 0.11131377 -0.10461174 -0.26671126 -0.70125395 -0.17883052 -0.48072648 0.4022083 -0.08599071 0.046618804 0.20415074 -0.8834619 0.30466163 0.48110887 0.46133527 0.6466659 0.5515993 -0.45925522 0.060310733 -0.09900654 -0.55657876 -0.06532255 -0.1244125 -0.3652638 0.3474518 0.4408356 0.7206998 0.10837678 -0.11117539 0.5859952 0.7611113 0.28106293 -0.13225357 0.08879138 0.467372 0.3322949 -0.692773 0.0028812014 -0.13991353 0.05043095 0.10565937 -0.15425365 -0.5449945 0.5043876 -0.41217422 -0.18238086 -0.6622487 -0.16525525 0.25034526 -0.19131032 -0.2305002 -0.013720452 -0.082980804
42 0.28363827 -0.5110826 0.2597827 -0.043583117 -0.16170582 -0.23692308 0.50657135 0.7876599 -0.2052696 -0.62961835 -0.123610094 -0.040927466 -0.114720784 0.4800172 -0.10753704 -0.1571361 -0.7314441 -0.21769078 0.09593515 0.025558835 0.7788668 -0.23294263 0.0854096 -0.09620472 0.35408238 -0.8232714 -0.052713446 -0.11827403 0.03926825 -0.13518718 -0.764019 -0.4622807 0.16411988 -0.15516436 -0.26891845 0.0028535295 0.08928776 0.60864276 -0.08366107 -1.1312598 -0.19611225 -0.166719 0.053394854 0.18624806 -0.020389514 0.3809034 -0.3076571 0.21094416 0.39132726 0.5797741 0.9133897 -0.19317582 0.26458997 -0.020589722 0.1289892 -0.3259163 0.6202896 0.2789259 -0.5443803 0.15442553 0.72919494 -0.30215317 0.41311362 -0.8078232 0.4092023 0.19934352 -0.15777479 -0.028261537 0.5305039 -0.5843729 0.27959248 -0.5513683 0.07766016 0.22721067 -0.43056804 -0.051785525 0.44179466 0.34784642 -0.09707578 0.42882395 -0.07213922 0.30710945 -0.00961983 0.29552442 0.22755145 -0.07373395 -1.0541421 0.19252416 0.49368098 -0.021870187 0.27902395 0.45100015 0.8919255 -0.29156208 0.047843855 0.34166712 0.13168234 -0.20033045 0.25114217 -0.4971944 0.05448034 -0.33544573 0.061390407 0.20583561 -0.22286946 0.5093785 -0.060511597 0.006023649 0.6990961 0.45035583 0.08669854 -0.5371899 -0.06423747 -0.49025834 -0.0752136 0.5009899 -0.20589088 0.58487743 -0.1400572 -0.103345476 -0.30218968 0.0563928 0.4130091 0.3348242 -0.30652776 0.25269237 0.14298162 -0.25341195
20 -0.13478635 -0.0032070493 0.11349509 0.35333848 -0.33179626 -0.77943444 0.6044877 0.8502129 0.30668458 -0.2735156 -0.01883923 -0.28967804 0.85203344 0.46103758 0.07134189 0.35426623 0.055027507 1.3531504 -0.20312966 -0.4727041 0.10237359 -0.47528827 -0.51806676 -0.74539703 -0.066369966 -0.07107974 -0.12525742 0.23971829 0.27843115 -0.21811822 0.26185736 0.046209693 -0.33717945 0.42837065 -0.64706707 0.35877618 0.5786402 0.26637706 -0.26644886 0.1448126 0.43788928 -0.19966272 0.11839904 -0.06868115 -0.23383857 -0.10550823 0.09558218 -0.08160366 0.16997837 0.14598969 0.54035133 0.1859883 -0.31083426 -0.17498158 0.24275109 -0.12271366 -0.5330547 -0.13675752 -0.16334224 0.46351779 -0.053129006 -0.39966056 0.28490704 -0.64456993 -0.1568002 -0.0054936423 0.004371325 -0.014816948 0.17409408 -0.65557677 0.2697892 -0.19243038 -0.29950804 0.22655712 -0.2921715 0.5705852 0.33929378 0.12657616 -0.7155424 0.20773694 0.109958395 -0.1619059 -0.33184397 0.06592313 0.31498018 -0.26779994 0.016156802 0.44848692 0.027170101 -0.26831633 -0.3181375 0.081925035 0.24267104 -0.37832105 0.55205095 0.048786763 0.54515076 -0.055621926 0.37234667 0.21797144 -0.13311273 0.27603072 0.1552984 -0.029581454 -0.6625295 0.045739897 -0.25583157 0.23790136 0.20399782 0.8743954 0.4212196 -0.3232434 -0.10382637 -0.70115113 -0.43338025 -0.12768961 0.26335815 -0.26055893 -0.34966186 -0.58278793 0.20581532 -0.49007946 0.05848642 0.72160053 -0.10388532 -0.3447468 -0.6496167 -0.7152885
141 0.038231988 -0.051616065 -0.084913485 0.20252815 -0.3423511 -0.111980185 0.7755347 -0.08695675 -0.7477814 -0.21285392 0.48510873 -0.27928334 -0.21342564 0.23925677 -0.3521637 0.65221184 -0.20135434 -0.010408685 -0.43192828 -0.4293418 -0.48936877 -0.797768 -0.018222908 0.09666709 -0.81667423 -0.4442233 -0.34229264 -0.18393035 0.26258072 -0.29641682 0.46138734 0.14541742 0.33023307 0.029831171 -0.22707082 0.20231818 0.4166508 0.15855376 -0.27975658 0.19079323 0.21777162 -0.06696793 0.19464685 0.41871017 0.8545111 0.04759117 0.074962296 -0.53791654 -0.23476383 -0.4585153 0.2920649 0.15523204 0.43947253 -0.13185285 0.37529892 -0.34348372 -0.38351965 -0.6246347 -0.7854916 0.17659456 0.07396588 -0.26933324 0.3184538 -0.37417015 0.19927847 -0.20330222 -0.07041012 0.23831688 0.38302886 -1.0034053 0.21622996 -0.4414903 -0.0663196 -0.16501065 0.038884018 0.30552545 -0.12470811 0.02902986 -0.4262008 -0.03546394 -0.2685999 -0.24193062 -0.3113654 -0.3552342 -0.002731635 -0.05402394 -0.30770788 0.64683646 0.19815013 0.028427808 0.36985356 -0.20270818 0.105079785 -0.8267555 0.87424827 -0.37213454 -0.1316339 0.3607846 0.20958838 -0.14180747 0.007512129 0.044172462 0.040563866 -0.52433985 0.78556657 0.9775615 -0.30364296 -0.22087283 0.1986571 0.09090253 -0.27293104 -0.58019406 0.42632553 -0.088108085 0.15684073 -0.0575304 0.49439058 -0.10625585 0.7751057 -0.60014856 -0.066737026 -0.9593429 0.50392145 0.7226517 0.00028719546 -0.43931735 0.4904665 0.44466355
77 -0.52362186 -0.40638027 0.05657417 0.44209677 -0.10983878 -0.38294655 0.15540345 -0.34004608 -0.31355563 -0.5229489 0.021019703 0.07395862 0.06795956 -0.021454597 -0.21588121 -0.13550365 0.43743294 0.34287265 -0.7534857 -0.2683272 -0.082425065 0.023588749 0.20382866 0.19349784 -0.33259577 -0.8714649 0.20955361 0.27913094 0.029524475 -0.12996338 -0.04305424 0.1847258 0.12512097 -0.6446878 -0.3398755 0.07997289 0.10609683 -0.066900566 0.2707013 0.21710141 0.030551467 0.29874623 -0.0498979 0.18200707 -0.006317508 0.8461373 -0.13179818 -0.16769354 0.001708769 -0.028089527 -0.18781452 -0.019581452 -0.24002352 0.14609486 -0.30980122 0.28941283 0.28107345 0.005019457 -0.5288719 0.0726882 0.37246513 0.14252777 -0.007254944 0.343183 -0.12413 0.1353456 -0.48018384 0.59629005 0.38268107 -0.10371097 0.51896435 -0.32123742 0.49425253 0.34338316 -0.24617273 -0.3883583 -0.0379459 -0.09506088 -0.23442331 0.33003902 -0.07403056 -0.07953438 -0.40489265 -0.16078602 0.050538715 0.20913802 0.45542562 0.75534046 0.70398647 0.18800855 -0.24493013 0.68666345 -0.056201965 0.014117227 0.48584732 0.1274884 0.5649433 -0.6594681 0.25237295 0.18646625 0.132175 -0.056418773 0.46622217 0.2447246 -0.06660566 -0.13847822 0.50068635 -0.0057120896 -0.32335433 0.62659657 -0.09503018 -0.97617435 0.33340383 -0.1825457 -0.7423751 0.025273973 0.08582899 -0.07731221 -0.24919553 0.39502615 0.22961149 0.12694803 -0.017146304 0.67434186 -0.44702676 0.29049167 -0.25763476 0.5491927
13 -0.08603109 0.044895187 0.038627192 0.062054396 -0.24965659 0.26325575 0.48867208 0.007162592 -0.3695729 0.08102027 -0.108168 -0.18264258 0.1656273 -0.53513163 -0.011492578 0.07166666 -0.21009462 0.05470021 -0.0027096516 -0.46401143 0.16818872 -0.012591864 -0.33470082 -0.54997295 -0.11146716 -0.055398565 -0.060160484 -0.33649164 0.4423687 -0.37432644 -0.05990943 -0.37096098 0.26147074 -0.648791 0.09086216 -0.4288563 0.5256479 -0.37410814 0.0751522 0.5214446 -0.0034466337 -0.03790651 -0.43103397 -0.47324246 -0.12228868 0.5797111 -0.097264424 -0.22077967 -0.14113808 -0.30193388 -0.30323538 0.24283467 0.6015765 -0.14979234 0.49528828 -0.20491897 0.03735296 -0.22674768 -0.84061056 0.10365949 0.01302012 -0.08221697 0.15351625 -0.21544121 0.2549372 0.26048872 -0.47489062 0.03259428 0.42215687 -0.086390615 0.019937297 0.13832447 -0.025434747 0.11236489 0.07960597 -0.15646115 -0.0055453954 0.09808531 -0.20403475 -0.0020419627 -0.3306357 -0.04569199 0.01761254 -0.3907218 0.1335241 -0.2667099 -0.30178565 0.59990525 0.14603223 0.25904334 0.6177663 0.3315786 0.21664569 -0.47138777 0.47887418 -0.3362937 0.110408925 0.38120708 -0.29207978 0.27348226 0.10042302 0.45167866 0.073513925 0.13184899 0.14820565 0.42685145 0.3317057 0.3515677 0.42173117 0.3034435 0.3837298 -0.2372418 0.19617389 -1.0011749 0.22247824 -0.11846379 -0.14554617 -0.09185858 -0.08477223 -0.081982195 -0.011124016 -0.5726892 -0.009191348 -0.06320984 -0.008877689 0.14010444 0.4764896 -0.073708475
32 -0.056377262 0.26087797 -0.16746409 0.002706776 -0.08140185 -0.4588881 0.01261827 0.18799172 -0.15096715 -0.22933736 -0.13517658 0.18778314 -0.043191895 0.05809852 0.23287661 -0.096622154 -0.068732865 0.5487723 -0.31651682 -0.5228759 0.33343726 0.18030725 -0.026310733 0.22984605 -0.22621349 -0.52244115 -0.0037199939 0.31634805 0.20592767 -0.030386364 0.2536711 -0.128036 0.13610789 -0.31723875 -0.22967266 0.0044665877 -0.18414642 -0.628512 0.15682395 0.038447477 -0.4080909 -0.13513887 0.096015185 -0.11005508 0.15046115 0.7394627 -0.21300666 -0.61830455 0.14622109 -0.46782073 -0.049903236 -0.3663523 0.22340643 -0.20260559 -0.0250189 0.35248515 -0.20233633 -0.1356486 0.111312285 0.043695904 0.48682323 0.41044873 0.02927516 0.06592004 0.06731376 0.3873199 -0.1810742 -0.38637593 0.4751869 -0.20745613 0.5023542 -0.20510057 0.17375162 0.18024035 -0.05756224 -0.050639153 -0.38995168 -0.19032627 -0.18740717 -0.047885407 -0.06884224 0.53427774 -0.08543327 -0.07187564 0.20884252 0.16814823 0.38053918 0.40694588 0.37791428 0.40329477 -0.16981207 0.29414493 -0.39210883 0.017164225 -0.03285561 -0.095902845 0.16111131 -0.42629242 0.024728993 -0.03565255 0.28850472 0.2756146 0.04830428 -0.33540767 -0.19428736 0.026628321 0.25842997 -0.051463664 -0.10460289 0.3114491 0.65847856 -0.30487004 0.37567282 0.31049868 -0.6060076 0.27539805 0.58243376 0.94175696 0.07332549 -0.116628624 0.11794786 0.17493068 -0.12724294 0.36351174 -0.20391664 0.21825263 -0.14840984 0.4034798
43 0.0590319 -0.4643602 -0.03408652 0.28116474 -0.24336049 -0.3482606 0.46981743 0.4066226 -0.7711815 -0.06956617 0.11028942 -0.4123393 0.15386322 0.6479115 -0.3625149 0.015114458 -0.5666016 0.20206392 0.1867875 -0.6166089 0.105244204 -0.09641009 -0.09828663 -0.04940998 -0.2444266 -0.30897394 0.4069898 -0.12971628 0.4769759 -0.3446807 0.030277725 -0.45734736 0.0030988408 -0.16637278 -0.08654298 -0.20015483 0.53980124 -0.5959273 -0.33916613 -0.3204749 -0.27458176 -0.29288024 0.18331961 0.17163247 -0.27806923 -0.032776874 0.47039628 -0.28419727 0.4514864 0.117547095 -0.0714927 -0.3112838 -0.46088192 -0.48267555 -0.5068214 -0.24491301 -0.20630601 -0.5841378 -0.74464345 -0.2829422 0.35766232 0.68968356 -0.1692166 0.018556636 0.7139833 0.0870498 0.12616298 -0.05550946 -0.09246395 -0.3304176 -1.110689 0.37254772 -0.023488943 0.35085127 0.5061064 0.03744362 0.0061404584 0.21781515 -0.05315339 0.06106304 -0.3852394 0.23926868 0.07106707 0.6045961 -0.41125795 0.17160651 0.113782726 0.2567974 -0.2883982 -0.002024897 -0.7795918 -0.49391568 0.064486556 -0.14528373 -0.048481956 -0.4527605 0.6988047 -0.6874244 -0.059509575 0.37032312 0.24169824 0.4478632 -0.23579445 0.4808581 0.14895657 0.28157908 0.42626983 0.16156042 -0.13849317 0.27770245 0.08086182 -0.35417846 0.3166553 0.49243557 -0.29640922 -0.80416846 0.3168491 0.56745756 0.105490796 -0.24856229 0.07012082 0.3899005 0.7488154 -0.18788797 0.25383002 0.6631321 0.3683034 -0.10989909
16 0.16449155 -0.34578896 -0.1294894 0.68145937 -0.13934614 -0.1999076 0.99702585 0.88381183 -0.62565196 -0.17135906 -0.63568264 0.14665331 0.18608828 0.10814197 -0.038724486 -0.41901383 0.0345995 -0.1963754 0.10851412 0.0352038 -0.23522295 0.111346275 0.049497727 0.30207366 0.09027764 -0.3104696 0.34862503 0.2173063 -0.13504562 -0.15896943 -0.49595633 -0.0854514 -0.4234122 -0.03613659 -0.32405066 -0.33554402 -0.2548503 0.21008858 0.37547785 -0.18568301 0.30071545 -0.042127438 -0.13392803 -0.052214403 0.40238336 0.19686276 -0.43487248 -0.4729439 0.13347611 -0.20250154 0.10706831 -0.3745094 0.42871243 -0.39287552 -0.067323595 -0.89895463 0.039238773 0.18419246 0.046197437 -0.2309844 0.55943096 -0.15799287 0.11682953 -0.41491124 -0.11929522 0.35212266 -0.42208168 -0.080018535 0.38061512 -0.72982365 0.100662865 -0.08538301 -0.6954995 -0.515409 -0.09517657 0.18918194 0.80750173 -0.08410886 -0.18081918 0.4103824 -0.46072415 0.58273345 -0.5620232 0.20977545 -0.07682398 -0.1277332 -0.32441214 -0.07870043 0.16204686 0.4368068 0.3328325 -0.12892143 0.62088436 -0.16141462 0.24242467 0.01705293 0.6155458 0.20718136 -0.06982754 -0.5490794 -0.16341504 -0.22004431 0.14952907 0.550086 0.32719907 -0.15444699 0.00646737 -0.08548273 0.13828252 0.40706688 0.19490726 -0.42060846 0.08948875 -0.72962743 0.08790942 0.18636335 -0.18689102 0.2660764 0.38504472 -0.31066278 0.07259255 0.058478005 0.7702448 0.65164846 0.032409273 0.7522685 -0.4215905 -0.037837777
533 -0.8775192 0.09716619 0.40117857 0.5510475 0.42142436 0.06410825 0.7123026 0.3196458 -0.18783696 -0.19410059 -0.10940568 0.15907066 0.046333544 0.012635663 0.13593176 0.11022816 -0.4101516 0.1982163 -0.10962769 -0.30060294 0.63188446 -0.38724637 -0.04022254 -0.35991305 -0.2941674 -0.36995122 0.08628022 0.3208924 0.2936983 -0.011550111 -0.15675762 -0.6649328 -0.8736228 0.28659618 0.20362735 -0.46310505 -0.22809997 -0.1749395 -0.8637237 0.030859824 -0.45534033 -0.068730935 -0.39541793 0.23697878 0.80035585 0.08316254 0.42432067 -0.16978846 0.074305646 -0.061845984 -0.22983721 -0.48574948 -0.06418809 -0.32540452 -0.22870703 -0.39675838 0.33577007 0.021463031 -0.6011465 0.5131557 0.10951927 -0.1379952 -0.41063154 0.2171794 0.37140444 0.23632222 -0.4048371 0.013951779 -0.25464904 0.33869594 -0.58895403 -0.11617097 -0.53138053 -0.23058183 -0.1886163 0.43808228 0.2907696 0.6881627 -0.4865662 0.47752717 0.21422786 -0.1495121 -0.30962962 0.10818739 0.10598864 0.5944322 -0.15183543 0.25446215 0.36353603 0.057966962 -0.32592025 0.64791954 0.33938646 -0.23953716 0.08960516 -0.37366718 0.2687364 -0.52569044 0.15499017 0.42557544 -0.34962392 0.34011695 -0.36661953 -0.13089111 0.6472376 -0.15639968 0.23781851 -0.31349427 0.09228184 0.25014886 -0.36821654 0.5405277 0.007453227 0.7904299 0.45779344 -0.47336444 0.32455713 -0.07202385 -0.23683365 -0.44384503 -0.23956732 0.16228457 0.20283566 0.58695555 -0.040590305 0.1953665 -0.016121693 0.25052914
760 -0.17173864 0.058849916 0.16878411 -0.24802893 0.39025947 0.37663114 0.56216645 -0.1362944 -0.87924844 -0.36165842 0.06502954 -0.47265476 -0.19380982 -0.1370661 0.32845956 0.60977423 0.351741 0.0021581661 -0.008643032 -0.4881698 -0.05243723 -0.34402713 -0.06618886 -0.40527117 -0.0534836 0.3248757 0.038569633 -0.4428682 0.48037714 -0.52963716 0.15211542 -0.025311185 0.3687494 -0.28060713 0.27803263 0.18452188 0.21792181 0.07325674 -0.08804807 0.38310722 -0.2951915 0.37181604 -0.10632664 -0.3846643 -0.41904497 0.5960125 -0.1996504 -0.78036594 0.104764305 -0.49889612 -0.121144526 -0.4366185 0.5088112 -0.22412872 -0.2642833 -0.38834372 0.33857828 0.030109752 -1.3153695 -0.234197 0.2685336 0.10157522 0.19698189 0.07897279 -0.32825527 0.06644753 0.22051692 0.4065884 -0.10754721 -0.06216052 0.10983524 -0.33627883 -0.09006221 0.27943522 -0.4159413 -0.051455062 0.30407688 0.044403214 -0.18295753 -0.016583236 0.09095221 -0.074732125 -0.18262553 -0.23342305 0.31621593 -0.18277405 -0.64236134 0.16142784 0.47248712 0.559952 0.3611853 0.5520922 0.14117905 -0.14679691 0.011134093 -0.841513 -0.04690883 0.48363832 -0.40661138 0.44022405 -0.052898508 0.48559767 0.098197795 0.60136884 -0.22584318 0.33387658 -0.35984156 0.47322926 -0.06907521 0.4585066 0.037227888 -0.5193626 0.1523606 -0.09830074 -0.073622316 -0.11277842 -0.21592614 0.43501145 0.028268427 -0.6255777 0.19240086 -0.95700055 0.32749254 0.35134 0.24481942 0.274353 0.2768545 0.2602306
118 0.23948218 0.35144752 0.027630655 0.21561615 0.4714816 0.34794885 0.288483 0.28975913 -0.29978064 -0.45158952 -0.060639773 -0.9782733 0.21999882 0.3386773 0.09016135 0.25310194 0.3188039 0.0492247 -0.74656117 -0.6147837 -0.08345031 -0.73676956 -0.18377057 -0.10139542 -0.40240183 0.35602516 -0.014923738 -0.03574316 0.29588887 0.18647347 0.08203164 0.10191613 0.78923386 0.53959596 0.45139405 0.2810414 0.6304525 -0.2109018 0.031058945 0.5259536 -0.00095313863 -0.028533896 -0.12929179 -0.6481727 0.5306882 0.2643283 0.24394366 -0.33861202 -0.23787157 0.008705952 -0.3105716 -0.2642585 -0.13061745 -0.36516055 0.27785555 -0.37347314 0.13533558 -0.036333654 -0.86102855 -0.06669591 -0.40089104 -0.098726965 0.24466428 -0.06096285 -0.26555794 -0.12980528 -0.56613714 0.3011707 0.25793648 -0.23678012 0.02201806 -0.2815887 0.20222694 0.18713675 -0.16938032 -0.68738306 -0.27634716 -0.12257268 0.1828106 -0.6162043 0.25302947 0.4910437 -0.074069045 0.43292168 0.14013104 -0.21520151 -1.1434052 -0.02867822 0.5063467 0.48289064 0.05738312 0.36655235 -0.006680236 -0.73453695 0.0847062 -0.0426925 0.092661776 0.35073733 -0.20569563 0.34206256 0.50692576 0.19488813 0.0375029 0.37923208 -0.12989369 0.79989815 -0.22062339 -0.11026895 0.24121837 0.15127145 0.26995927 -0.1703906 -0.001143899 -0.23871228 -0.19807467 -0.04454764 0.59596336 0.21491857 -0.04045054 -0.7376863 0.005648691 0.32329413 0.85840756 0.7494356 -0.31192607 0.26958197 0.48525113 0.054330513
225 -0.16155681 0.06478073 0.22893663 -0.2609002 0.3375349 0.33591715 0.60171175 -0.1408726 -0.8571398 -0.41009906 0.0014015932 -0.50398785 -0.14290233 -0.14579 0.389832 0.61014783 0.32333827 -0.009360273 0.014312163 -0.5036492 -0.057967562 -0.36037964 -0.15632196 -0.365764 -0.07109938 0.26935586 0.11980703 -0.43921655 0.44657242 -0.4912409 0.22010157 -0.035718936 0.40126336 -0.29715407 0.25394705 0.15907061 0.34275797 0.055907622 -0.10825471 0.41742587 -0.35199836 0.3921149 -0.091295436 -0.48666987 -0.47177765 0.5514296 -0.23648807 -0.7763211 0.08994221 -0.5685654 -0.15739723 -0.33465996 0.54820114 -0.20216389 -0.24801894 -0.49659595 0.4117839 0.019495035 -1.3112056 -0.26244143 0.28187323 0.1091787 0.10491102 0.046462744 -0.35425407 0.025442673 0.19650735 0.41615188 -0.036217045 -0.011603209 0.08174266 -0.3187335 -0.12570414 0.3350676 -0.4647444 -0.051393338 0.28564492 0.09418972 -0.16358651 0.008120484 -0.026643906 -0.0774911 -0.24854831 -0.18351893 0.2258275 -0.054446343 -0.67197675 0.22088842 0.5042726 0.54131246 0.39828458 0.62295604 0.109422 -0.10903875 0.06330135 -0.8792086 0.0039356835 0.52986026 -0.49740988 0.41417947 -0.12233017 0.4437261 0.10230842 0.5960923 -0.17084019 0.3169838 -0.4076873 0.4891658 -0.16738541 0.45304376 0.06065109 -0.46932182 0.13589016 -0.1452888 0.0211639 -0.11741209 -0.18614022 0.4275195 0.023969423 -0.6367716 0.16202678 -1.0127081 0.3356867 0.390209 0.27084315 0.30948514 0.38592085 0.23814464
201 -0.1258749 -0.06984759 -0.16112968 0.3763449 0.13302836 -0.42231134 0.05227494 0.2894955 0.19686061 -0.33699614 0.34408504 0.096437015 0.9908167 -0.5047512 -0.36175534 -0.35205048 0.014412918 0.90007025 -0.42575276 -0.5709338 -0.31187406 0.004632698 0.30414855 -0.7200744 0.30403107 0.07840115 0.47550488 0.26659805 0.7094706 -0.54946584 -0.11249972 -0.29061365 0.16472366 0.50231344 -0.16358729 -0.3262546 0.10716558 0.020006115 -0.45958942 0.0765728 -0.08586322 -0.085365415 -0.2858963 0.46841696 -0.2680028 -0.16504484 -0.37208432 -0.2452198 0.50287265 -0.019592 0.4841288 0.040397525 -0.41878086 -0.48608214 -0.14023724 -0.7329773 -0.04950635 -0.04088301 -0.6476148 0.15302876 0.047409903 -0.08087957 -0.34024662 -0.6679863 0.008694054 0.51645106 0.1709785 -0.07674931 0.081230454 -0.16168441 0.6818649 -0.46481776 -0.50522757 0.28065416 -0.29127887 0.14157948 -0.07021491 -0.33296657 -0.10985288 -0.48015907 -0.0655443 -0.48433128 -0.3289318 -0.11825373 0.28193256 0.21861312 0.23430024 -0.09102067 0.3111713 0.17619058 0.055876855 -0.24493377 0.04972322 -0.097206116 0.24744499 0.36266243 0.47911358 -0.27665854 -0.041967876 0.29595402 0.100867756 0.34128863 0.23389202 0.64430887 -0.38326696 -0.63512695 -0.42009303 -0.085998476 0.19150248 0.11111125 0.06450678 0.19880249 0.62697965 -0.38669014 0.13067418 -0.36413002 -0.13036835 0.1933326 0.6393151 -0.32576457 -0.35762843 -0.4268732 -0.24482735 0.38837743 -0.1956599 -0.05676847 0.21010621 0.11360609
120 -0.72831464 0.14876305 0.020312076 0.43478844 0.4193556 -0.44917238 1.0920502 0.34033695 -0.18799295 0.027797943 -0.27956855 -0.15428934 -0.2316508 0.54073596 0.44597632 -0.055327028 -0.43351108 0.34167475 0.36446258 -0.059126403 0.4307798 0.31595865 0.2764995 0.33269912 0.1846147 -0.3171885 0.6664319 0.14702664 -0.26076984 0.34097543 0.042102236 -0.09987834 0.041876312 -0.3573897 -0.12513845 -0.22655907 -0.6653866 -0.15620902 0.0058244457 -0.0024673312 0.40432099 0.15796396 -0.29339442 0.14485033 -0.023035761 0.673095 -0.22027022 -0.3468276 0.5980722 0.17373958 0.100218296 -0.3339728 -0.05403727 -0.2223307 -0.5145109 -0.8492824 0.14621687 -0.6095775 -0.12003211 0.35119513 -0.05890801 -0.13769166 -0.0016058899 -0.9738512 0.030460209 -0.09648798 -0.22106335 -0.15153629 -0.10665694 -0.6369254 0.39902958 -0.15249926 -0.37034428 0.50703615 0.45082548 -0.19062625 -0.12983899 -0.65696007 0.2075085 0.42933008 -0.091441214 0.3738814 0.09596146 0.1596113 0.046791494 -0.87272716 -0.20346875 -0.32860842 -0.08682199 0.50904894 0.4126173 0.0919069 -0.084761776 0.35115474 0.6532197 0.09209089 0.5821032 -0.43453237 0.17176022 0.031600233 -0.24620003 -0.62658083 -0.055782985 0.81456125 0.043703407 0.119592614 0.04333164 0.19263045 0.20293532 0.25534943 -0.11624758 -0.51885945 -0.0061270124 -0.7182594 -0.27629894 0.119815364 0.035519388 0.20649852 0.7437055 0.108966336 -0.4610058 -0.2707817 0.15781072 -0.14845595 0.42104474 -0.031178322 0.4703106 0.37207383
104 -0.05427224 -0.45320815 -0.048908763 0.6593668 0.2590862 -0.011570186 0.6784519 0.6077448 -0.63824606 -0.14056 0.08884996 -0.56883544 0.6407708 0.10944797 -0.347564 -0.0271284 -0.45724708 -0.11040522 -0.3489677 -0.8109496 -0.011356508 0.18763667 -0.12371626 -0.12915158 -0.4782988 -0.23082109 0.7525061 0.042735063 0.36864242 -0.21796246 0.67732906 -0.12800044 -0.13684165 -0.18179688 -0.4435991 -0.37422463 0.020468708 -0.18025643 -0.64737123 -0.21349286 -0.027898736 -0.06760714 -0.36517748 -0.1791212 -0.2717723 -0.6194584 0.58075887 -0.09122499 0.4953902 -0.19776939 0.060050864 -0.09914424 0.12692839 -0.11197186 -0.26327512 -0.051952552 -0.16775966 0.017818462 -0.26633346 0.11557081 0.4436798 0.44809848 -0.6587854 -0.1312954 0.52700233 0.18156013 0.12903371 -0.111673325 -0.2494247 -0.23002468 -0.049861122 0.12505837 -0.44920996 0.41197038 0.2948031 -0.04900983 -0.18628709 0.14121994 -0.046803035 0.34360015 0.024522813 0.047329884 0.39834183 -0.27031535 -0.15901524 0.35960862 -0.2666559 0.33648527 -0.34297138 -0.26443166 0.12921833 -0.31291616 0.09384761 -0.12986733 0.15801702 0.10224173 0.67691606 -0.4228471 -0.05288765 0.12796815 0.04144924 -0.03739905 -0.34873712 0.30365303 0.1513235 0.0032079217 -0.25514144 0.24768175 0.015597797 -0.030114874 -0.18556632 0.07822289 0.34884062 0.61668617 -0.41641116 -0.52038634 0.587388 0.42894995 -0.46052834 -0.13749419 -0.0661196 0.18541627 0.6046389 -0.19307368 -0.18367903 0.38810754 0.43125698 -0.059045535
1634 -0.430063 -0.31332844 0.081951804 0.58730245 0.2782861 0.2971299 0.8271164 0.67836094 -0.6178703 0.18709931 0.011076351 -0.73875123 0.4856079 -0.19051218 0.15986192 -0.16016348 -0.52759725 -0.10540198 -0.24179271 -1.2133955 0.06274207 -0.029031565 -0.3202673 -0.14008912 -0.34888658 -0.38228983 0.5042961 -0.09883872 0.3475277 -0.40827236 0.37696058 0.023318952 -0.115290076 -0.23657897 -0.19636784 -0.49413612 0.033662725 -0.17849259 -0.5106725 -0.3399688 -0.18067893 0.21267492 -0.5210193 -0.13393141 -0.2458187 -0.64140636 0.73859143 0.038670387 0.58767974 -0.14892574 -0.031598568 -0.16976477 -0.25177217 -0.25028515 -0.62270266 -0.21039118 0.09758078 -0.17080197 -0.43997502 -0.49468926 0.62952757 0.20774695 -0.2604267 -0.09255625 0.64820945 -0.0028643464 0.124622524 -0.21447799 -0.60306764 0.064915426 -0.10596669 0.026825016 -0.36685857 0.65422386 0.18216293 0.00040316113 -0.13906181 -0.020935576 0.27841705 0.15959552 0.094146006 0.16408238 0.043088336 0.1912347 -0.016758304 0.22861044 -0.004051519 0.34999886 -0.48389423 -0.32892978 0.21348067 -0.36153495 -0.060688708 -0.5619325 0.23023216 -0.16860266 0.7002831 -0.37597272 -0.21531488 0.10894062 -0.36204642 -0.10827701 -0.27618095 0.15020142 -0.11503562 0.14202827 0.069375515 -0.21298097 0.11003451 0.19728656 -0.3303794 -0.035286196 -0.058523994 0.61902744 -0.48738316 -0.15553689 0.723086 0.3593007 -0.35212806 0.3234887 -0.114722215 0.097539134 0.6165122 -0.10455525 -0.25897178 0.25352025 0.42062342 0.36135313
38 -0.28106654 -0.43102646 0.08611708 -0.084272444 -0.019211264 -0.15072039 0.82651114 0.55689406 0.39484686 0.32754463 -0.0751731 0.548876 0.59765667 -0.04161592 -0.20797941 0.25246856 -0.07104141 0.9543844 -0.75349903 -1.0233041 0.28115174 -0.40492305 -0.56799227 -0.8996485 0.10000481 -0.017871851 0.8759449 -0.11731706 1.0869534 -0.7647535 0.060704585 0.13282174 -0.20231515 0.086388245 -0.12947291 -0.22018264 0.36160883 -0.8061528 0.0895722 0.2809234 0.5655642 -0.4691442 0.09626341 0.13098101 0.024643527 0.11313133 0.17015696 -0.21551017 0.30741027 -0.4643955 0.89280325 -0.08488162 0.19723463 -0.49425966 -0.4247523 0.19806813 0.2632511 -0.015059874 0.70461696 -0.18663126 0.07718534 -0.40698984 0.091967 -0.8574583 -0.38720828 0.22435467 0.658164 0.06502413 -0.59465915 -0.78360116 0.0086216945 -0.17206293 -0.070289634 0.53654325 0.031147735 0.47403446 -0.082700066 0.17141607 -0.087678656 -0.2663071 0.09078451 -0.4743111 0.5019121 0.09028077 0.5342363 -0.8970437 0.030104278 0.08467609 0.5368985 -0.168058 -0.16978565 0.37025604 -0.2812823 -0.15412366 0.71013135 -0.48286116 0.62100583 -0.6243447 0.1636238 0.27715874 0.208096 0.40859854 -0.12129705 -0.03192494 -0.7723615 -0.3220394 -0.14361006 -0.014428249 -0.25822064 -0.5127285 0.298027 0.4675612 -0.18756108 -0.09997407 0.09762818 0.2621678 0.14758033 0.4358868 -0.34951946 -0.16995199 0.37359163 -0.25665015 0.5061802 0.893772 0.062646076 0.45851535 -0.3716576 -0.098627314
113 0.20479952 -0.28205922 -0.72895044 0.7861168 0.0017492039 -0.027672976 0.21985935 0.2203046 -0.23199643 0.11999493 -0.19410719 -0.22757968 -0.04367714 -0.19228214 0.94248015 0.68272287 -0.21941593 0.34413716 -0.54763085 -0.47323993 -0.13664989 -0.09714511 -0.42881945 -0.10943518 -0.109399974 -0.802841 -0.36622208 0.033290874 0.25201568 -0.17635424 -0.11982483 -0.43870544 0.05287888 -0.77589077 -0.4274093 0.019640993 -0.1459084 -0.09560135 -0.051514562 0.15337889 -0.5839824 0.41187027 0.27916893 0.6100918 0.011753278 0.7799469 0.41758168 -0.7990164 0.24345931 -0.5559351 -0.18851075 -0.08325977 0.15802203 0.21807046 -0.38088048 -0.09608734 -0.27510956 -0.049824193 0.63064003 0.27624324 0.0064020376 -0.058085967 0.035154313 -0.9677656 0.26371863 0.47133616 0.57217157 0.15121038 0.5457466 0.076885745 0.3191305 -0.044502724 -0.035593197 0.55288196 -0.28725907 -0.38109124 0.001323849 -0.31545275 -0.10137 -0.009990946 0.74761623 0.44154748 0.0018124097 -0.26376563 0.068756774 -0.061819557 -0.5445717 -0.037907206 0.10059909 -0.052987587 -0.39486507 -0.38045198 -0.39222723 -0.44201308 -0.039398625 -0.36140507 0.8433502 -0.39354715 0.07628794 0.27723682 0.32192218 0.28288883 0.23474446 0.18354782 0.36441338 0.052410126 -0.028441552 -0.1109789 0.66688746 0.35225624 0.38670406 -0.2848237 -0.13930786 -0.28932798 -0.505556 0.3730536 0.29198846 -0.041094217 0.047709424 0.13724719 0.16499205 0.52982175 0.2627558 0.050838854 -0.8105459 -0.22397178 -0.0053289705 0.37381363
73 0.19739427 -0.25342238 -0.73479813 0.76529944 -0.04334089 -0.06517908 0.21989094 0.13951908 -0.2171157 0.046806525 -0.17136669 -0.20059934 -0.063617826 -0.1689536 0.9865281 0.67580944 -0.20301044 0.2941908 -0.5259619 -0.49503723 -0.05781937 -0.100901 -0.48723403 -0.08122312 -0.05948915 -0.8373874 -0.48491886 -0.054901462 0.3502518 -0.101749286 -0.15011656 -0.38280487 0.03311888 -0.7846573 -0.44031233 -0.022127949 -0.12659945 -0.047242172 -0.011695803 0.26847306 -0.49014264 0.41717532 0.39466736 0.6130119 0.03706041 0.81218547 0.40931612 -0.8322578 0.38802367 -0.5561415 -0.18985292 -0.15404302 0.16005513 0.12570973 -0.3891098 -0.097135566 -0.2459398 0.006776417 0.6298166 0.24524087 0.0459831 -0.04567629 -0.050088596 -1.013979 0.23310266 0.4740289 0.5482933 0.10502229 0.59137005 0.13270375 0.317037 0.023278719 -0.04647777 0.60750383 -0.23677278 -0.41067833 0.012748013 -0.32182086 -0.0662839 0.014866871 0.76359457 0.6004006 0.03143736 -0.27121058 0.06097289 -0.080768496 -0.60335076 -0.10119071 0.05919627 -0.12016415 -0.42262965 -0.38065892 -0.31669208 -0.41516265 0.0006258244 -0.39434087 0.7863626 -0.4313128 0.039435748 0.27919796 0.37452704 0.34257773 0.2799379 0.17443211 0.3793101 0.09165602 -0.07119806 -0.10819111 0.77979505 0.24658437 0.37685356 -0.33699104 -0.15790382 -0.1933324 -0.3936033 0.29074526 0.30552706 0.04353987 0.019478671 0.12275208 0.17370597 0.53827256 0.14866084 -0.014317778 -0.7526422 -0.27001703 -0.09267303 0.34794185
137 0.32621652 0.3821128 0.71806854 0.17430258 0.22310606 0.31443277 0.34219295 -0.27445734 -0.14983517 -0.23323311 -0.1353252 -0.9898384 -0.1515585 -0.20534605 0.2729336 -0.5694235 -0.3288239 0.09369028 0.0027249823 -0.5926683 0.014504124 -0.2980978 0.101052865 -0.66450626 0.25261292 -0.5633492 -0.1413722 -0.3762665 0.40653723 -0.16345456 -0.011022666 0.023275536 -0.1422123 -0.0010863276 0.3409084 0.22047235 0.10583591 0.010111599 0.20958278 0.7399321 -0.36883757 0.41508391 -0.070786946 0.4944696 0.09583402 -0.19703992 -0.16509372 -0.42257878 -0.2923905 -0.64237005 -0.038249016 -0.12980554 0.447596 -0.3331213 0.051283546 -0.16002636 -0.28184137 -0.15187477 -0.39586097 0.4138897 0.67654026 0.05199433 -0.08390042 -0.17941149 0.06199947 0.46997577 0.028658213 -0.078200646 -0.04798258 -0.529793 -0.33015814 -0.74236834 -0.3371344 0.10161738 -0.26544413 0.30663562 -0.387777 -0.1749529 -0.6815958 -0.31119657 -0.36988643 0.31672946 0.1654814 0.1629207 0.25675687 -0.059540708 -0.4324042 -0.20906322 0.5497976 0.07193842 0.62653875 0.5473438 0.35184392 -0.40914047 0.03160514 0.12889232 0.30078876 0.060150538 -0.13251543 0.38544542 0.43695512 -0.021053165 -0.35738462 0.24175978 0.26164848 0.37025854 0.17756802 -0.0023169501 0.07336492 0.1361323 0.50786304 -0.08950867 -0.44215083 -0.36813453 0.14834546 -0.051579565 -0.043508757 0.004638243 0.10199079 0.041389767 0.13271251 -0.781925 -0.27200237 -0.21182096 -0.32176286 0.500098 0.5693119 0.13998859
1 -0.17523897 0.2793477 -0.828549 0.8190074 -0.31160966 -0.7264654 0.11206716 -0.045245077 0.25399297 0.21329144 0.437588 -0.2505337 -0.08972915 -0.6679564 0.017934922 -0.03030352 0.18276303 0.36392525 -0.7069949 -0.33893475 -0.09983383 0.030706717 0.3178946 -0.097546406 0.52501774 -0.6049964 0.27525273 0.03899499 -0.12936296 -0.35683236 0.5391672 0.020034015 -0.39479202 0.048291225 0.28611755 0.121194385 -0.05997896 0.44736335 -0.040899005 0.034053493 -0.25355035 0.19871008 -0.3420643 0.5869023 0.37092105 0.5160726 -0.19443008 -1.2037015 0.13252991 -0.42368674 -0.640792 0.3402464 0.15135255 0.24946591 -0.043363884 0.20684263 0.67248034 -0.33153164 0.3283306 0.14845364 0.7533221 -0.0085834535 -0.071587004 -0.0039670705 0.4601905 0.3518509 0.26318857 0.21385486 0.16130361 0.007955856 0.4695612 -0.3644286 0.16463403 0.85615027 0.02117342 -0.42452872 -0.23073192 -0.42965585 0.21480948 -0.035643797 0.38603067 0.60374826 -0.08159246 0.06944214 0.13153693 0.7132801 -0.24107192 -0.21136929 0.22552942 0.033912577 -0.20354213 -0.75685173 -0.21775125 0.031548735 -0.047042146 -0.37017944 0.6792716 -0.2630357 0.009869707 0.6434764 0.1902711 0.49606866 0.1476632 0.24215078 0.13888465 -0.22217754 -0.028543709 -0.45693058 0.3281421 0.79283905 0.37843388 -0.14375189 0.22187655 -0.06761915 -0.043907855 0.54670894 0.2785907 0.5014898 0.27634832 -0.39633778 0.19110031 -0.40102774 0.283286 0.15982386 -0.65696996 -0.08603241 0.3978299 -0.011390721
60 0.08077019 -0.020967888 -0.062349383 0.24434972 -0.14111973 -0.27889597 0.13859738 0.58316106 0.004543274 -0.10731063 0.10002603 -0.2939951 0.49558 -0.27290142 -0.4700303 -0.5142612 -0.24881034 0.7934933 -0.45615363 -0.7920389 -0.20972635 -0.17875174 0.027916983 -0.6234807 0.24142061 0.07821414 0.45729145 0.24625361 0.5700759 -0.5192078 -0.6892178 -0.25581956 0.15887119 0.5508273 -0.13329531 -0.13324052 -0.20315476 -0.49012646 -0.45459762 0.06299783 -0.061397705 0.30578277 -0.20234025 0.490386 -0.2313507 -0.22817238 -0.3696396 -0.04981962 0.5848981 -0.12122533 0.38241556 -0.024387013 -0.38501972 -0.24560732 -0.054284517 -0.78857034 0.032775853 0.31713668 -0.5278201 0.26625246 0.1883568 -0.49984306 -0.55768347 -0.56508964 0.38236776 0.7251154 0.036045086 -0.07765278 0.071067914 -0.24434876 0.8523513 -0.25909296 -0.37620673 0.20479833 -0.06732121 0.043287724 0.36817953 -0.38947105 -0.31770688 -0.38913545 -0.15693542 -0.5329121 -0.23712347 -0.13244587 0.36964113 0.25845736 0.43300226 -0.0038489555 0.29567754 0.050048687 0.15137266 -0.07008369 0.17220965 0.10384143 0.20238622 -0.21281137 0.6523067 -0.310197 0.23159835 0.11623013 0.020614913 0.19237693 -0.044579647 0.14301664 -0.44650874 -0.19749509 -0.33289298 -0.30775136 0.3888546 0.52303445 -0.19570965 0.2807613 0.46569794 -0.52637076 0.05429227 -0.5308301 0.04814355 0.44293725 0.057165723 -0.026570179 -0.33887574 -0.32221335 -0.4994461 0.5420039 0.22646229 -0.27445573 0.29289925 0.21125276
69 -0.31093022 0.058273215 -0.3387265 0.59621143 -0.18637845 -0.5858645 0.03351686 0.33297744 -0.3936461 0.035932213 0.5226014 -0.073929444 -0.57058674 -0.42443857 -0.089654505 -0.43166766 0.48134184 0.78273094 -0.50021684 0.21577226 0.4512574 -0.13360505 -0.3471629 0.09648898 -0.12608424 -0.5993541 0.14103784 0.059515756 -0.6436847 -0.17136343 0.5269893 -0.36862317 -0.014995336 0.17066084 0.21653719 0.10961037 0.20885195 -0.05472114 0.17649403 0.34036508 -0.18608762 0.26584664 -0.34663078 -0.20859738 0.2360192 0.38810736 0.39402163 -0.5437543 -0.08602578 -0.56260663 -0.15576597 0.09288765 0.36770764 -0.0011587893 -0.16672343 0.013758601 0.13293383 -0.53712225 0.27524692 -0.40925333 0.77379215 -0.36658114 -0.6098818 -0.30156887 0.13266115 -0.120104104 0.34589526 -0.23320493 0.6794951 0.5169302 0.7411877 -0.66258085 0.36722624 0.33809698 -0.3116248 0.080455296 -0.09099658 -0.63812876 0.1041643 -0.041496977 0.33485916 0.10882084 -0.49168408 -0.3635135 0.5149804 0.27000558 -0.47976652 -0.012962065 0.18153326 0.42795658 -0.41349697 -0.46108904 0.06491265 0.17362246 0.13896821 -0.4374026 0.63326836 -0.49224195 0.14669107 0.3462713 0.65899503 0.18839858 0.19071333 -0.07311234 -0.22198999 0.18614653 0.6035821 -0.22729662 0.03125336 0.7397218 0.3350382 0.2535128 -1.3149147e-06 0.32044134 -0.40973476 -0.27668858 0.38267356 0.21242796 -0.06364861 -0.44288585 0.5419829 0.16417736 0.38727516 0.2509328 -0.41926217 0.061894577 -0.04914339 -0.23952942
7 -0.27961516 0.32252872 -0.93421537 0.30214152 -0.43508834 0.119589426 0.16384946 0.39532548 0.07627823 -0.050041914 0.68401974 -0.22991934 0.10101321 -0.5564848 -0.17867957 -0.024450578 0.24456798 0.47400704 -0.24691601 -0.14205845 0.28512606 -0.17095071 -0.10552527 0.49957412 0.5932918 -0.653798 0.18903853 0.14941065 -0.04101558 -0.38983878 -0.053798936 -0.48702222 0.120862186 -0.10443572 0.020493466 0.054942384 0.38872373 0.046676576 0.28064352 0.3831598 -0.16609964 -0.3520581 0.068335555 0.27758107 0.20683192 0.6801025 -0.19846022 -0.95652306 0.23947538 -0.28633723 0.19382587 -0.30589324 0.5160573 -0.10752662 -0.18694828 -0.20461972 0.33983448 -0.26011333 0.16401625 0.05924136 0.5172223 0.3223901 -0.13027087 0.36916935 0.21321605 -0.05247543 -0.11115157 0.23102248 0.4276095 -0.07196798 0.28456774 0.089483686 0.5525509 0.6949969 -0.16005565 0.16633843 0.37044844 -0.26926553 -0.28370917 0.24340527 0.33195233 0.5930692 -0.21958545 0.14591885 0.20192975 0.26225102 0.042234357 0.14217527 0.09809057 0.41208145 0.40958995 0.4971907 0.03390382 0.08222861 -0.54786474 -0.33806214 0.20804757 -0.36426777 0.07033633 -0.006839374 0.5194982 0.06280859 -0.030907953 -0.39408594 0.25724688 -0.37269354 0.0010647635 -0.2293901 0.39537483 0.49533466 -0.20968951 -0.2691328 0.47227514 0.09696285 -0.476023 -0.39620432 0.24251771 -0.11350697 -0.060719214 -0.10278516 -0.08346634 -0.00060048356 -0.004482311 0.14476448 -0.25841781 0.06180864 0.017396731 0.09310124
40 -0.6274141 -0.05476388 -0.30833405 0.104966275 -0.08324811 -0.2521714 -0.08590961 0.109676264 -0.21409476 -0.10071711 0.10148109 -0.01967292 0.2562813 -0.081392325 0.084243484 -0.36180526 0.61994016 0.21132444 -0.3739493 -0.9031762 0.56449467 0.35767266 0.10613216 0.2755262 0.115493424 -0.6511742 -0.26618963 -0.13987455 -0.16042955 -0.14969352 0.45569974 -0.123441935 0.37505117 0.052024618 -0.4597682 -0.32400754 0.4348715 -0.02988466 0.08032871 0.32368937 -0.40149972 0.034072135 0.09818274 0.31628007 0.41776836 0.456874 -0.47841826 -0.47891444 0.21246605 -0.6047591 0.04363861 -0.58005315 -0.15833291 -0.32598245 0.08237097 0.5196462 0.25036943 0.0013874074 -0.16052563 0.4780579 0.5788251 -0.12295966 0.20882319 -0.22402239 -0.21358013 0.13776885 -0.14869486 -0.16846223 0.42395568 -0.12530853 0.24113785 0.10958448 0.31984475 0.25157753 -0.33632308 -0.3936324 -0.3244674 -0.55576146 -0.06977991 0.20488884 -0.037281737 0.5139256 -0.19501892 -0.16801612 0.10641756 0.25621033 0.22661814 0.17905064 -0.062299244 0.3149143 -0.111087576 0.5029512 -0.01469577 0.20085318 -0.25404075 0.0632788 0.34738916 -0.028796306 -0.015554 0.085402675 0.049425542 -0.026208699 0.36716676 -0.06462599 0.2140965 -0.29373398 0.28917608 -0.31607085 0.22588336 0.43470332 0.22411054 -0.2017887 0.54158175 -0.3240265 -0.083235554 -0.1576679 0.54403067 0.17868753 0.12615508 -0.19850346 0.057934705 0.3239539 -0.12449531 0.1862114 -0.774609 0.1286711 -0.36016354 0.38238326
29 -0.3104192 0.16848531 0.09809376 0.23549674 0.22907203 -0.07260374 0.4969472 0.46191072 -0.24132991 0.18828641 0.056213014 -0.019100603 0.08060452 0.5378698 0.22245178 0.022193598 0.0019285544 -0.50656605 0.18815641 -0.22422153 0.40759137 0.040369976 0.13217515 0.21994661 0.4604792 -0.33349112 0.47948933 -0.23406976 -0.17401887 -0.37339178 -0.00025844586 -0.2583324 0.06598652 0.27380505 0.06470976 -0.23103993 -0.22409318 0.095461704 -0.1367788 -0.43662933 0.51285595 0.08204776 -0.48009914 -0.20378564 0.4057211 0.38345152 -0.14486527 0.019217512 0.617014 0.32662618 0.7953303 -0.27336982 0.15220971 -0.46388707 -0.15327732 -0.3497425 -0.024599265 -7.958243e-05 -0.092515744 0.43743134 0.40259862 0.37214583 -0.10709113 -0.27464056 -0.24204302 0.10683934 -0.53346217 0.3813434 0.3895428 0.4325088 0.7838008 0.1276891 -0.25027022 0.09659356 -0.01951574 0.1999986 -0.0525354 -0.39042345 -0.14292823 0.144953 -0.035943758 0.10338812 -0.14237508 0.55360895 0.07600459 -0.30024225 -0.13017313 -0.08701954 0.0155797405 -0.12467418 0.5598031 0.072363615 0.45208248 -0.050486956 0.18956031 -0.034367263 0.67005473 -0.3794797 0.17599007 -0.016666142 0.44756076 0.041862812 0.4403644 0.2532472 0.12717712 -0.11794839 -0.23987758 -0.10736097 -0.3199198 0.19700417 0.7559497 -0.10364592 0.062642254 -0.56884044 0.060813677 0.19276772 -0.054729674 -0.05526844 0.106411554 -0.45277143 -0.02659005 0.16315925 0.4731805 -0.030557662 0.32768995 -0.07153723 0.097789876 0.45148298
742 0.3452818 0.19186647 0.04982415 -0.25535035 0.11364228 -0.08264237 0.4720975 -0.14277194 -0.34923396 -0.37421095 0.061802734 -0.56773967 0.046382003 0.1668746 -0.07184378 -0.08053496 0.28258777 0.32590562 -0.36818513 -0.56196624 -0.29227087 0.21247482 -0.4246108 -0.53409356 -0.02858996 -0.20929246 -0.17148405 -0.10734749 0.3881272 -0.5857188 -0.25156006 -0.09772963 0.32530037 -0.82759833 0.55790985 -0.44429776 0.30181268 -0.1956131 -0.47522524 0.5356161 -0.3087241 -0.08374268 0.0015626223 -0.49674022 0.24637508 0.2222569 0.31584325 -0.31335506 0.15491858 -0.43746358 0.04659045 -0.03969315 0.19507417 -0.27307454 0.2079498 -0.257627 -0.007753011 -0.43366668 -0.5731031 0.10177093 0.22926915 0.14822006 0.29669157 -0.3369274 0.22722599 0.13885212 -0.10427349 0.3351737 -0.17126876 -0.15460856 0.02907101 0.50647646 0.018554859 -0.16759968 0.025512991 -0.17996 -0.10764447 0.16411936 -0.48369887 -0.11795578 -0.28145233 0.16918354 0.1808352 0.00866038 0.2686231 -0.32945567 -0.44548202 -0.062450424 0.36147845 0.111187324 0.79256123 0.6439653 0.16028062 -0.006565094 0.37075838 -0.28493336 -0.15928672 0.0935657 -0.45077893 0.04430781 0.38639364 0.35256916 0.24379294 0.2114763 -0.011267425 0.08587613 0.60993963 -0.28942809 0.52742684 0.035785094 0.5657658 0.02727343 0.005617409 -0.41171038 0.1741673 0.24439809 0.17906965 0.06933968 0.27727076 -0.24889202 -0.03172364 -0.2686238 0.14710242 -0.072737 -0.03601536 0.089388065 0.22846983 -0.4987858
2004 -0.4707463 0.056728274 0.1418251 0.028737936 0.08999725 -0.6689561 0.30996573 -0.10003236 -0.4227348 0.12382769 0.15475276 -0.93299204 0.012650568 0.31372476 0.10120436 -0.060423806 0.17734277 0.1822036 -0.43503195 -0.7339948 -0.16155203 -0.38828224 -0.07180612 -0.6504199 0.5797245 -0.15745544 -0.040672917 -0.6940503 -0.07170379 -0.042058937 0.24112168 -0.16758914 0.68178964 -0.25133955 -0.42093277 -0.76284724 0.44755593 -0.24644507 -0.4705521 0.79120535 -0.10243756 0.056659196 -0.15479712 -0.5850954 0.072116576 0.006362212 -0.39457506 -0.096608676 0.010611575 -0.39693794 0.36147258 0.62095505 0.28144538 -0.4460376 0.004840178 -0.64945656 -0.2169337 -0.18524724 -0.9099947 0.43780538 -0.079834126 0.23948714 0.17198507 0.05927942 -0.19035238 0.050832573 0.037211254 0.17782323 -0.26024637 -0.059319332 0.31464934 -0.038762894 0.1413928 -0.42449299 -0.14896844 -0.10999044 -0.5943678 0.06660093 -0.05820019 -0.31277865 -0.026128814 0.1588532 0.05832429 -0.054490108 -0.07827697 0.26799208 -0.35113755 0.8129625 0.91770416 -0.03597597 0.228568 0.45183775 0.5198137 0.8266182 0.21409304 -0.42388523 -0.11324981 0.18127148 -0.49449703 -0.10939453 0.66369355 0.09062283 -0.106918484 0.20520893 -0.08662873 0.5749329 0.35053915 0.0929869 0.30775377 -0.012860181 0.6188502 -0.088479996 0.006288184 -0.17351241 -0.16759442 0.09259861 -0.058787204 0.30188742 -0.033703957 0.06204495 0.028387422 -0.21713282 0.38515592 0.46920952 0.0367169 -0.22446795 0.04039372 -0.44333544
103 0.18583846 0.43070507 0.54182535 0.5901762 -0.012897305 -0.48450977 0.01662888 0.4187083 0.13090459 -0.49444675 0.32658195 -0.2304252 0.5254918 0.18947081 -0.5117975 -0.28131297 -0.2907498 0.9689859 -0.66403645 -0.55491304 0.29374564 -0.15530089 -0.4090536 -0.22382563 0.1007149 0.11098307 0.5992413 -0.33165833 0.016371544 -0.48990557 -0.040936474 -0.38465443 0.5188667 0.7905197 -0.11236646 -0.12812331 0.7513294 0.11567188 -0.810987 0.48474494 0.60903746 -0.62092495 -0.7362267 0.40460262 -0.06246549 -0.049785927 -0.61699563 -0.7406671 0.09645074 -0.27236763 0.22780524 0.6692442 -0.67394906 -0.1491724 0.37894648 -1.0416433 -0.25537178 -0.052349675 0.39401123 0.23685738 0.69739556 -0.5496272 -0.02708634 -0.6245147 0.1309368 0.26722422 0.63174754 -0.49875414 0.09607603 -1.1496179 0.65714186 -0.5245975 -0.41720915 -0.02547274 -0.9210976 -0.078206636 0.2921058 -0.3591497 -0.7566215 0.0018699268 0.11540219 -0.44918478 -0.7707736 0.055923775 0.19801211 0.3486797 0.598586 -0.22653207 0.026939224 0.45990354 -0.017468527 0.3894446 0.53781366 0.5832412 0.10282096 -0.13508074 0.25845313 -0.32238537 -0.22717273 0.47947335 0.5235098 0.35567153 -0.020060701 0.4039006 -0.581798 -0.08076924 -0.9305243 -0.45347032 0.09738891 0.2494148 0.27708623 -0.07287761 0.011556924 -0.065246806 -0.035635345 -0.20696726 -0.060943376 0.055824522 -0.35042492 0.0711295 -0.49615568 0.035117242 -0.42641744 0.40789697 -0.40927365 -0.2785413 0.27771443 -0.16649745
