2708 128
163 0.28866807 -0.10961656 0.130771 -0.18928522 0.026402958 -0.5879602 -0.16760343 -0.14864333 0.3376638 0.19444911 0.21579078 -0.4665383 0.0364377 0.08113308 0.042367097 -0.33570796 -0.2266757 0.041554846 -0.4030471 0.3001336 -0.29075652 -0.11013996 0.02448558 -0.47884732 0.124806456 -0.34535652 -0.30381197 0.016621392 -0.319534 -0.37301642 -0.036723867 -0.0953684 -0.17105007 -0.25602043 -0.26157236 -0.3909726 -0.26291755 0.059281994 -0.42819855 -0.102437094 0.016789215 -0.0018088834 -0.17603403 0.29265594 -0.48710254 -0.18708973 -0.3167696 -0.55599904 0.23143306 0.52728075 0.09482677 0.4388446 -0.14190753 -0.068060905 0.06358851 -0.098326296 0.07003162 0.0833146 0.09553973 0.2672327 0.019838918 -0.22312407 -0.1005034 -0.25678495 -0.18775985 0.118746564 -0.070644826 -0.030761726 -0.038001467 0.20518006 -0.34322757 -0.60937923 -0.15346405 -0.13296728 0.015105802 0.034386735 0.07139847 0.07825542 -0.2594071 0.27145597 0.04034257 -0.23844847 -0.074585 0.12028399 0.42475745 0.2328187 -0.1749374 0.08284035 -0.78310484 -0.09011623 -0.18668577 0.08271665 0.18479955 0.092831716 0.062457692 -0.3124676 0.02893513 -0.05101057 0.0769944 0.3402057 0.1293972 -0.046869855 0.046132833 -0.019220708 -0.55482244 -0.5405538 -0.39147326 -0.37935758 0.10026001 0.3158486 0.14160924 -0.13948914 0.21399483 0.5829711 -0.20369272 -0.009556029 -0.3234313 0.01857073 0.3217373 -0.10540029 0.12838554 0.3648567 -0.11047667 -0.04366072 0.04759097 -0.21419956 -0.16690904 0.17828873
565 -0.25463825 -0.46878004 -0.0038828354 -0.19098048 -0.09823913 -0.55884033 0.096442424 -0.1904739 -0.17042324 0.478889 0.09007181 -0.049022388 0.22829163 -0.2900433 -0.061660353 -0.5036319 -0.1298697 0.31207982 -0.0045895088 -0.048113324 -0.4808639 -0.094280265 0.018396067 0.40289047 -0.15360828 -0.5995311 -0.12229239 0.26563808 0.04027156 0.025554642 0.13809218 -0.35527617 0.26144806 -0.14672263 -0.39556283 -0.2932997 0.09202866 0.08329219 -0.5549903 -0.11161661 0.17698514 -0.12149472 0.23001257 0.053960644 0.11080311 -0.020169001 0.13435316 -0.24819794 0.3834503 0.04669344 0.034215398 0.7713194 -0.22255287 0.40366584 -0.23623867 0.6425638 -0.10471425 -0.11868187 0.103130735 0.017559635 0.09204899 -0.30906227 0.2376729 -0.22701518 0.15963043 0.3378719 -0.114332534 -0.44715175 0.18936045 0.17337614 0.11672204 -0.43089363 -0.12272019 -0.042604398 0.100172356 0.18072163 0.102263235 -0.09794344 -0.1913616 -0.40074202 -0.21624978 0.0054634237 -0.35799435 0.32537943 0.44655144 0.087218255 -0.20869468 0.24726245 0.17975302 -0.042179607 0.3971482 -0.27662656 -0.248247 0.064000145 -0.08832018 0.29983374 0.28230852 -0.45119286 -0.27428722 0.51741624 0.20017277 0.13799617 0.11238381 0.3410804 -0.2960067 -0.036262807 -0.20900394 0.24894816 -0.0069778645 0.15832241 0.0005083476 -0.16106264 0.23129447 0.36160964 0.0036899275 -0.1880694 -0.6266729 -0.23812892 -0.28514183 -0.3361111 -0.30680427 0.02537212 0.09094117 -0.22010395 0.21486014 0.1703174 -0.32246017 0.23019029
747 0.19405624 -0.5065378 0.16675104 0.3130755 -0.053861387 -0.37262222 0.25060055 0.03434678 -0.004182962 0.32430792 0.63603014 0.08479118 0.07017213 -0.15301058 0.3133858 -0.08670219 0.098259725 -0.008038187 -0.15619418 -0.030380504 -0.8276683 -0.05921937 -0.10922112 -0.070244014 -0.3148178 -0.15610644 0.43982604 0.30227846 -0.37825647 -0.16549826 -0.17584 -0.19346116 0.020964168 0.1238688 -0.0786165 0.17148484 -0.21552218 -0.41549602 -0.36256766 -0.6029264 0.42429703 -0.35751942 -0.14228524 0.31848565 -0.16019043 0.01878463 -0.5307157 -0.45040354 0.27298674 -0.3512963 0.013731782 0.4258703 -0.21647424 0.32157797 -0.4371815 -0.03074701 0.3683047 -0.40745723 0.28564954 0.23470281 -0.23294662 -0.44553006 0.017490825 -0.26129177 -0.15740804 0.28974608 0.44030127 -0.35188183 0.2603663 0.066402905 0.4662396 -0.12339833 0.032345414 0.010181367 -0.067108035 -0.21596721 0.08402039 -0.07635254 -0.069296174 -0.19651459 0.2395982 0.047891464 -0.5020456 0.1737588 0.21706821 -0.050561566 -0.42601347 0.1901161 -0.01446191 -0.047678843 0.37432757 0.15664478 -0.48095334 -0.12086262 0.1013225 0.36323345 0.19087203 0.26521263 -0.26663315 -0.047362715 0.18779778 0.05695925 0.13329342 0.2095725 -0.2757961 -0.20663722 -0.2683329 0.4754336 0.01720881 0.12076563 0.24454212 0.55612797 0.14618361 0.2538606 0.1546378 0.36072493 0.05404624 0.057729747 0.053137414 -0.28414264 -0.038968485 0.08107182 -0.22333294 0.11028401 -0.11665082 0.18718272 -0.2654902 -0.010738729
427 -0.28339773 -0.47276568 -0.022748072 -0.13890979 -0.079260595 -0.116386354 0.24474594 -0.41201326 -0.33876297 0.29546037 0.55587924 -0.13122858 0.07993582 -0.12660597 0.39456365 -0.45677993 0.51206464 0.2058842 -0.43936914 0.10698079 -0.21269797 -0.1627421 0.11518736 -0.18560341 -0.16918683 0.12669821 -0.19720156 0.10840961 -0.09918463 -0.13121152 -0.21370526 -0.16638957 0.4304032 -0.17605121 0.17140798 -0.042567387 -0.54896 -0.21356364 -0.28834108 -0.18349119 0.040054146 -0.23849103 -0.14896254 0.47289518 -0.083727196 -0.06553179 -0.19729102 -0.050765894 0.1647661 -0.042348064 -0.290547 0.6402875 0.012842137 -0.00081050524 -0.58807826 -0.1658853 -0.23853941 0.041089587 0.14911652 0.098394334 -0.15998265 -0.53788775 0.40641296 -0.22514014 -0.010550042 0.023843072 0.2155026 -0.65031195 0.37069976 0.26028317 0.14082018 -0.42168316 -0.19618769 0.22124106 0.029973758 0.24051243 -0.20760396 0.08091701 0.053344354 -0.15171215 -0.075264096 -0.05273623 0.09886771 0.1766357 0.41222596 0.2949648 -0.06667869 0.36113366 -0.22662993 -0.6976547 0.20942812 -0.09364605 0.023624992 -0.38530907 0.49704242 0.13738105 0.30260602 0.10449574 0.12145679 0.045436878 0.063702196 0.0010497777 -0.11618256 0.16753975 0.039662827 -0.24743786 -0.124259785 0.00024093594 0.046983045 -0.063816525 -0.12701744 0.33861423 0.19390687 0.10775378 0.37735936 0.39372867 -0.05092375 0.1395401 -0.10817193 -0.43056792 0.1842704 0.08929281 -0.33645156 0.29770225 -0.60168767 -0.10058721 -0.0039537684 0.0284277
611 0.11234646 -0.46331736 -0.09023222 0.019609211 -0.28373173 -0.02830891 0.3588256 -0.23935202 -0.2134591 0.01512499 0.103382714 -0.046947446 -0.22947472 -0.1600931 0.1780323 -0.5442937 0.17225045 -0.52732927 -0.121127814 0.07201499 -0.5460108 -0.52392197 0.31784588 -0.17406745 -0.42962947 -0.20286994 0.2710561 -0.28977492 0.19956148 -0.69763273 -0.28662142 0.035251927 -0.119683884 0.16393055 -0.19707279 0.28677502 -0.31589657 -0.109364994 -0.2616972 -0.4442697 0.021232728 -0.63243127 0.15041073 0.041799244 0.27573675 0.12353472 -0.20774135 -0.31315866 0.23108262 0.016039621 -0.74113214 0.583045 -0.33356223 0.0056735636 -0.32242388 0.23299034 0.12571305 -0.1134376 -0.054329287 -0.3676037 -0.25774753 -0.282623 -0.110073835 -0.34388477 0.076556064 -0.042374033 0.27043706 -0.58139575 -0.14809316 -0.22082321 0.06551772 -0.5449751 0.101845905 -0.07805983 0.005396342 -0.10130297 0.14589813 0.09776682 0.012608293 -0.14518282 -0.06734185 -0.308823 -0.7343196 0.318163 0.14397912 0.34765494 -0.19497693 0.00419588 0.3972127 -0.10529931 0.29836965 -0.41078654 -0.21301258 -0.2132132 0.093313575 -0.19532509 0.26196688 -0.010825392 0.2742435 0.2033514 -0.33528477 -0.055532966 0.38473397 0.22601835 -0.6582916 0.024916628 -0.037793376 0.301255 -0.07355688 0.49228445 0.27961263 -0.16127728 -0.2294603 0.09954186 0.089330815 0.22244354 -0.4230418 0.016660918 0.21407357 -0.07228251 0.00634291 0.011392363 -0.08053242 0.27376327 -0.20413053 0.16296494 -0.41182852 -0.29264325
74 -0.18438436 -0.6458559 -0.121949516 -0.13258457 -0.16982584 -0.48316807 0.3164676 0.14771631 0.17319764 -0.20834932 0.12030818 -0.10824864 -0.25004268 0.06840561 0.30669785 -0.71848106 0.46918476 0.10390331 -0.20868285 -0.025445089 -0.53589904 -0.06632833 -0.16286264 0.06332827 -0.7323196 -0.35794562 -0.019506605 -0.112781234 0.12232028 0.038413472 -0.12014023 0.34092563 -0.04145808 -0.4425919 0.7613777 0.21342055 -0.31414342 -0.19561896 -0.32145134 -0.05450286 -0.40982133 -0.05058252 -0.42484465 0.32314107 0.030263988 -0.12610166 0.0038502577 -0.61098415 0.17144322 -0.19179237 -0.34818906 0.3517836 -0.40375757 0.19652441 -0.019860173 0.06512816 0.182143 0.21852194 0.02941344 -0.076933265 -0.1459745 -0.7667338 0.27946326 -0.4425971 -0.24342719 0.11389412 0.082872085 -0.3601635 -0.37817708 0.04426231 0.21172097 -0.41998222 0.32770175 -0.44148037 0.22881655 0.34088066 0.19680329 0.121895134 -0.020656334 -0.13202152 -0.13250488 -0.03285041 -0.30342054 0.20484261 0.39866066 -0.10839723 -0.30271128 0.27023658 -0.25871736 -0.10771799 0.43426818 0.037888207 0.33488363 0.0869091 -0.1536842 0.30197102 0.06383052 -0.034545347 0.41101652 0.08385182 -0.09749813 -0.37633383 0.17546217 -0.15140378 0.06423099 0.20986013 -0.09073055 0.47602683 -0.35375834 0.119915165 0.015119687 -0.22067839 0.2234217 0.13774821 0.22516651 -0.15394373 -0.38584664 -0.34822303 0.36835638 -0.045293603 -0.47697666 0.014295355 -0.10974248 -0.028123764 -0.6140124 0.30412942 -0.15244186 0.090494685
552 -0.15668263 -0.45840058 0.09368451 -0.21193218 -0.23131886 -0.5982478 0.26402938 -0.17405629 0.09319825 0.34055066 0.07871292 0.08971512 0.35194072 -0.064921156 0.12214155 -0.3532989 -0.13920698 0.18955687 0.33728307 -0.22006674 -0.10171172 -0.10771849 0.15650351 0.33432227 -0.330799 -0.7553894 -0.11458314 0.5487799 0.03000371 -0.3735867 -0.0016717154 0.08200082 0.46043733 -0.014828497 -0.058803726 -0.14603677 -0.14958484 0.19665588 -0.3553037 -0.5927678 -0.179982 0.20749766 0.33310717 0.08065002 -0.09465001 0.051520128 0.11183537 -0.5771315 0.020758174 0.12871028 0.12145749 0.91775376 0.028122494 -0.009610003 -0.18999687 0.32601443 -0.04581113 0.1962318 0.20374708 0.06884107 0.22802776 -0.14824197 0.36826175 -0.034701437 0.4416287 0.23160495 -0.2790958 -0.2959275 0.022212628 -0.072905295 0.3778062 -0.42043528 -0.20907246 0.26655093 -0.08132894 -0.04014306 -0.4332296 -0.18540457 0.04659968 -0.34017602 0.010876327 0.17096967 -0.2638851 0.39441156 0.19787551 -0.091817945 -0.35740945 0.10408615 0.086438484 -0.259875 0.8100544 -0.4152516 -0.29318273 0.13675304 -0.19757211 0.39842165 0.12194234 -0.09823551 -0.07442173 -0.0019111389 0.27786717 0.26263928 0.71423745 0.14826745 -0.09750063 -0.33500758 -0.55019253 0.108231425 0.1781785 0.5674062 0.20619027 0.08952189 0.65713805 0.44735056 0.25549796 -0.2667576 -0.3432664 -0.058863413 0.15933856 -0.5137709 -0.18066938 -0.09911767 0.24015616 -0.11098681 -0.24403942 0.1315386 -0.044518493 0.22411422
430 0.3376113 0.040077366 -0.22125892 0.35809615 0.17095336 -0.63871455 0.08846015 -0.17159767 0.2703483 0.53620857 -0.23805226 0.47934934 -0.018788766 -0.090438865 0.14923212 -0.12636682 0.7516771 -0.030845113 -0.17004818 0.28125483 -0.023297124 -0.151927 -0.21281466 -0.4403946 -0.45613763 -0.062251404 -0.15475613 -0.45138326 -0.029238071 0.096868716 -0.18630531 -0.21960622 0.28259745 0.044438105 -0.10812593 -0.029938066 -0.03881889 -0.029444415 0.15771449 -0.023408085 -0.26893052 -0.12959592 0.15114777 0.3669579 -0.61212856 0.20749822 -0.37833354 -0.6656968 0.6295003 0.0017732186 0.024219878 0.0915345 -0.52336276 -0.21817406 0.48058558 0.18133515 0.0018167793 -0.18922584 0.08263544 -0.26447612 0.1282466 -0.8250936 -0.17205273 -0.30242938 0.15379813 -0.055641524 -0.24023722 0.024799408 0.3008348 0.41902283 -0.16801666 -0.37600142 -0.2092939 0.22864953 0.14162159 0.30216756 0.06948697 -0.0753748 -0.14858647 0.10247442 -0.5076013 0.2529191 -0.2639276 0.45458066 0.051281285 -0.113557644 -0.3684056 0.20352149 -0.49959496 -0.6804028 -0.18486129 0.16811581 -0.17107369 -0.08428883 -0.109305 0.14887743 -0.19521661 -0.2806138 -0.26576582 -0.23853752 -0.12928659 -0.17739552 0.5991326 0.20628098 -0.0671063 -0.19985388 0.29327166 0.16267645 0.2513031 0.23674804 0.25232694 -0.35489342 0.36156294 0.09353326 0.36507592 0.21440032 -0.42859435 -0.17487752 -0.34072912 0.0019335907 -0.039252132 0.15013961 -0.10142927 0.5968347 -0.41158894 0.13833459 0.4797233 0.24364169
638 0.058775324 -0.40560743 0.6376387 0.43394727 0.25794882 -0.39038152 0.34444225 -0.57940656 0.39081973 0.3876039 0.52092344 0.33864906 0.119102046 -0.29374844 -0.21613987 -0.4770835 0.2312953 0.21922588 0.019423142 0.12744336 -0.17900762 0.24669924 -0.12060598 0.14516309 -0.29967803 -0.22219661 0.18469347 -0.38976088 -0.1465977 -0.23367004 -0.26512086 -0.18654941 0.3881486 -0.29148212 -0.0013882191 -0.06420222 0.14431046 -0.06381803 -0.052755177 -0.5091628 0.05073324 -0.2963285 -0.21326931 -0.37644118 -0.1558384 0.13337289 -0.2116285 -0.44310015 0.4995975 0.34404027 0.3962473 0.39955336 -0.24461003 -0.11865666 0.06331705 0.054154623 0.01963552 -0.30158004 0.20236488 0.0664475 0.20390798 -0.5465053 -0.0070239543 0.092703246 0.3827643 0.16421323 -0.13950652 -0.16189191 0.5621006 -0.06578147 -0.06302837 -0.44486797 -0.14771746 -0.15189013 -0.06464769 -0.33580765 0.33307523 -0.34406102 -0.09279448 0.37472534 -0.11178434 0.3969712 -0.06578103 -0.333714 -0.27524593 -0.3697002 0.0065846727 -0.00073940214 -0.04421057 0.08392004 -0.18592377 0.22235395 -0.049217697 -0.40111125 -0.039198544 0.11907234 0.10028972 -0.48734602 -0.28365257 0.3792129 0.17003067 0.32454386 0.548396 0.282426 -0.008251638 -0.1025713 0.62122786 0.18495159 0.029969923 0.87608945 0.04518691 0.15568303 0.531016 -0.034346897 0.33369547 -0.09223351 0.14989105 0.124618016 0.33616316 0.04135092 -0.12465008 0.0141452 0.16230333 0.3579138 0.038908407 0.30919555 -0.23763792 0.12468773
745 0.44186077 -0.23874393 -0.12736933 0.061637513 -0.0782261 0.08520138 0.63649064 -0.030506672 0.15687363 0.12958153 0.33400366 0.05911864 0.20319478 -0.3308098 0.553716 -0.15028574 0.31926498 -0.27265435 -0.06685107 0.12756449 -0.25000587 -0.1251869 0.06472834 0.2352602 0.08415678 -0.34604743 -0.022638017 0.3017712 -0.2338465 -0.23681337 -0.29498386 -0.29387036 0.04662634 0.13984808 0.023588663 0.0065824604 -0.6361841 -0.4591476 -0.25013554 -0.39471972 0.5054098 -0.74231035 -0.18624528 0.6394815 -0.1528348 0.19307175 -0.5761242 -0.090700336 0.08453188 -0.24298126 -0.1756203 0.26279792 -0.068443604 -0.041891802 -0.21611209 -0.0052395756 0.04294485 0.21831058 0.08907203 -0.0015801864 -0.187498 -0.49573678 0.12325919 -0.15329547 0.0061281035 -0.098564304 0.58355314 -0.11280407 0.028117407 -0.00022425564 0.18211767 -0.7335823 0.06937579 -0.0124163395 0.07885538 0.026226895 0.03887581 0.41678244 -0.37732697 -0.31894007 -0.36220166 -0.23628078 -0.26810333 -0.1679592 0.6222592 0.28753006 -0.14597693 0.14098044 -0.06555639 -0.08889822 0.061086684 0.21876909 -0.058379423 -0.21671571 0.16124806 0.8604868 -0.19470365 0.2968874 0.27070823 0.48695567 0.18205954 -0.049777403 0.34493813 0.55744874 -0.21607052 -0.16187944 -0.21223626 0.3751924 0.073324844 0.050114945 0.585523 0.25417566 0.17466937 0.6869178 0.09553196 0.21797173 -0.14327048 0.14980705 0.2665592 0.20404917 0.06934836 0.17868109 -0.37170392 0.27602282 -0.21435656 0.18282837 -0.46414378 0.012195622
294 0.06885409 -0.5462788 0.3172083 0.043302912 -0.008788056 -0.75216186 0.2840244 -0.07754624 -0.068441615 0.4773079 0.009691525 0.23794335 -0.035223883 -0.4511157 0.42248642 -0.4259575 0.056780558 0.039200228 0.0026848374 0.008883525 -0.6228897 -0.18955301 0.274882 0.071042076 0.022587955 -0.23307577 -0.086155884 -0.102533646 -0.2216716 -0.053068984 -0.23054093 -0.53546333 0.36288407 0.053573508 -0.42419326 -0.3440355 -0.518362 -0.026002195 -0.5795973 -0.86505055 -0.15868719 -0.13737132 0.14284348 0.15761375 -0.0030177564 0.30574661 -0.115583345 -0.34327248 0.31450364 -0.16686122 -0.06570155 0.18323399 0.022693582 0.13061194 -0.1607948 0.48185465 0.00356949 -0.32812044 0.35833135 0.41868103 0.08465675 -0.0873076 0.41307622 -0.12377018 0.16880186 0.07130571 0.18591172 0.086772986 0.0307388 0.41785404 -0.05154216 -0.61029637 -0.27555382 0.06587932 -0.15931906 -0.30676708 0.17182125 0.051109582 -0.21198681 -0.1848875 0.094831966 0.14559948 -0.2495813 0.0388434 0.39850214 -0.11212165 -0.019409021 0.42402154 0.23984945 -0.011544543 0.6720038 -0.2741606 -0.020401908 -0.07776649 -0.06057229 0.14397404 -0.064883836 -0.25961107 -0.008234701 0.15284987 0.092151456 -0.08997141 0.07714015 -0.020246558 -0.18116422 0.015550304 -0.119979255 0.15290833 -0.0009267387 0.49660274 0.22101161 0.09020051 0.48698723 0.70173013 0.10831684 -0.10449039 -0.28316966 -0.30825436 -0.12109229 -0.17394216 -0.18801096 0.0626175 0.17419241 -0.34363216 0.29156005 0.16248453 -0.3773371 0.023059068
344 0.06374981 -0.36620843 0.2349768 0.2991241 0.005066684 -0.2079405 0.114774 -0.03524115 0.17899345 0.945298 0.61767906 0.22065373 -0.054627955 -0.0921248 -0.41308373 -0.072707206 -0.041465957 0.19450957 0.19412242 0.24485448 0.07314138 -0.10532781 0.26147652 -0.031509504 -0.1728885 -0.23726049 0.64308286 0.13897388 -0.35834676 -0.41822594 -0.1822572 -0.2489086 0.16811004 0.008252571 0.10472827 0.1249842 0.51510847 -0.39060926 0.056661338 -0.0009015647 -0.5270463 0.060235787 0.20388572 0.22150803 -0.16974291 0.0967818 0.12027786 -0.858709 0.37034968 0.45138323 0.03603303 0.0900334 0.19500574 0.19345567 -0.047451735 -0.377941 0.00273225 0.23523825 -0.17639734 0.027643833 0.31042403 -0.8192943 0.19009003 -0.3343092 0.6411387 0.04848989 -0.2272239 0.3590454 0.1994696 0.19666474 0.19566773 -0.60276014 -0.30517146 -0.113547646 -0.026527887 0.371466 0.52553064 0.3238028 -0.30729452 0.4504563 -0.17770512 0.42169556 0.055640034 0.106727086 -0.051331118 -0.52345425 -0.38579643 0.5768362 0.16909073 -0.53053546 -0.19673659 0.17006354 -0.5303146 0.35586247 -0.20187953 -0.09548708 0.5555443 0.094247274 0.12524138 0.013076679 0.27032745 -0.08194046 0.21356493 0.31738296 -0.47847435 -0.18201205 0.0130791655 0.19390708 -0.046416067 0.5632125 0.073461056 -0.6850413 0.5150049 -0.06619341 0.250701 -0.05524647 0.43847132 -0.13224998 0.26682886 0.19935387 -0.19146715 0.189241 -0.018281223 0.12027609 -0.15322804 0.27762786 0.055991504 0.32001343
566 -0.14464504 -0.5444796 0.34463033 -0.038196072 -0.65954953 -0.6717941 -0.10586777 0.34932432 -0.13498506 0.8379451 0.108068615 -0.12317396 0.03709384 -0.2986602 0.35346097 -0.1735667 0.054477412 0.5635256 0.19297448 0.20851816 -0.08163811 0.1280468 0.08113389 0.01887979 0.14180377 -0.2019226 0.15291479 0.21938139 0.12286119 -0.11173722 0.059512302 -0.26376078 -0.33378157 -0.19251288 -0.025137717 -0.28722435 -0.27748927 -0.10223599 -0.5034591 -0.44293013 0.032857146 -0.25600505 0.16747099 0.11357653 -0.19651118 -0.19838591 -0.18659085 -0.2984883 0.24995954 -0.11627464 -0.02810257 0.4072487 -0.14166781 0.40448254 0.23093656 0.47098854 0.067546025 -0.14784041 0.06598642 0.29873443 0.2634548 -0.5769182 0.38221112 -0.116718926 0.4048733 -0.063160405 -0.038346656 -0.2564809 0.2501462 0.24278893 -0.16086076 -0.3654166 0.17500448 0.48173118 0.1485349 -0.03839534 -0.16836092 0.061698426 0.02542969 0.24581455 0.22331436 -0.33848822 -0.34846398 -0.25556955 0.42189458 0.020568889 -0.36522263 0.07824516 0.42294952 -0.16929756 0.42880374 -0.17473914 -0.07086409 -0.19127892 0.053453848 0.6545059 0.14879435 -0.24384664 0.10511577 -0.10465539 0.39027056 0.043581948 0.2110194 0.1049193 0.16028167 -0.025214657 -0.5493498 0.3193609 0.09124899 0.34253076 0.07420962 -0.01062605 0.44364464 0.31247506 -0.31257722 -0.21158649 -0.3286997 -0.0589483 0.2012262 -0.17438495 -0.25616682 0.027405072 0.21092795 0.0019175395 0.18430774 0.11970227 -0.034342553 0.2807195
576 0.18181768 0.13340996 -0.07185049 0.45986807 0.23119153 -0.10134971 0.49358976 -0.10370441 -0.105700076 0.25017223 0.6260396 0.26335576 -0.0033132893 -0.0410605 0.81278884 -0.5350134 -0.25998107 0.16519387 0.026447974 0.004978222 -0.22087818 -0.07951874 -0.11889112 -0.70777154 -0.6270815 -0.388361 0.27570572 0.5866552 -0.20192508 -0.77260137 0.42728025 -0.54174715 0.008690905 0.1591055 0.22752783 0.26445475 -0.51928204 -0.46633136 -0.6695502 -0.5034769 0.54987305 -0.642303 -0.3009836 0.5806113 -0.12027778 0.1591755 -0.18270965 -0.3169425 0.4036756 -0.18081288 0.09027243 0.26700082 -0.17357223 0.30481675 -0.13706335 -0.19880675 -0.27166072 -0.19615076 -0.04529477 -0.1543101 -0.1945231 -0.37340516 -0.08003302 -0.24900174 -0.35275236 -0.19345972 0.11888608 0.2440292 0.4843499 0.29455176 0.17852163 -0.20371947 0.48056594 0.029465863 0.22904065 0.10418934 0.16762337 0.17263453 -0.5332425 0.16529785 -0.5092311 0.018704157 -0.8278144 0.17037122 0.101672314 0.026396275 -0.16361155 0.14667869 -0.24097738 -0.5252248 0.21631213 -0.42567456 0.22564372 -0.039540317 0.16373314 -0.0015649501 0.23515096 0.64609486 -0.11695372 0.29834238 0.25928554 -0.2902185 0.6427914 0.5679879 -0.40115628 -0.6884229 -0.37608725 0.7108753 -0.05208723 0.1384456 0.42518714 0.38302252 0.055814236 0.3897813 0.19724399 0.21769157 -0.10780745 -0.019119976 -0.22118089 0.046915967 0.084797844 -0.19220705 -0.119029246 0.1442224 -0.4032903 0.17288637 -0.14820233 0.01843442
157 0.17098473 -0.052619245 0.02336007 -0.10845054 -0.11833258 -0.5447422 0.18358259 -0.14112532 0.052102797 0.21734785 0.36159596 0.044900507 -0.4018523 -0.21893422 0.17257507 -0.37541115 0.35802722 0.18400185 0.06412167 0.08396737 -0.6376947 0.06485341 -0.18042955 -0.06504296 -0.6171868 -0.12833396 0.16627684 0.023638729 -0.18846256 -0.6080974 0.08509013 0.21537709 -0.33065283 0.08486731 0.002134982 0.2903407 -0.5734048 -0.17166728 -0.14259067 -0.14773683 -0.4973437 -0.2390942 0.00298672 -0.2044832 0.01710381 0.4486678 -0.36011904 -0.38632756 0.23908338 0.7425506 -0.4903657 0.4473038 -0.29522747 -0.015180268 0.16139494 -0.13356452 -0.48395234 -0.29825658 0.22180754 -0.3473019 -0.019929446 -0.8399124 -0.287392 0.117092825 0.15554154 -0.20929141 0.0029634146 -0.70918703 -0.14348693 0.25732288 0.2258999 0.10104212 0.28171995 0.4755582 0.49325138 0.2159643 0.09401794 0.2547432 0.51500237 0.03492504 -0.3125547 0.06352269 0.017670384 0.33544764 0.49431968 -0.019788088 -0.032468617 0.081996 0.20256738 -0.5141194 0.09027406 -0.19287856 -0.032074146 0.068888135 0.35932598 0.4071115 -0.010544071 -0.3937431 0.569089 0.14625144 0.13651863 -0.12236371 0.29162028 0.5099582 -0.07806565 -0.3046834 0.11697307 0.16624825 0.26513457 0.19031936 0.18437077 0.013586389 -0.33881527 -0.10683612 0.19167536 0.45987064 -0.27174297 0.24843967 -0.3377199 -0.031263214 -0.21884546 -0.25803977 0.17829083 -0.1756676 -0.13638204 0.53821576 -0.60354465 -0.16344239
523 0.19090523 -0.35954946 0.37015012 0.033221826 -0.08699385 0.009689027 -0.08101101 -0.24261005 0.33096078 0.2281429 -0.24600606 -0.21378127 0.24331185 0.05311441 0.07472438 -0.22897594 -0.016205018 -0.09154514 0.040101726 0.09952536 -0.226879 0.05271586 -0.040344853 0.33439553 -0.18932062 -0.23287094 -0.44352734 0.35981634 -0.25975853 -0.16899972 -0.062486447 -0.28776273 0.30103254 -0.29679036 -0.25017223 -0.52160203 -0.14734815 -0.18935563 -0.35165858 -0.020468691 0.15436238 -0.13084757 0.2576542 0.036929626 0.18999386 -0.00023517032 -0.18268697 -0.57138896 -0.0036073343 0.053095408 0.051568355 1.0033153 0.22101197 -0.020302452 -0.19878735 0.49831468 0.01094252 -0.4535554 -0.3137966 -0.046091497 -0.089882985 -0.45738834 0.029333405 -0.20833078 0.3637372 0.21587619 0.21735068 -0.3106497 0.30903602 0.115752205 -0.07083464 -0.5682004 -0.09975642 -0.018370269 -0.12325779 0.3048032 0.07071877 -0.15985875 0.2080196 0.05005518 -0.11603841 -0.39213738 -0.48609662 0.59458214 0.2964647 0.00048533903 -0.35444447 0.2433144 -0.24210231 -0.37605444 0.112259895 -0.010720543 0.24924885 0.30629948 0.13402544 -0.15299174 0.39439678 0.0036052945 -0.11272279 0.41725564 0.641816 0.048727706 0.0024937429 0.2739587 -0.3396811 -0.15685907 -0.30096382 0.33712995 0.23389874 0.03831725 -0.01185608 -0.18846016 0.24687697 0.73397803 -0.34607613 0.121420965 -0.42360756 -0.26309547 0.0077850088 0.27474865 -0.28191468 0.023740366 0.13997516 -0.35883102 0.46699104 -0.32463 -0.0072745658 0.50324506
378 -0.18843916 0.111150704 0.30608973 -0.110850446 -0.17807558 -0.5045665 0.17573074 -0.45821062 -0.19327553 0.6381568 0.28507367 0.23846868 -0.01937298 -0.0703037 -0.24898288 -0.46144888 0.10591185 0.044686425 0.39858422 0.57931376 -0.23206645 0.050101824 -0.34229013 0.06808837 -0.033854306 -0.36829633 0.31284958 -0.15047559 0.5846675 0.007894546 0.1639035 -0.05340488 0.0031412453 -0.14592521 -0.07041154 -0.39748108 -0.20484802 -0.022432772 0.01443645 -0.077711664 -0.48344785 0.19989029 0.028196545 -0.1982232 -0.2290557 0.41769 0.0657143 -0.5503093 0.32390663 0.4088651 0.06902388 0.0892049 -0.43605256 -0.14146216 -0.18780568 -0.46953437 0.06804421 -0.11219926 -0.001980581 0.23325579 0.71947074 -0.77776486 0.10712882 0.034608617 0.52288556 0.024771111 0.014908964 -0.4330941 0.21521226 0.2754732 -0.16948526 -0.60171264 -0.058421586 -0.04871186 -0.10525577 0.17839766 0.35230458 0.14006846 -0.2662969 0.076961584 0.012883625 0.25777304 -0.050091274 0.28823698 -0.14296672 0.0006266816 -0.5936318 0.016372798 -0.36894798 -0.31698 0.020516774 0.37963277 -0.4777958 -0.058854632 0.2264224 0.3926754 0.5457794 -0.15168452 -0.19676566 -0.08941872 -0.2807321 0.53875476 0.2687687 0.48567772 -0.46430898 -0.21700335 0.7145234 0.43745083 -0.030570367 0.30291307 -0.13912272 -0.31534427 0.20568766 -0.09258548 0.18066218 -0.039693326 -0.01988298 -0.30698785 0.30632037 0.34190032 0.010958771 0.07634247 0.1754852 0.33698702 -0.24073792 -0.15358336 0.0835495 0.29163516
1354 -0.025463056 -0.4788987 0.1892701 0.43462148 0.025257569 -0.4453001 -0.10481011 -0.47649008 -0.04823237 0.34408095 -0.18594497 0.025548061 0.057734963 -0.33332944 -0.43969896 -0.11857963 -0.08548288 0.13723281 -0.26242086 0.6114395 0.06858028 -0.25105938 -0.1209449 0.007959766 -0.6207518 -0.5435823 -0.04287151 0.19388898 0.043887723 -0.84099513 -0.17359921 -0.4682116 0.19626504 -0.29342014 -0.021376178 0.13005742 -0.17921954 -0.31318006 -0.7099092 0.1672622 -0.2280432 -0.12024509 0.3813155 -0.00411912 -0.2592565 0.051167548 0.21545525 -0.4398664 0.17331678 0.099085875 0.048230167 0.20304367 0.5666889 -0.008641772 0.2754685 -0.23000264 0.29083806 0.091217324 0.1162701 -0.09658722 0.34026742 -0.5405015 0.035704184 -0.6835231 0.23867406 -0.12501 0.045332946 -0.2756231 -0.31643915 0.24628976 -0.101494215 -0.3122271 0.41706228 0.7284308 -0.11129519 0.013422117 -0.050313804 0.58252007 -0.09509257 -0.20617491 -0.15624283 0.33138534 -0.18341538 -0.10705479 -0.0027146616 -0.48323882 -0.17427786 0.10067398 -0.15379307 0.13302697 0.07258826 -0.09086412 0.32767275 0.2147457 -0.19542333 -0.08500521 0.5283275 -0.29251394 -0.58552563 0.23435883 0.60860765 0.04744473 0.8159321 0.5398253 -0.17791417 -0.1244637 -0.18973781 0.5766387 0.25305516 0.21710351 -0.26451406 -0.39400962 0.091968514 -0.084974 -0.20045653 0.30686375 0.28684333 -0.19894445 0.10627029 0.25528 0.355927 0.3140868 0.016843563 1.0164409 -0.17827915 0.2572642 -0.2162517 0.9494502
453 0.3515191 -0.32770267 0.16484131 0.100915916 0.13895491 -0.29024333 -0.35252857 -0.36814678 0.22025508 0.59926355 0.066878274 0.06599598 -0.082272284 -0.13685694 -0.07525352 -0.17675489 0.10597429 0.22291799 0.24877332 0.3841015 -0.5608585 0.051273085 0.09312464 -0.2558439 0.021125948 -0.2637918 0.2149858 -0.048312183 -0.058490895 -0.3327478 0.14005676 -0.26418036 0.047794957 -0.37755123 0.38333654 0.14418145 -0.037483655 0.030831331 -0.47573286 0.09013243 -0.75728077 -0.3097053 0.0761293 0.50116724 -0.04236427 0.50535655 0.14422522 -0.6335789 -0.10400561 0.64472383 0.11111877 -0.08972515 0.011982912 0.06939765 0.28346828 0.010042516 -0.10893516 0.40364403 -0.5900622 -0.39021504 0.3406356 0.022449888 0.42739752 0.12669809 0.4450421 -0.13214633 -0.0503932 -0.4736314 0.14226437 0.02409556 -0.0703391 -0.3068176 0.088118486 0.28682667 0.41209668 0.011290845 -0.10597259 0.34306344 0.25774175 0.12005146 -0.38692698 0.7492725 0.22631474 0.37337315 -0.5835303 -0.0336453 -0.33906135 -0.42961276 0.01496835 -0.101955816 0.38618618 -0.6850169 0.3999835 0.40101227 0.5509732 -0.20687532 0.142547 -0.40304178 0.09536041 0.5119058 0.030688627 -0.015755888 0.4444193 0.048423603 -0.3359802 -0.57781696 -0.061051417 0.54883164 -0.3008459 0.13733791 0.17404865 0.27896807 0.5048835 -0.2108829 0.29468283 0.17013675 0.04369055 -0.2794953 0.4736855 -0.22393587 -0.10132061 -0.17550258 -0.15121591 -0.41438422 -0.6340598 0.5035687 0.14456101 0.22968902
793 0.2597673 -0.24256429 0.24395579 0.0920398 0.28230783 -0.40615666 0.103919454 -0.34770235 0.26634178 0.35604224 0.15196289 -0.5057718 -0.29878178 0.07316678 -0.2552665 -0.19215213 -0.19333437 -0.052427772 -0.5263128 0.70371854 -0.12615189 -0.3769303 0.61032003 -0.32030374 -0.17019224 -0.39704433 -0.22689664 0.33684617 -0.18441002 -0.28544018 -0.09133948 0.082363226 0.47485217 -0.14817403 -0.22234392 -0.44259885 0.07976246 -0.41941962 -0.20062876 -0.41941693 -0.12604001 0.020427536 -0.37964922 0.15199992 -0.65312016 -0.042543277 -0.5940715 -0.3842622 -0.23711133 0.47555456 -0.015220359 -0.017227327 -0.3974466 -0.12317698 0.48991793 0.009266889 -0.13863039 -0.077103086 0.047908176 0.097154945 0.31555012 -0.09380197 -0.088299654 0.04192641 0.09778809 0.19897695 -0.26618707 -0.21705808 -0.0625528 0.028300093 -0.413317 -0.5777428 0.050075136 0.14531447 0.23399252 0.26038292 0.11415541 0.05393301 -0.07761552 0.15486285 0.1321333 0.13603923 -0.40107325 0.3942365 0.72977245 0.25681955 -0.15457173 -0.12604481 -0.65886676 -0.037347004 -0.18124858 -0.26222533 -0.018797051 0.411095 0.40895703 -0.091831625 -0.006806373 -0.08552847 0.076265015 0.42416137 0.061477583 0.47293544 -0.18564713 0.26641032 -0.6720008 -0.3851415 -0.42702565 -0.014795645 -0.12692778 0.083034396 0.02997687 -0.5212937 0.043558434 0.422241 -0.26386085 -0.267625 -0.10397783 -0.16970506 0.5008009 -0.109948486 0.14655475 0.6277336 -0.052931156 -0.04299186 -0.17135979 -0.14151359 -0.13467787 0.28839052
910 0.34378666 -0.27366018 -0.08534786 -0.067988545 0.042166516 -0.4397996 0.15861973 -0.36013705 0.1570639 0.76351506 -0.22632526 -0.4111305 -0.23178548 -0.13530172 -0.35490772 -0.2435871 -0.120536365 0.14515002 -0.25506955 -0.005504802 -0.1744376 0.12014981 0.18446961 0.07828081 -0.24162184 -0.4665793 -0.3986079 0.04892374 -0.24051052 -0.093338035 0.17067197 -0.5652003 -0.0060489955 0.27560204 -0.32600927 -0.42375037 -0.0009322548 0.0064851455 -0.33413783 -0.39950985 -0.017244443 -0.06955549 0.013559071 0.14802454 0.07673409 -0.40969944 0.18852732 -0.42378113 0.41710952 0.2523847 -0.092408344 0.65647155 0.06291696 -0.15172857 0.14428042 0.016901385 0.26103604 0.25119728 0.3075668 0.27694765 -0.23061177 -0.3315401 0.1341663 -0.37257946 0.06864373 -0.079992585 -0.09799762 -0.35040313 0.0010272373 0.14050332 -0.03092201 -0.6569512 -0.19610079 0.41375902 -0.10924342 -0.051582903 -0.06964032 -0.2308453 -0.044852387 -0.011433151 0.06229705 0.10055215 -0.46938232 0.57016456 0.5994707 -0.2988826 -0.25243735 0.3421125 -0.6067247 -0.006254748 -0.33249187 0.096007556 0.15521051 0.59534127 -0.18062212 -0.24268435 0.46042532 -0.073356405 -0.23531634 0.5282518 0.103873216 0.13575596 0.515123 0.24202561 -0.042205915 -0.46254852 -0.31400344 -0.10963629 -0.24434882 0.2927694 0.163568 0.15312102 0.1332935 0.41617116 -0.18703637 0.17809546 -0.31675696 -0.26672107 0.29524636 -0.33159524 -0.12612943 0.26592252 -0.062235747 -0.25871983 0.476079 -0.52679914 -0.04213344 0.27089962
635 0.20937213 0.17140138 -0.20369092 0.24719806 0.36946473 -0.6263232 -0.12112974 -0.13730368 0.3732793 0.95495874 0.0923762 0.4778825 -0.23602957 -0.42438123 -0.4528454 0.089595675 0.4888902 -0.0056439852 -0.0019967728 0.60421175 -0.25266796 0.20187488 -0.09319213 -0.11510399 -0.36027545 0.16599412 -0.061905805 -0.6984989 -0.13901655 0.32539988 -0.22153719 -0.124299526 0.3422421 0.009255926 -0.07725307 -0.32499072 -0.0061445828 -0.31236744 -0.17942491 0.037270032 -0.16344583 -0.18562402 0.24701595 0.37715366 -0.24205443 0.39321333 -0.2147163 -0.7937818 0.73923415 0.156806 0.20576276 0.15907525 -0.19670686 0.13519794 0.16300158 0.05378758 -0.32123864 0.011380876 0.25037548 -0.48913044 0.016601238 -0.35881925 -0.14550255 -0.22704376 0.003489386 -0.39158848 -0.23732303 -0.30340102 0.386378 0.21495216 -0.26035634 -0.48468682 0.08648846 0.11842894 0.075391345 -0.22263055 0.08543555 -0.0123922685 -0.16501601 0.14752266 -0.29391423 -0.06407623 0.10426097 0.18679525 0.036111556 -0.24510677 -0.22824536 0.12422962 -0.42169273 -0.16836087 -0.06520337 -0.08631274 -0.027657103 -0.22033402 0.057125296 -0.052197568 -0.035432477 -0.178369 0.124194026 0.09996925 0.40108284 0.30984998 0.51703936 0.29753828 -0.14405388 -0.0036615827 0.099347785 0.07407016 -0.07875604 0.36423832 0.32550237 -0.35121918 0.41927814 0.27910587 0.39888844 0.07637915 -0.4439122 -0.1527345 0.17582685 -0.24045877 0.026481831 -0.109546244 -0.13848281 0.6583939 -0.50339735 0.41248646 0.12863724 -0.13672365
1644 0.2140039 -0.4827496 0.27201253 0.0860498 -0.24218562 0.016284589 0.029317334 -0.22151648 -0.289639 0.65438646 0.5485992 0.121197015 0.12479901 -0.54612595 -0.12247102 0.07157019 -0.028939033 0.0077870055 0.20903149 0.2421937 -0.25227484 -0.124148756 0.12213815 -0.15250944 -0.4742461 -0.4165869 0.3145757 -0.08613432 0.052932627 -0.09102971 -0.03381916 0.18088973 0.033960503 -0.19588567 0.55614585 -0.41863152 -0.50199133 0.015767327 0.24004385 -0.40508243 -0.028154563 0.22017576 0.030976526 0.39262697 -0.1519818 0.5450086 -0.07084502 -0.8344572 0.6499952 0.27320385 -0.27367198 0.32630906 -0.33094433 -0.00048998866 -0.025574226 -0.29577792 -0.25098994 -0.10079448 0.06296652 0.2480307 0.33548358 -0.50849056 0.12475674 -0.42464024 -0.12852101 0.32755026 0.16089553 -0.53326213 0.35017213 -0.012420602 -0.39050996 -0.5648499 0.042492025 0.32261157 0.046702772 0.41742593 0.70588166 0.32019168 -0.087631546 0.043062333 -0.54632306 0.33968276 -0.3568521 0.041342486 -0.115924634 0.1317958 -0.32431275 0.28412327 0.37588328 0.47366276 0.08172125 0.13586561 0.08081796 0.23658538 0.37920183 -0.065073356 0.03703589 -0.5847599 -0.5211798 -0.07829088 -0.08508039 0.4707862 0.46806982 0.14472127 -0.042359404 0.16224977 0.5268102 -0.06814175 -0.10545522 -0.04275478 0.256691 -0.19402052 0.098830566 -0.08882548 -0.041389436 -0.12865487 -0.1552864 0.1736377 0.054943062 -0.04590295 0.22017474 0.15175919 -0.33962506 0.1318077 -0.15949991 0.17979938 -0.24136247 0.15378055
672 0.054530516 0.10572714 0.43538895 0.11506989 0.11572574 -0.11160043 -0.30965856 -0.26784727 -0.26930285 0.7585471 0.24832104 0.02601906 -0.2729545 0.044987537 -0.04984508 0.16403024 0.28618717 -0.19190416 -0.098899186 0.3196364 -0.4372494 -0.20432094 0.3345612 -0.44881755 -0.38623226 -0.45648703 0.43170735 -0.0026105552 -0.19237539 -0.08236654 0.21280803 0.31845358 0.6823265 -0.5594593 0.16897579 -0.29187724 -0.10310311 -0.18878913 -0.2006045 -0.3488563 -0.20985804 -0.103693485 -0.41655633 -0.06421004 -0.06955513 0.46689773 0.024425903 -0.38761652 0.27365845 0.37255502 0.16644178 0.41676793 -0.3637989 0.38785928 0.56729317 -0.046511292 -0.015962996 0.30516475 -0.36481446 -0.2787048 -0.06482265 -0.27788588 0.24545266 -0.013273226 0.9315531 -0.36629388 -0.41612226 -0.13662456 -0.07200977 -0.12172477 -0.33930117 -0.62673277 0.06669073 0.22382094 0.27096286 0.11208628 0.0980741 0.101615794 0.11451281 0.28040782 -0.010787498 0.39309186 0.34327662 0.3075811 -0.4564084 -0.07962079 -0.09978091 -0.24254641 -0.20883057 0.2214915 0.3103695 -0.5526636 0.015143888 0.07953255 0.42638877 -0.05851923 0.08790469 -0.5104799 0.25214815 0.48067033 -0.20774204 -0.014047746 0.16474013 0.10831252 -0.13938001 -0.0995235 -0.3298006 0.47793713 0.09901418 0.3520534 0.17755358 -0.33966333 0.48597005 0.041765533 0.28406417 -0.17103803 -0.008059434 0.021503353 0.51046264 -0.16848166 -0.092702545 0.16137388 -0.19681981 -0.20819959 -0.57602495 0.103910714 -0.14866471 0.44565943
109 -0.05428926 -0.01202884 -0.17525424 0.40772095 0.23289661 -0.5506569 0.070212916 -0.28611603 0.027627092 0.53373533 0.24538721 -0.07412525 -0.17362556 -0.0731957 -0.55300367 -0.15086624 0.2008284 -0.04475 -0.02311619 -0.12757218 -0.4069688 -0.019563101 0.38930935 -0.008314721 -0.3333639 -0.1979917 0.4135634 -0.5643663 -0.13139015 -0.09869992 0.23124707 0.08603174 0.2587635 -0.3641227 0.0110580195 -0.15602647 -0.47945857 -0.3077985 -0.14667372 0.26743442 -0.41383564 0.035938386 0.31015763 -0.023644745 -0.17462246 0.23197727 -0.053013444 -0.7495903 0.40265357 0.7663549 0.097396605 0.46426168 -0.2329423 0.07499269 0.36401397 -0.012274586 -0.31161687 0.50430006 0.039050568 -0.7407013 -0.037671708 -0.17471504 -0.10340903 -0.08810652 0.50467956 -0.6195801 -0.5578082 -0.3488427 0.40423098 -0.04738834 -0.15877412 -0.19765575 -0.12199092 0.42048576 -0.12454141 -0.22612607 -0.051636923 -0.121819325 0.18974486 0.43831295 0.028768416 0.36510956 0.16764629 0.5284841 0.024588002 -0.3929403 -0.30406323 -0.034292217 -0.29356465 -0.18245687 0.31322286 -0.52860194 0.09164818 0.6056303 0.23099744 0.038003325 0.110223554 -0.35232186 0.19683784 0.40172446 -0.22489965 0.24727531 0.6019417 0.4091295 -0.24241076 -0.093848966 0.0068880483 0.33426467 -0.07556584 0.23039655 0.323149 0.024582954 0.51156765 -0.08072463 0.003909412 0.07210808 -0.33091536 0.11966731 0.40086764 -0.34063092 -0.12117945 0.055420414 -0.33515602 0.0919791 -0.8242799 0.5893081 -0.13363132 -0.059916396
136 0.0090968525 -0.49457744 -0.12314051 0.20816787 -0.22832197 -0.1480884 0.100589186 -0.4057818 -0.2749464 0.59956795 -0.044894267 0.16900325 -0.10316152 -0.41614535 -0.22477692 -0.30649114 0.17955823 -0.25183457 0.08856454 0.17541012 -0.45239875 -0.00023615491 -0.0330536 -0.18007816 -0.1694905 -0.30495018 0.44862506 0.1606632 0.2682032 -0.24673234 -0.2436102 -0.055070624 0.11743284 -0.43273315 0.34650862 -0.12327923 0.30102974 -0.12664025 -0.48208 -0.17105916 -0.32214397 -0.015598562 0.5173382 0.039967857 -0.44859782 -0.08305085 -0.11552131 -0.4990642 0.538828 0.23905492 0.35617274 0.69906104 -0.047385607 0.13294673 -0.16188867 -0.2661874 0.5708566 -0.052951578 0.33010098 -0.24564168 0.4372267 -0.47254717 -0.093686 -0.1557395 0.09261421 -0.072200924 -0.19074246 0.12958227 0.16504467 -0.043805312 -0.11678518 -0.6788301 0.17976113 0.6211228 -0.030547317 -0.3604476 0.09238992 0.12456066 -0.28441086 0.33361778 -0.23054387 0.47188446 -0.46200088 0.52733624 -0.093185216 -0.11209908 -0.11039564 -0.16498211 0.5813787 -0.100308314 0.0044061397 -0.078844026 0.1460499 0.10239935 -0.3506583 0.17634512 0.09797201 0.024237037 -0.7164664 0.45505646 0.31043807 -0.11642936 0.9097121 0.25394675 -0.08532575 -0.05785327 0.43804157 -0.009285007 0.07000179 0.24452692 -0.20207623 -0.51209956 0.21379766 0.42025357 0.011643215 -0.27858815 -0.35952958 0.36004514 -0.12709884 -0.11374711 -0.19870159 0.33887538 0.23292655 -0.04327715 -0.2860504 0.24493659 -0.3264298 0.238006
570 0.38896608 -0.12028955 -0.03835223 0.4387273 0.18543181 -0.22273444 0.6528275 -0.2382976 -0.24053335 0.34301776 0.85497946 0.06204696 0.02761563 0.07085425 0.6925385 -0.58614546 -0.19422884 0.10151925 -0.17568074 0.03718997 -0.35345098 0.015451773 -0.06968971 -0.7830679 -0.60008353 -0.5655353 0.41812378 0.5384075 -0.21874543 -0.6293071 0.6297922 -0.54243934 0.30991247 0.18344864 0.03005848 0.32002074 -0.34219357 -0.2937337 -0.72048044 -0.681052 0.5703175 -0.5251234 -0.53909564 0.62165004 -0.20038708 0.031326964 -0.018061996 -0.29144114 0.60675204 0.073990524 0.13601053 0.13172065 -0.14907795 0.12888943 0.07001492 -0.1523367 -0.2017036 -0.34316194 -0.33518672 -0.22391783 -0.09666701 -0.39618254 -0.23189072 -0.29363742 -0.42839274 -0.29931375 0.20896098 0.45263514 0.13249885 0.30315903 0.22703038 -0.48609075 0.87910134 0.2724296 0.12321278 0.12206906 0.13166192 -0.1676344 -0.64925313 0.35084718 -0.5850506 0.06432535 -0.85247856 0.48547035 0.2528798 -0.13104564 -0.31869417 0.23925589 -0.113723665 -0.4998413 0.11685297 -0.45333165 0.41805577 0.32428265 0.12642193 -0.12213326 0.45847982 0.71504635 -0.20369221 0.6029455 0.3912552 -0.29288945 0.80513406 0.671093 -0.463755 -0.847954 -0.45171311 0.6352027 0.18764107 0.07348962 0.44273195 0.22043063 -0.1887579 0.35637814 0.15788032 0.1994896 -0.104805216 0.2517608 -0.39636338 0.21159232 0.17464961 -0.19961783 -0.14195433 0.2880886 -0.286173 0.024112787 -0.06479783 -0.111967936
1520 0.27926442 -0.18832012 0.13518065 0.36248568 0.10470023 -0.04839495 0.46880805 -0.1857241 -0.2066473 0.33069807 0.92686355 0.019733394 0.11566462 0.17917255 0.71937346 -0.4981143 -0.2783191 0.06094232 -0.09268697 -0.11449686 -0.51772195 -0.019664075 -0.26278454 -0.7553977 -0.6109412 -0.5363564 0.64287066 0.6205495 -0.22873129 -0.5021868 0.57311577 -0.4381657 0.3323702 0.13292341 0.24440145 0.31950712 -0.35203776 -0.27845037 -0.42838398 -0.8265474 0.51523226 -0.39299032 -0.6586495 0.5767956 -0.100482345 -0.028123997 -0.016842797 -0.42702642 0.6688284 -0.0501508 0.20440191 0.12754232 -0.3164558 0.050549578 0.03437265 -0.19290769 -0.11230214 -0.30264997 -0.54043 -0.13730298 -0.061135277 -0.47906414 -0.06696571 -0.38447183 -0.33937502 -0.29677415 0.09875416 0.32681075 0.11514307 0.27377018 0.42294714 -0.4274185 0.7312031 0.33091643 0.21440373 0.29821467 0.32293966 -0.1432433 -0.651151 0.40208164 -0.5018569 0.30845544 -0.6930671 0.4174262 0.10089293 -0.15000965 -0.4541774 0.37512073 -0.123209864 -0.44834056 0.120801724 -0.36271933 0.3605813 0.54892904 0.008403751 -0.28017437 0.42701286 0.6377917 -0.3440473 0.7774343 0.39357173 -0.3354394 0.80277264 0.5622498 -0.45105547 -0.83491635 -0.37204894 0.63496166 0.055840008 0.14206894 0.4387537 0.14093207 -0.13842742 0.32952505 0.088671066 0.09749265 0.08253843 0.23531696 -0.33179232 0.27298108 0.24966662 -0.31518424 -0.22952513 0.27948824 -0.28365672 -0.04720873 -0.19745499 -0.054130394
1527 0.028819893 -0.08268428 -0.028442807 0.13270345 -0.16132085 -0.50963545 0.23995864 -0.323493 0.06332038 0.8131878 0.76690865 -0.46196175 -0.08264608 -0.5837919 -0.20041122 -0.4238528 -0.05751176 0.14248182 0.069530636 0.02507879 -0.3838032 -0.34449628 -0.20248754 -0.3297687 0.27224532 -0.3633747 0.6261791 0.15689766 0.45366085 -0.19415593 -0.3210834 -0.05208813 -0.15063092 0.14266412 0.6957244 0.36822605 -0.15550536 0.047341708 -0.4888595 -0.33587018 -0.33468354 -0.24668756 0.24592699 0.21074213 -0.26767018 0.49585983 -0.09914111 -0.11600392 0.61954904 0.09143737 -0.66420555 0.62442046 5.378177e-05 -0.40348193 0.26985618 0.1410594 0.3214918 0.43828902 0.35855365 -0.26221004 0.05845967 -0.16262823 0.46091405 -0.2328104 0.07917747 0.039756056 -0.062223617 -0.31599924 0.17957705 0.21466719 -0.03651258 -0.49808994 0.4717041 -0.04234854 0.3267501 0.22869848 -0.5658694 -0.11538366 -0.18168609 -0.013638739 -0.47013298 -0.07477803 0.05310829 0.16539866 0.15887035 -0.83280146 -0.59070337 -0.115716726 0.26859537 -0.099726506 -0.28835276 -0.19945109 -0.10336826 0.09829506 0.24342518 0.08895085 0.51356345 0.13845602 0.4688569 0.18165284 0.47709516 0.2400384 0.29900286 -0.04927273 -0.27737278 -0.03606625 -0.4140263 0.55989546 0.33284253 -0.11769913 -0.30525655 0.44168836 -0.40540123 0.1890932 0.4316897 0.25265366 -0.41703552 -0.25635988 0.3733433 -0.31250337 -0.40379408 -0.24063113 0.001157409 -0.2538273 -0.27752596 0.19709426 0.46106833 0.50186044
2499 0.12411409 -0.11063433 0.010358229 0.21299964 -0.32720593 0.00046686694 0.24502392 0.13282701 -0.27786112 0.15810771 0.3365853 -0.3181869 -0.05512477 -0.30994764 0.73202163 -0.5447489 0.014857354 0.10088543 0.01772608 0.04667306 -0.39779013 -0.453341 0.00075632636 -0.5565623 -0.5863639 -0.24307702 0.39285722 0.37154037 -0.26985246 -0.8526263 -0.009698574 -0.115010515 -0.06441 -0.13116053 0.42967147 0.38992977 -0.61689496 -0.28476495 -0.44242874 -0.7028711 0.16018158 -0.5094272 -0.09049484 0.24465497 0.06664201 0.20977174 -0.13072184 -0.74196196 0.4935548 0.09186796 -0.28714123 0.32425383 -0.26597923 -0.06442541 0.1294969 0.20383854 -0.3903872 -0.37204218 0.14096805 -0.39498755 -0.18038864 -0.0995456 0.11606024 -0.52605516 -0.37404877 0.01013231 0.12785637 -0.12779053 0.33892593 0.43056625 0.54597086 -0.15116753 0.43838558 -0.13286057 0.1365973 0.39273375 0.3615539 0.40833545 -0.45103297 -0.40318587 -0.1764222 0.24470858 -0.8521752 0.35063702 0.3939298 0.23933667 -0.26490927 -0.089589044 0.15985502 -0.56029993 0.46998444 -0.42897248 -0.2964986 0.23945536 0.25705698 -0.14878789 0.102506764 0.6387651 -0.14961235 0.13602154 -0.14123267 -0.15138397 0.41710085 0.49355775 -0.50053644 -0.5840736 -0.05826174 0.34212878 0.044699345 0.4387725 0.2913161 0.21014644 -0.26618826 0.13732521 0.119861566 0.20102265 -0.3035953 0.31638685 -0.016417252 0.22279684 0.3722448 0.0844065 0.063817196 0.30866697 -0.18229775 0.5611332 -0.34449023 -0.48014826
14 0.122418925 -0.4063329 0.39096832 -0.06598012 -0.61815846 0.09471346 0.025222514 -0.41021866 -0.25408784 0.4351192 0.2938664 0.20096503 -0.35221878 0.19303612 0.41558948 -0.72204477 0.6468151 -0.029402545 0.26421455 0.5897807 -0.19001514 -0.08153654 0.45583335 -0.5435418 -0.5710982 -0.0019103287 -0.15497507 -0.22966631 -0.3810872 -0.6452819 0.41447836 -0.1898745 0.25895622 -0.31769496 0.06908661 -0.06315807 -0.32321984 -0.04035724 -0.37387216 -0.4234931 -0.40797642 -0.101170935 -0.0073480746 0.54738975 0.030996874 0.5118056 -0.5300337 -0.078276 0.03419993 0.89503443 0.06716169 0.009343768 -0.041815165 -0.07224215 0.06810873 0.10266914 -0.6593709 0.23532377 0.043359995 -0.22797008 -0.39668652 -0.06502089 0.46745014 0.2949222 0.2194377 0.15400702 -0.06343534 -0.763421 0.050485503 -0.26598802 0.29918686 -0.23270679 0.45453456 0.466834 0.1301688 0.2467903 -0.022358896 0.5843869 0.19441806 -0.2613435 -0.531886 -0.057471804 -0.25011572 0.50973296 -0.28346583 0.17200382 -0.23692878 -0.05728646 -0.28869227 -0.047710754 0.42484176 -0.33505896 0.33772293 -0.17393379 0.31018865 0.16590038 0.038259786 0.05546262 0.32120025 0.41855696 -0.1504605 0.019267697 0.08635418 0.75276816 -0.30678836 -0.12375945 0.20450026 0.67857087 -0.04438927 0.22674948 0.009680946 -0.21706663 0.40581766 0.1971602 0.30081248 0.07119775 -0.47188768 -0.13203032 -0.096443824 0.018541949 -0.20267908 -0.56964326 -0.2646194 0.06967912 -0.4727303 0.17799628 0.29125676 -0.076276906
1240 0.29468316 -0.02345491 -0.04028574 0.11732214 -0.08998465 -0.443247 -0.03188712 -0.17854832 0.3096614 0.36039826 0.7864833 -0.14190423 0.12885885 -0.21620779 -0.021633966 -0.50033087 0.5146681 -0.07922458 0.13632493 -0.21475367 -0.5188061 -0.15064427 -0.011061321 -0.5256562 -0.018994631 -0.24058852 0.28838703 0.39752635 0.128748 -0.16313969 -0.412293 0.34535897 -0.26115647 0.18890886 0.55243105 0.5188517 -0.121853665 0.063513674 -0.41315997 -0.0956104 -0.5091584 0.036295652 -0.08315079 0.10407249 -0.22898488 0.48550165 -0.18434249 -0.31888762 0.34554043 0.1256962 -0.57240367 0.32619244 -0.19017026 -0.7185647 -0.008102 -0.029844195 0.16104408 0.060487874 -0.18771659 -0.26451164 0.016670894 -0.37061015 0.3136356 -0.33813098 -0.24302211 0.0640491 0.26780215 -0.61870724 -0.20686725 0.14631097 -0.19934247 -0.602659 0.4334141 -0.22096685 0.36979795 0.3834771 -0.141874 0.19016996 -0.05846874 0.028023327 -0.31970033 0.36173636 0.19650298 0.3042849 0.20217489 -0.4436163 -0.25934714 0.08157383 -0.16393594 -0.40388486 -0.27263644 -0.056206197 -0.24122348 0.11328218 0.636581 0.22993004 0.38905168 0.27824354 0.36359027 0.43188113 0.4040742 0.108554855 0.35495389 0.20382549 -0.16828486 -0.03085615 -0.16506058 0.6818327 0.21577665 0.0746311 -0.37311763 0.32989553 -0.32747573 -0.1469166 0.62777936 0.18813327 -0.35081053 0.094846815 -0.27882388 -0.27806258 -0.528322 -0.2007395 -0.16644207 -0.23425615 -0.32694358 0.5194256 0.40788174 0.015702497
478 -0.0848874 -0.2837008 0.23394565 0.34930497 -0.40937287 -0.575779 0.018595051 -0.6120743 -0.11858466 0.5162817 0.28332388 -0.0059402264 0.09693919 -0.4033906 -0.035106555 -0.094553955 0.07299764 -0.34137315 0.20029767 0.77962947 -0.32960987 0.19694556 -0.32410392 0.34658292 0.24709225 0.067916416 0.1454982 -0.054272737 0.036997136 -0.55310327 -0.19088398 -0.37822545 0.18189932 0.1610931 -0.052851126 0.04354882 0.079816915 -0.68502194 -0.36401778 -0.049493197 -0.21958514 -0.036507178 0.26128817 0.06541771 0.08768074 0.12246732 -0.066404566 -0.22507842 0.14004393 0.2632771 0.123437434 0.5381808 0.11505287 0.3414672 -0.20402826 0.14567637 0.24429296 -0.11705961 0.037562616 -0.079581015 0.52594936 -0.65226406 0.25364283 -0.4257004 0.2528255 -0.033202477 -0.19490698 -0.17802735 0.16699834 0.3323419 0.021349208 -0.40291554 -0.47435996 0.073150784 -0.13978446 0.36078885 -0.16098934 -0.100432776 -0.31585145 0.17132068 -0.369509 -0.031704966 -0.12657107 0.5639564 0.038042597 0.020208748 -0.56321174 0.4849349 -0.0040370026 -0.23755327 0.3001159 0.18422727 -0.24892017 -0.06336925 -0.33568856 0.118519604 0.50320095 -0.5411525 -0.28263423 0.121146105 0.082384415 0.11810365 0.35856643 0.28733385 -0.039381906 -0.3164569 0.16608343 0.34326458 0.42636678 -0.2624488 -0.13827205 -0.11241114 0.58369964 0.18879408 0.14530274 -0.16886489 -0.41730717 -0.08387148 0.1131548 0.19042532 0.24061479 0.10721168 0.12517363 0.042117767 -0.119084775 -0.079985596 0.16531615 0.28553724
1328 0.071698815 -0.4434811 0.009562566 0.019458145 -0.34870705 -0.49381888 -0.16482645 -0.30213347 -0.15877627 0.29721877 0.5649392 0.0012117887 -0.53222054 -0.2660646 -0.0021811933 -0.16104843 0.16150843 0.0071768663 -0.018851355 0.3321315 0.13042907 -0.0021046128 -0.09075303 -0.19060294 -0.51545054 -0.20504701 0.15337777 -0.06852694 0.14394212 -0.2904104 0.035571776 -0.27524295 0.1761559 -0.5119073 0.32299927 -0.041900504 -0.168138 -0.30984315 -0.05271542 -0.01796602 -0.2816444 0.011890938 0.3585135 0.59292674 -0.6647162 0.5741978 -0.15157957 -0.7193291 0.3829194 0.4284003 -0.3523957 -0.2489514 0.0041995933 0.033353858 0.12541915 -0.1450794 -0.015100966 0.061824314 0.09691993 -0.09657812 0.19214392 -0.56097555 0.26095226 -0.25496837 0.025274552 0.29338384 -0.2169535 0.034861054 0.27066097 -0.5687048 -0.2720247 -0.7774273 0.21585837 0.42379197 0.34404895 0.24469319 0.34640056 0.22943711 0.025313778 0.05497946 -0.70106167 0.04137558 -0.42715645 0.2802687 -0.24853018 -0.28698656 -0.40274194 0.5768869 0.053998776 0.15576343 0.017943105 -0.100529075 0.13341986 -0.06980231 -0.051430516 0.23555695 0.34112257 -0.24385177 -0.30803618 -0.17405479 0.099798694 0.2619894 0.44298846 0.6160849 0.073274605 0.171814 0.68975085 -0.057922773 -0.28716528 0.000613716 0.037407897 -0.4811804 0.5069631 0.3346541 0.09822633 0.43755895 -0.48649934 0.04357239 -0.39137685 -0.09899593 -0.19959153 -0.37014756 -0.31192648 0.33167493 -0.42434692 -0.059224535 0.2275425 -0.17817795
569 0.16005912 -0.24707633 0.17582598 0.1862598 0.21472824 -0.43702376 -0.12455017 -0.39034584 0.46558043 0.7824325 0.10120184 0.27342412 -0.1034378 -0.3269594 0.053486113 -0.8661782 0.3552888 -0.08872292 0.23922378 0.117310554 -0.061130695 -0.089378916 0.18489693 -0.1347626 -0.12146036 -0.19448595 0.552081 -0.33989662 0.14916396 -0.07806195 0.061722923 -0.11057219 -0.0778212 -0.61769843 0.26119083 -0.19478488 -0.05364668 -0.21440193 -0.22315308 0.35445306 -0.78114575 0.07587113 -0.049995102 0.38514394 0.091170765 0.7070035 -0.11916987 -0.6908546 0.03833222 0.5249058 -0.052655626 0.25088084 -0.13405995 -0.4110083 0.123449095 -0.015292113 0.016687416 -0.07310745 -0.45224392 -0.040762562 0.29736152 -0.6026249 0.24643502 0.0019738076 0.44078252 -0.21154688 0.10166952 -0.33762068 0.17685033 -0.116522804 0.19214317 -0.6197238 0.04799142 0.031095041 0.2618262 0.24105376 -0.035148624 0.117916405 -0.33485052 -0.07869914 -0.117080115 0.62663954 0.05028705 -0.066365264 -0.6105985 -0.18578607 -0.25322065 -0.02539599 -0.3230503 -0.14607991 0.34900618 -0.33876997 0.24338968 0.0641711 0.36623746 -0.25367764 -0.029384274 -0.39508355 0.037498392 0.66177255 -0.44112575 0.2953727 0.2356658 0.15751229 -0.37550646 -0.45964992 0.19660954 -0.17762557 -0.27152884 0.0392117 0.097499944 0.23295972 0.35944268 -0.19738097 -0.060536277 0.080698065 0.32067376 0.035095416 0.39086822 -0.07466997 -0.18731835 -0.37628123 -0.24267593 0.10464404 -0.5699258 -0.20130433 -0.04457836 0.34344113
1713 -0.38176894 -0.5655179 0.1927307 -0.10406695 -0.37567148 -0.055209536 0.15508425 0.39804924 -0.04105434 0.5225223 0.1940524 -0.22083163 0.06512888 -0.22328085 0.22268009 -0.63976026 0.06300688 0.13874142 -0.16311175 0.31340435 -0.09908891 -0.17170179 -0.13915889 -0.1587838 -0.38411984 -0.8371803 0.085429884 0.30079123 -0.23926543 -0.314995 -0.32423615 0.15994227 0.009374141 0.33960006 0.41251758 0.13693374 -0.05623294 -0.002117566 -0.39626268 -0.37194473 -0.15071034 -0.5214993 -0.40993223 0.3333569 -0.7858516 0.052836686 0.16316763 -0.47778475 0.23467661 0.28003895 0.1049018 -0.27149916 -0.46204454 0.02443718 0.37107772 0.35450286 0.5522318 0.20567596 -0.868247 -0.08768387 -0.104458526 0.073711626 -0.09417323 -0.017526414 0.5598874 0.011837725 0.04643862 -0.28125727 -0.6767205 0.13725568 0.71564555 -0.98897046 0.49459928 0.2505043 -0.20588213 0.9313757 0.40851673 0.19684891 0.028321609 0.058603518 0.10772837 0.92119116 0.40418178 0.037837148 0.38347897 -0.48038724 -0.28396407 -0.09676623 -0.94550997 -0.48799497 -0.06802074 0.033843722 -0.03778189 0.044067234 0.47878835 0.33759475 -0.2972294 0.4803689 0.20901014 0.5807239 0.3434419 0.17431307 0.5682534 0.62938327 -0.40187168 0.09211313 -0.06703847 0.16812631 -0.3014285 0.18365203 0.122343644 0.34522563 -0.2220979 0.067724615 0.35681286 0.85060775 -0.69260144 -0.60699993 -0.33680263 0.16107371 -0.47829345 -0.2485651 0.14008994 -0.06363946 -0.58356893 0.028927458 0.072867475 0.16288772
1153 0.38380137 -0.38951823 0.13069378 0.12336457 0.33888534 -0.38887203 -0.07463393 -0.27561173 0.21297243 0.2391768 0.13179994 -0.36642328 -0.044877063 0.2482253 -0.045272164 -0.4171262 -0.13461326 0.13399555 -0.45884877 0.41564223 -0.5136794 -0.44139642 0.5992739 -0.4565994 -0.25307265 -0.25488737 -0.3044151 0.066109404 -0.4073002 -0.66586167 -0.31043044 -0.2089029 0.13432845 -0.10043562 -0.2591302 -0.35006794 -0.23154034 0.079521984 -0.3280942 -0.5817699 -0.29345042 0.051937703 -0.34838754 0.088989645 -0.45627803 -0.021831993 -0.4332423 -0.49001172 0.28587663 0.4248516 0.011995928 0.35927957 -0.4796218 -0.1002672 0.5837061 -0.04010941 -0.020746844 -0.1541745 0.25041953 0.52694356 0.093234986 -0.06834612 -0.14575763 -0.22131786 0.13201761 -0.14420931 0.061343342 -0.2794322 -0.15726627 0.1394289 -0.4092374 -0.36632738 0.035033226 -0.006116414 -0.21725875 -0.031343814 -0.027400041 0.14742434 -0.4714699 -0.0584466 0.052131828 -0.2539186 -0.5174427 0.13668114 0.62905765 0.1369796 -0.4643502 -0.2055694 -0.65958816 -0.16973116 -0.25267294 0.1133346 0.40161866 0.55783415 0.37468582 -0.029500406 -0.07397277 0.17895766 -0.07201837 0.35044622 -0.11107428 0.23024452 -0.349067 0.3544931 -0.6302686 -0.48794234 -0.093280114 -0.1607189 0.11303498 0.08144753 -0.49776298 -0.27192196 0.016679285 0.1713008 0.04918746 0.019455904 -0.43593496 -0.07988199 0.38959417 0.10324206 0.18236691 0.24220823 -0.15123123 0.30249622 0.0023071691 -0.11253499 0.36753228 0.0942617
1290 0.29446006 -0.30926734 0.013812441 -0.18513282 -0.10950282 -0.26802862 0.32500067 -0.6048572 0.2123481 0.46432045 0.41326782 0.05974826 -0.24126127 -0.20755112 -0.31315327 -0.1865176 0.0926662 0.07760976 0.50553656 0.5800228 -0.08876694 0.07754095 -0.16678993 0.23785828 -0.17668417 -0.2790508 0.6804057 -0.15586574 0.5059358 -0.088444635 0.0961834 0.22025356 -0.096887164 0.02093533 0.46359232 -0.09624108 -0.13874839 0.11877098 -0.071223855 -0.16669945 -0.6784083 -0.2690923 0.030743621 0.2255243 0.03697507 0.6897301 -0.14233045 -0.3281031 0.28054664 0.39073393 0.23802248 0.48373526 -0.3740122 -0.060942553 0.037961613 -0.1453324 -0.16720644 0.08192611 -0.026923582 0.31370884 0.59293234 -0.57392627 0.19989847 -0.23783684 0.4883439 0.03454198 -0.22307825 -0.04830641 0.16488044 -0.41507667 -0.292332 -0.61353475 0.24880332 0.4548596 0.13811055 0.23947455 0.5777599 -0.10811733 -0.1563447 0.08305298 -0.30348074 0.33324894 0.1489437 0.32850358 -0.3837524 -0.076621406 -0.7989628 0.09615472 0.16725612 0.022807846 -0.25117335 -0.28946203 -0.24530138 0.42290813 0.1944588 -0.119195886 0.10749914 -0.15138263 0.08549658 0.11404866 -0.2627488 0.32052538 0.45064807 0.24193971 -0.22602138 -0.068009585 0.07446271 0.57845837 0.0118825175 0.20196603 0.15209198 0.17832491 0.05009252 -0.05440327 0.15411812 0.047400378 -0.0076586516 -0.6700511 0.3861487 0.0524755 -0.020692462 0.24770567 0.07077507 -0.31892794 -0.18777373 -0.13315018 0.07450952 0.44942248
1136 0.3757752 -0.020449031 0.1887437 0.041134685 -0.07366263 -0.73434466 0.20431195 -0.42330152 0.10304502 0.102204725 0.15612118 -0.20148541 -0.28288615 0.17639787 -0.11327177 -0.23989011 0.07331074 0.3727795 -0.19838575 0.5881862 -0.16868739 -0.1618686 0.23542441 -0.52675116 0.14936297 -0.21486506 -0.5130693 0.25044802 -0.07748331 -0.4248507 -0.11190609 -0.08244986 0.068162434 0.095345885 0.062413745 -0.4069867 0.078114465 0.24905387 -0.24319865 -0.38987908 -0.19282806 -0.18800986 0.21062282 0.47603846 -0.53878343 -0.15681443 -0.2525787 -0.57893664 0.029456493 0.7975988 0.18682848 0.49711105 -0.34933332 -0.31440896 -0.05058867 0.04659745 0.029675398 -0.09705876 0.06733218 0.12450889 0.09098934 -0.22127953 0.049002502 -0.41341624 -0.038955975 -0.1195151 -0.041241065 0.0346258 -0.09571096 -0.028926002 -0.33621258 -0.68801504 0.1379284 -0.13432257 0.19244523 0.47796905 -0.29733047 -0.07738268 -0.31771612 0.047042783 0.38059357 -0.03383539 0.25381878 0.25942823 0.7628476 0.12637916 -0.6532419 -0.15782389 -0.7720535 -0.08009521 -0.4174113 -0.085443765 0.1556049 0.30157852 0.12682022 -0.0049308087 -0.35661778 0.18481787 -0.108398326 0.46277604 0.13844414 0.06723758 0.023840513 0.22560923 -0.6501243 -0.6288559 0.062217314 -0.42794183 -0.18163411 0.4881235 -0.22776252 -0.22400184 0.18658707 0.3993016 -0.16628388 0.2951314 -0.2793501 -0.30468017 0.26458964 0.29237252 0.321321 0.2799854 -0.4307945 0.03284245 0.16421011 -0.37991315 -0.24751978 0.57546943
591 0.29252672 -0.11150224 -0.08927208 0.13031286 0.09566062 -0.5408437 0.011638985 -0.47874528 0.006170081 0.498909 0.3457079 -0.42673475 -0.4349391 -0.16297261 -0.25720242 -0.41529673 0.09204329 -0.048473157 -0.1262089 -0.11792238 -0.38193226 -0.14519727 0.028088674 0.026367385 -0.058410842 -0.067403466 0.36965048 0.02269089 -0.35740012 -0.029832302 0.45938447 0.004203213 0.3890808 -0.44730034 0.4540633 -0.046750817 -0.098639265 0.1345318 -0.32008857 0.27790448 -0.652019 -0.4804882 -0.0304969 0.2332047 -0.11060794 0.29810584 0.066928424 -0.5233782 0.28859875 0.753211 0.1967494 0.06966506 0.011082382 0.31087846 0.2786768 0.07491078 -0.25702572 0.52471 -0.6097431 -0.49001816 0.443254 -0.03200533 0.15620965 -0.34663257 0.5950489 -0.46272224 -0.6067503 -0.1389343 0.18070103 -0.055626962 -0.11029881 -0.4894837 0.056166112 -0.0812235 0.25333476 -0.16840976 -0.18006597 0.16736709 -0.12497982 0.3477639 0.073510565 0.581065 -0.07500198 0.32258862 -0.4642327 -0.078036696 -0.015336292 -0.15232252 -0.15630215 -0.15918821 0.3351268 -0.5293522 0.11605121 0.36945114 0.0858978 -0.13842957 0.15495317 -0.34406307 0.30216393 0.39893574 -0.1278171 0.094403535 0.4588783 0.28548673 -0.04999531 -0.2957406 -0.1573817 0.6509243 -0.11207942 0.42411855 0.31280488 -0.096968964 0.87656194 0.3199019 0.33607006 -0.14827377 -0.22625229 -0.11650605 0.25804982 -0.25588635 0.019877156 -0.16864003 -0.21235727 -0.106746435 -0.27782485 0.8612981 0.34360823 0.023128767
250 0.025449017 -0.3956933 0.118907385 0.0633316 -0.28457925 -0.19643193 0.18006842 -0.50726646 -0.044861935 0.3691694 0.48756233 0.057083946 0.13304947 -0.31302774 0.429432 -0.30585292 0.5424943 0.27792686 0.12421573 0.5903834 -0.18918797 -0.13963751 0.28529578 -0.52767384 -0.33850107 -0.117577255 -0.24820115 -0.21900526 -0.46047458 -0.29508063 0.13222118 -0.065030724 0.26280573 -0.03511214 0.10517221 0.26946634 -0.41253868 -0.24152625 -0.33427757 -0.33700496 -0.09583154 -0.6289622 -0.21560612 0.38192067 -0.11552132 0.42878798 -0.17201565 -0.22329909 -0.2497149 0.500088 -0.024452383 0.41496396 0.13470298 0.17289892 -0.21517868 -0.062076446 -0.38224736 0.41341323 0.019226644 -0.35341993 -0.44188175 -0.19868132 0.41097972 0.23833743 0.0525786 0.11414122 0.14921115 -0.6708094 0.08048409 -0.18022949 -0.096406475 -0.35565236 0.31582883 0.27156675 0.33004126 0.3797121 -0.10389747 0.31879213 -0.06964129 -0.42111832 -0.1871916 -0.1384673 -0.38313198 0.14411806 -0.05371187 0.29724303 -0.13291746 -0.044626746 0.040536176 -0.35024816 0.33404222 -0.25851467 0.22737888 -0.60038954 0.16251627 0.69549906 0.1393144 0.15582459 0.4651498 0.2565584 0.35764137 -0.347696 0.14733943 0.14449325 -0.050830763 0.1387174 0.04983291 0.6047542 -0.14640911 0.040405124 -0.07787257 0.35342893 0.042071827 0.34621456 0.4292958 0.59704924 -0.30835292 -0.43772477 0.07397179 -0.15463953 -0.29059094 0.17113282 -0.017514989 0.019833902 -0.64290947 0.049655013 0.15933637 0.044599462
66 0.22846732 -0.39144024 0.21875905 0.36467782 -0.5205608 -0.84934044 0.32073435 -0.34477636 0.19920205 0.40738082 -0.042974796 -0.35013878 0.26043642 -0.1407093 0.124213755 0.0087074395 -0.25638387 0.24597739 0.063906714 0.7563631 0.08386558 -0.02808459 -0.49390686 0.3517621 -0.1976307 -0.6098775 -0.13172074 -0.1678803 -0.073517635 -0.105903886 0.017295856 -0.5177559 -0.08311093 0.34995365 -0.2510062 0.30705884 0.22576474 -0.23709708 -0.54240674 -0.063852414 -0.1571035 -0.14185867 0.503366 0.21199334 -0.14311482 0.20824896 0.07513113 -0.6305238 0.4605633 0.40835142 -0.38864616 0.27452505 0.0037706285 -0.18437012 0.34567544 0.034198165 0.32573605 0.21252505 0.067851305 0.19737892 0.5319713 -0.059991244 0.14894745 -0.5762859 -0.026328685 -0.25936392 -0.41663852 -0.10443187 -0.10940176 0.43457073 0.109853745 -0.7036419 0.24406241 0.26584417 -0.15168671 0.029790698 0.21949781 -0.0286784 0.105387665 0.12764782 0.009073384 -0.093226194 -0.40571165 0.20447046 0.042061593 -0.4153803 -0.27317414 0.3034745 0.2502101 0.4574781 -0.03158255 0.20817102 -0.3222769 0.32624 -0.42843157 0.116537474 0.53775877 -0.26909414 0.015405145 0.058469485 0.073109314 0.3089264 0.1758239 0.40558162 0.017989855 -0.25276983 -0.38017625 0.15607923 0.09188004 0.71946234 -0.10977283 0.2373672 0.32618895 -0.06720156 0.21273021 0.17993657 -0.10485459 0.1906957 -0.61702543 -0.15051013 0.026608586 0.14113857 0.5139857 0.49176714 -0.48250595 0.18885201 0.2293025 0.09387782
1569 0.42715526 -0.23256677 0.13769354 0.24503091 0.11485343 -0.6859561 0.0075238636 -0.16247562 0.031471312 0.30419722 0.1949424 0.3725694 -0.5101484 -0.23061144 0.1251884 0.000417288 0.11536797 -0.17768613 -0.5444658 0.55464077 0.25173235 -0.22304119 -0.113512345 -0.17086 0.044819824 -0.29659975 -0.09302933 -0.43625733 -0.4973238 0.30376682 0.10700553 -0.588128 0.37834796 0.01081474 0.6127653 -0.19984978 0.006994491 -0.48357445 0.10748154 -0.43843025 -0.4714104 0.11752358 0.23692207 0.20919771 -0.3394847 0.5178967 -0.03048447 -0.42419666 0.5080178 0.19187553 0.03450322 0.12331288 -0.42339227 0.2852671 0.0020871335 -0.44372705 -0.02307551 -0.20359059 0.32813343 -0.4168437 0.5185832 -0.8916083 -0.1063688 -0.111230664 0.2722684 -0.1673538 -0.26019537 0.02600626 0.21689631 0.5835063 -0.124672554 -0.39627653 -0.011148017 0.30893752 -0.1913849 0.21164323 -0.041775767 -0.14143164 -0.104357585 0.0986578 -0.35130557 0.14451376 -0.1664322 -0.14258038 -0.043905992 -0.58170724 -0.49535298 0.51437837 -0.4328504 -0.48691767 -0.15721965 0.30378747 -0.29499292 -0.049628347 0.39223528 0.030283997 -0.06451346 0.066529684 0.027674736 0.50536776 -0.002482498 0.060562946 0.764905 0.41885567 -0.0021340407 -0.43778372 0.34448448 -0.100169495 0.066268265 0.41235307 0.31892267 -0.24440458 0.32900813 -0.075995885 0.6888218 0.19491838 -0.42012748 -0.2590846 -0.13971585 0.28827336 -0.34453177 0.053394973 -0.17955709 0.36596757 -0.26943713 0.6695554 -0.15888609 0.31955266
41 -0.38789102 -0.6961187 0.53073204 -0.011665703 -0.22470774 -0.07366164 0.10514894 0.52669847 -0.16789286 0.5643421 0.3173402 -0.02792378 -0.09479515 -0.25856814 0.10163348 -0.6798617 0.080141455 0.026304826 -0.09876617 0.5521844 -0.20816879 -0.20554824 -0.13937218 -0.08460163 -0.14623952 -0.7587982 -0.040055733 0.3071982 -0.27196077 -0.3313097 -0.6480271 0.301224 0.007719969 0.38368282 0.3478544 0.12519227 -0.08793399 0.19551356 -0.52529854 -0.37471157 -0.26807457 -0.31581426 -0.36396816 0.15587138 -0.6544868 0.059275188 0.3670082 -0.28947604 0.3895115 0.25159135 0.02689801 -0.36366192 -0.46887103 0.063289285 0.3645719 0.31514317 0.55303174 0.26115364 -0.7359592 -0.3608293 -0.09734215 0.15891537 -0.05239264 -0.041774794 0.5557051 -0.26857448 0.04616985 -0.3691161 -0.6018342 0.22999881 0.59865344 -0.95589083 0.33894756 0.24293561 -0.1667873 0.7240294 0.3632313 0.06155825 0.09106322 0.3911419 0.18140592 0.79257196 0.47374782 -0.019453177 0.30944926 -0.41968903 -0.3292457 0.00882801 -0.9587634 -0.19272526 -0.16836661 0.16118291 0.08303462 0.2289783 0.48677078 0.43187395 -0.289161 0.61113566 -0.08699162 0.7528788 0.34127477 -0.045345623 0.5072987 0.5343184 -0.18825415 -0.15600039 -0.09107416 0.21879397 -0.13651638 -0.049696736 0.27523303 0.22482677 -0.012203814 0.003979275 0.09840252 0.86334246 -0.6419978 -0.28902495 -0.29797748 0.09773455 -0.65716416 -0.23973887 0.20517358 0.17973347 -0.4591503 0.30496576 0.098354466 0.17551999
188 0.4300388 -0.45609242 0.12813526 0.07607523 0.15307015 -0.42314726 0.031021485 -0.09933169 0.31435543 0.3234668 0.44386944 -0.21523209 0.07716435 -0.16317123 -0.10934196 0.03851058 -0.07216199 0.20747563 -0.7011794 0.16218865 -0.21218635 -0.2157568 0.24302499 0.14307767 -0.21755113 -0.18523997 -0.29020572 0.1355703 0.04619523 -0.31585714 -0.52323484 -0.2848389 0.27417767 -0.40960628 -0.22279552 -0.47744334 -0.3491195 0.033865225 -0.093709566 -0.66701305 0.29301575 -0.09971193 -0.13212883 -0.21217759 -0.36608928 -0.23229147 -0.2605165 -0.3017789 0.04254589 0.3479008 0.22368531 0.4988764 0.17211245 -0.20232818 0.19059214 0.18317434 0.14532512 0.047189273 -0.11911045 -0.3231141 0.019953404 -0.45464492 -0.2173722 -0.28896302 0.18034609 0.12819162 0.13891236 -0.10745807 -0.12734544 0.11006277 -0.3190972 -0.45479444 -0.10596945 -0.099969044 -0.00497375 0.46007252 0.19241622 0.29186368 0.25328776 -0.11370494 0.04858037 -0.0846333 -0.1617008 0.46641082 0.52878106 0.14837186 -0.21308151 -0.16058607 -0.33579022 -0.24935105 0.10130172 0.08131666 0.5241517 0.083558485 -0.093800455 -0.25235766 0.47443694 -0.30596963 -0.68834245 0.5708463 0.00054380414 0.27725887 -0.22328478 0.17214046 -0.3570735 -0.4000983 -0.50754774 -0.08106413 0.036968935 0.4229238 -0.07491662 -0.30986124 -0.19435881 0.64750713 -0.36671677 0.0845819 -0.38366973 -0.13995351 0.38548675 0.25533453 -0.15122202 0.4379002 -0.26837003 0.056549065 0.13223837 -0.19106516 -0.15812778 0.42974767
1459 -0.28833607 -0.24719484 0.05137371 -0.15393567 -0.25126034 -0.5453097 0.104106255 -0.27472347 0.058094837 0.54943174 0.18034905 -0.22959767 0.50194246 -0.53379256 0.054996587 -0.43734702 -0.10702426 0.23937134 0.27751336 -0.14177285 -0.08906969 -0.13584837 0.18878181 0.15698765 -0.13614352 -0.59242046 0.08195185 0.16057606 -0.0971183 -0.4369341 0.09977678 -0.12469972 0.14546257 -0.16495638 0.28976852 -0.13971874 -0.29800195 -0.009451781 -0.48084933 -0.44933212 0.2624351 -0.24666372 0.5786213 0.04209273 -0.26667786 -0.01403913 -0.042081118 -0.24742897 0.02399236 0.29282197 -0.14562884 0.7467774 -0.1304708 0.025387142 -0.011016512 0.3496181 -0.18965775 0.10244778 0.058734287 -0.26770023 0.20873345 -0.21509916 0.50168234 -0.13665824 0.5151306 0.12966909 -0.14858256 -0.345422 0.10396546 0.25736257 -0.14985089 -0.280888 0.13519762 -0.047592204 -0.14840159 0.1804379 -0.20592743 -0.10206515 0.03329265 0.12327761 0.051031396 -0.3736922 -0.1508489 0.18664083 0.33510405 -0.0681784 -0.2803962 0.3179777 0.31318495 -0.024825778 0.64895296 -0.41981512 -0.017758006 0.013304713 0.05658614 0.41585264 0.33673286 0.11645933 0.2874001 0.09183897 0.24182466 0.3417784 0.44477302 -0.28888053 -0.22095896 0.05477302 -0.22085136 0.61001134 0.30278525 0.22684869 0.0097896205 0.06451847 0.32642832 0.20480093 0.037575096 -0.24629399 -0.7185012 -0.27789336 0.37665048 -0.22679141 -0.43688968 0.12771513 0.11010456 -0.52368885 0.36447838 0.523678 0.15673988 0.11869885
76 -0.45450997 -0.36101347 -0.2617655 -0.10219163 -0.3750862 -0.4329442 0.4931027 -0.39445564 -0.00028399154 0.20228332 0.08601554 0.24336426 -0.16895434 -0.17749502 0.39545542 -0.33103985 0.20189558 0.19061138 0.3409728 0.6093244 -0.5978591 -0.5091452 0.20199795 -0.27151537 -0.45708126 -0.3080274 0.0012016015 -0.04421713 0.13920592 -0.41551107 0.31763846 0.23628943 0.16291589 -0.39245984 0.3292629 0.40625668 -0.621345 -0.32613474 -0.3634868 -0.11240608 -0.35964957 -0.5377588 -0.12436807 0.20546201 -0.209066 0.3981289 -0.34330088 -0.35181463 -0.07069791 0.19503263 -0.21780242 0.49565145 -0.24075149 -0.035633948 -0.1933866 -0.00044554195 -0.13762163 0.59619004 -0.27855307 -0.1407592 -0.12210624 -0.27129418 -0.056560528 0.12984064 0.22727107 0.35711452 -0.16450235 -0.5986532 -0.0064725988 0.033617627 -0.08652274 -0.19579044 0.28135225 -0.111871235 0.47174293 0.22905467 0.12521027 0.28174335 -0.016829366 -0.4199374 -0.29162768 0.17621352 -0.32255045 0.30225408 0.43188727 0.023073299 0.0067409263 -0.033377107 -0.07408081 -0.44682044 0.3944182 -0.07861226 -0.010619289 0.10853669 0.26712272 0.43612185 0.2448823 -0.015907958 0.35759786 0.65301406 0.085701846 -0.3182656 0.11780542 -0.12205635 -0.07099959 0.22651269 -0.018818986 0.99150866 -0.4071829 -0.11734227 0.32478657 0.29214564 -0.08563645 0.04957164 0.49756598 0.352895 -0.20130351 -0.6758063 0.24381709 0.08374578 -0.5798365 0.23315877 -0.057311535 -0.10212181 -0.8051974 0.19257808 0.22379239 -0.04897616
686 -0.16112912 -0.010372365 -0.42192677 0.44220755 0.041472908 -0.69797224 0.09486734 -0.28079134 0.039375037 0.61886543 0.15591247 0.226391 -0.46623218 -0.18029572 0.13200691 -0.13194425 0.6331432 -0.038149677 -0.034105394 0.6003571 0.13012226 0.06207301 -0.30064788 0.006653185 -0.11174416 -0.09651968 -0.061081313 -0.378222 0.055654965 0.11374335 -0.07939808 -0.23452295 0.2635584 -0.3830034 0.07935289 -0.35741532 -0.23104042 0.14883153 0.063140824 -0.028117187 -0.06887175 0.1364429 0.2957668 0.28662536 -0.5635722 0.45385015 -0.056465037 -1.2010857 0.71091014 0.36254296 -0.17367753 0.083551794 -0.30998835 -0.093561806 0.39207542 0.15344678 -0.026979217 -0.43858674 -0.07231868 -0.23218285 0.11640921 -0.59380424 -0.07709001 -0.25294605 0.44594705 -0.41133097 -0.26710588 -0.021143062 0.27243268 0.28085548 -0.3753713 -0.39332387 0.043109592 -0.27392522 0.4350173 0.27535254 0.13969997 0.058356997 -0.12110057 -0.013268257 -0.25450695 -0.09329422 -0.038110483 0.08679961 0.24584924 -0.42806172 -0.25940403 0.10789932 -0.5014302 -0.25039405 0.14524566 -0.10162297 -0.08828596 0.13936624 0.052422263 -0.09118537 -0.020079508 -0.24562317 -0.0067037717 0.30228186 -0.006197115 0.4651541 0.18404537 0.08651585 -0.16378555 -0.13576442 0.024935441 -0.6285495 0.33320162 0.2839721 0.44142157 -0.19377087 0.4522296 -0.04706467 0.3801664 0.22207423 -0.5735216 0.07486735 -0.15806668 -0.09047349 0.13481589 -0.11863795 -0.14970943 0.49333552 -0.29420432 -0.03744792 0.19515471 -0.029725822
2153 -0.36955202 -0.70591587 0.29540494 -0.08022366 -0.31645852 -0.12969625 0.23997289 0.5662122 -0.14348513 0.63501793 0.17373972 -0.14764142 0.1776483 -0.082108065 0.119772665 -0.7118741 0.1336173 0.2385282 -0.26142824 0.47843775 -0.16121626 -0.18804361 -0.22318245 -0.025553884 -0.50561494 -0.84002054 0.092575386 0.15307854 -0.20317261 -0.1349251 -0.4226616 0.07052501 0.10481237 0.33838543 0.2531831 -0.14567268 -0.2713093 -0.19054373 -0.08792942 -0.47586486 -0.32405087 -0.39962736 -0.4751356 0.43364862 -0.8957197 -0.016829876 0.09556797 -0.7237786 0.4273299 0.24567197 0.16634658 -0.33147725 -0.49899864 0.2980841 0.3986509 0.35035843 0.6489279 0.102047026 -0.8930265 0.05027125 -0.16023725 -0.012596544 -0.2158283 0.029208178 0.7338086 0.08531891 -0.07655001 -0.29860306 -0.72445637 0.2931312 0.74386847 -1.084488 0.37913898 0.20353654 -0.2618476 1.0325198 0.46866655 0.14287642 0.17096381 0.19216582 0.2935675 0.8364722 0.41701534 0.026458848 0.5124099 -0.53137076 -0.18494198 0.039582595 -0.9501299 -0.4398897 0.013666113 0.10094748 -0.13953678 -0.025600089 0.74244976 0.3072959 -0.33312953 0.12122555 0.19829243 0.60308903 0.21386908 0.18146391 0.4826261 0.86851096 -0.4772811 0.2963365 -0.07569777 0.112454094 -0.2810473 0.04170954 0.09709686 0.22949722 -0.15575248 0.22615038 0.5218007 0.76823694 -0.789044 -0.41702121 -0.1789207 0.22023194 -0.5150822 -0.3768815 -0.03762133 -0.016015174 -0.7001887 0.041133802 -0.10738736 0.32808325
2175 0.04919644 -0.21726596 -0.039189838 -0.03582169 0.0074768364 -0.572074 -0.03174043 0.017142115 0.42368415 0.14387505 0.23631608 -0.03700925 -0.18048285 -0.15550096 -0.15238775 -0.4701292 0.38212132 0.40098 -0.24930201 0.16617967 -0.56106913 -0.6804738 0.27425742 -0.20638901 -0.32970697 0.026937068 -0.3326766 -0.14234811 -0.22603248 -0.20085959 -0.31710106 -0.022624942 0.25543216 -0.09939733 -0.24147926 -0.19720367 -0.44408095 0.032445986 -0.14602616 -0.45439157 -0.13040781 -0.3906673 -0.13633472 0.04437819 -0.56985205 -0.068562716 -0.18666942 -0.6743401 0.26798993 0.43169245 0.013146543 0.3500415 -0.031025048 -0.1863353 0.020674285 -0.09811122 0.06604863 -0.097931415 0.013196457 -0.31326488 0.4188041 0.054660235 -0.1709027 -0.16924547 -0.33399516 0.29875118 0.1862582 -0.12952092 -0.31500584 0.19784626 -0.11009025 -0.24176773 0.2488227 0.16985665 -0.041716553 0.15551418 0.17547563 0.30658585 0.15306045 0.09032672 0.06914097 0.037192877 -0.124760635 0.3686843 0.34960163 0.4293532 0.013439948 -0.017845783 -0.8199111 -0.36280355 0.025904171 0.20971183 0.5239433 0.018211525 0.113110766 -0.3727781 0.15499496 0.1479014 -0.26991546 0.3871074 0.074134625 0.26276323 0.35213628 0.1832245 -0.65769786 -0.6407109 -0.4662881 -0.22554424 -0.33116394 0.6268872 0.1259426 -0.4377471 -0.029363276 0.41363487 -0.27618822 0.018037742 -0.3938453 -0.30209187 0.7264566 0.2686188 0.056965202 0.47223157 -0.15947889 0.263978 0.53005916 -0.37186268 0.06871999 -0.12606388
1178 -0.27929625 -0.19347897 0.064011924 0.01712966 -0.120730735 -0.8188301 -0.02924741 -0.5660661 0.25564486 0.11638575 0.5205744 -0.05117789 0.00048145145 -0.22285381 0.1548296 -0.47398195 0.14114614 0.4159242 -0.49036756 0.64400613 -0.34782898 -0.0928268 0.6120512 -0.22577286 -0.3640816 -0.16145766 -0.12561479 -0.029541345 -0.38094398 -0.7256546 -0.023665776 -0.12223506 -0.25756577 -0.45791107 -0.12692785 -0.38965613 -0.052142397 0.10552347 -0.13093896 -0.4466276 -0.014579783 0.06471678 0.08678904 -0.09248514 -0.2612661 -0.11053876 -0.3012274 -0.63220793 0.16153368 0.46250644 -0.10023156 0.10852196 0.030110914 -0.36461288 0.06120903 0.23643151 0.20484798 -0.27365252 -0.09087219 -0.2981083 0.30670738 -0.02391509 -0.040749934 -0.15647757 -0.18625043 0.46629506 0.15844819 0.012903831 0.23076344 -0.017025424 -0.21998268 -0.5411813 0.26433182 -0.22041067 -0.34475937 0.19304319 0.100620545 -0.34158504 -0.2531451 -0.25773233 0.2350452 0.069698796 0.016687492 -0.10750858 0.5246374 0.022771545 0.15092996 -0.23587428 -0.7852537 -0.28259203 -0.1939456 -0.10402784 0.1731612 0.06726897 0.068504855 -0.27908126 0.5953949 0.39100835 -0.38822815 0.63888144 0.40370077 0.37078384 0.029408393 0.34237412 -0.39582273 -0.74914366 -0.2738618 -0.06779085 -0.0014356691 0.5901989 0.22563621 -0.0101876035 0.06442275 0.30794066 0.5048084 -0.20093934 -0.44383782 -0.049657114 0.63143885 0.028660018 -0.28476864 0.45565015 -0.047665976 -0.13920327 0.32529667 -0.5760329 0.23817267 0.1830443
426 -0.012949161 0.00190296 -0.037335165 0.2641429 -0.13167617 -0.2973223 0.07909581 -0.3405192 0.059375867 0.5168498 0.165074 0.33380723 -0.10668787 -0.33091384 0.063064806 0.16640119 0.107214354 0.12274325 -0.06583437 0.35759106 0.37223187 0.027652964 -0.18153588 -0.050564777 -0.19088545 -0.13588011 0.21119843 -0.076041006 -0.18128677 0.59748876 -0.16373444 -0.36467102 -0.03171975 -0.030363828 0.6046454 -0.36836478 0.10834037 -0.48465243 0.007356391 -0.1372114 -0.2550413 0.023070503 0.18192297 0.37242964 -0.12393009 0.49398363 -0.11359362 -0.68582654 0.5057052 0.22991751 0.27828515 0.25812835 -0.043688163 0.09249628 -0.13437487 -0.046826147 0.27497968 0.02457498 -0.022864804 0.050524563 0.522567 -0.46908784 -0.1921523 -0.1919038 0.2755624 -0.5150523 -0.08863211 -0.148083 0.5354699 0.30812785 -0.36910918 -0.45525926 0.16964649 0.3339401 -0.46798807 0.33146018 0.43810776 0.20659702 0.033659633 0.35259822 -0.1425995 0.3913515 -0.023345582 0.1252986 -0.13907328 -0.42597005 -0.5955881 0.45744768 0.05552254 0.04071302 -0.12719825 -0.031859264 -0.37310314 0.38304126 0.33131626 0.19664817 0.49994266 0.03671317 -0.057262532 0.414012 -0.16080971 0.63963926 0.68547267 0.3894781 -0.19041711 -0.52695036 0.26865864 -0.17569357 0.16121529 0.6012965 0.34274587 -0.30927292 0.6832288 -0.07980174 0.3786459 0.2943964 -0.23177083 -0.05330757 0.16678883 0.31962484 0.10168108 0.57414794 0.16420637 0.19743158 -0.4081312 0.3148426 -0.3785282 0.30922583
359 0.08154605 -0.2351591 0.2901163 0.1841315 -0.24460888 0.028118424 0.3133016 0.23501025 -0.24496162 0.2126487 0.4509468 -0.29712233 -0.0041936203 -0.4218837 0.897487 -0.43079647 0.049047768 -0.009119611 0.03650588 0.1639867 -0.501601 -0.40057778 -0.16394323 -0.52368015 -0.57886994 -0.15735935 0.5960863 0.43892792 -0.24370944 -0.6921019 0.1414425 -0.010825789 -0.113024645 0.06903355 0.50112045 0.35756832 -0.7496028 -0.29202983 -0.4365022 -0.800858 0.32353258 -0.56476206 -0.07570587 0.31922564 0.18220134 -0.0016598469 -0.29566053 -0.6410644 0.42762992 0.09205037 -0.17607823 0.29184714 -0.30016658 -0.029778026 0.061014727 0.32420453 -0.39296213 -0.47499833 0.17336023 -0.15492263 -0.04308277 -0.25219944 0.16971008 -0.352069 -0.2002972 0.011127605 -0.0019287444 -0.060650732 0.37310058 0.32792962 0.75604486 -0.19946814 0.29671845 -0.03747001 0.15039575 0.4683431 0.335798 0.41446838 -0.28988245 -0.16870458 -0.13315138 0.1505954 -0.7871402 0.47110766 0.30809098 0.24307108 -0.26193264 -0.047487788 0.09458704 -0.37119249 0.44156134 -0.1964638 -0.17747502 0.30404067 0.26043057 -0.43181354 0.12826234 0.629716 -0.21958134 0.47898588 -0.05133461 -0.13584903 0.35614267 0.41663626 -0.53821814 -0.56907475 -0.073701024 0.5692621 0.021704469 0.5210425 0.147359 0.09825703 -0.19739625 0.23111707 0.09957348 0.10673825 -0.08183574 0.2544402 -0.08883519 0.38262826 0.45699558 -0.14321855 0.08774513 0.2033296 -0.23520385 0.5503453 -0.39957172 -0.41104287
809 0.37288716 -0.5605216 0.41743982 0.41736755 0.034008473 -0.30343172 0.14158556 -0.31774467 -0.15136229 0.9240301 0.7821494 -0.20241538 -0.31080183 -0.53816754 -0.06738355 -0.42465305 0.7671951 0.35391712 -0.08634785 0.06306694 -0.1299216 0.12603113 0.006651103 -0.54570794 -0.2998128 -0.7807794 0.41206425 0.09674144 -0.6050211 0.052612178 -0.180676 -0.19886371 0.09835283 -0.1424502 -0.4098933 -0.24770504 -0.16092242 -0.7984811 -0.6225449 -0.66081315 -0.06630791 -0.32062477 0.0021465614 0.01657466 -0.41140565 -0.1833455 0.4630164 -0.56317866 0.29028475 0.10906478 0.17928244 0.39818943 -0.118704446 0.7023947 -0.16742444 0.40551147 0.32130033 -0.059086874 -0.15485418 -0.24796477 0.12100887 -0.31275618 0.5245921 0.58452076 -0.2534567 0.20887598 -0.089865215 0.12379025 -0.1660483 -0.27095753 0.34185806 -0.35313427 0.29363993 -0.39998308 -0.4033865 0.2335732 0.05791852 0.100262456 -0.2710975 0.7434656 -0.16249017 0.09611591 -0.16228016 0.19365706 0.022038667 -0.7452074 -0.8603266 -0.17890769 0.23228224 -0.0967062 0.19835043 0.21344271 0.042831294 0.4065965 0.080117285 -0.17661683 0.21531695 0.24517791 -0.6784276 0.2486082 -0.005466522 0.5658838 0.30818787 0.7479301 -0.47298568 -0.05889653 -0.06752101 0.39782906 -0.14774661 0.5643556 0.43648568 0.4385564 0.34746665 0.21934573 0.5806448 0.04743467 0.16321753 -0.05660392 0.12807618 0.8172771 0.046301547 0.48959646 0.038191333 0.11712925 -0.30237952 0.49469095 -0.16734068 0.05271423
129 0.44363114 -0.2965387 0.19993 0.05798646 0.08426451 -0.43253198 -0.08455051 -0.17715895 0.2516652 0.50209093 0.6092119 -0.26610577 0.12716454 -0.16565108 0.2750168 -0.2422974 0.094539575 -0.040991623 -0.12104932 0.018687451 -0.42571208 0.01698689 0.18188804 0.093557924 0.006968187 -0.35055625 -0.09105257 0.27476454 -0.16683884 -0.33445433 -0.062971145 -0.3658067 0.04486558 -0.081039995 -0.2093861 -0.4685011 -0.13504694 0.122017704 0.08519062 -0.5286467 -0.01039805 0.36298025 -0.3708912 0.19410115 -0.70252985 -0.04161707 -0.35114175 -0.42691612 0.30227402 0.03183234 -0.2346978 0.36621302 -0.086254396 -0.12766129 -0.05648417 -0.012806955 -0.10947067 0.059436712 -0.22406626 0.20861535 0.04346926 -0.1557537 -0.25793245 -0.41547322 0.09911941 0.20247565 0.29077432 -0.2045266 -0.100557245 0.23899235 -0.5099659 -0.109952725 0.031250194 0.05948761 0.060609326 0.013105846 0.12906416 0.21116768 -0.068111554 -0.28951597 -0.14649552 0.4308212 -0.38695705 0.21326685 0.76174474 0.57257193 -0.34683967 -0.1671387 -0.6454422 0.50279874 -0.071419366 0.054034263 0.35625756 0.039102916 -0.019125978 0.0069528315 0.2810576 -0.028374916 -0.45873913 0.67855924 0.10504871 0.042022917 -0.0078087663 0.37377146 -0.23324941 -0.3991749 -0.22843574 -0.08950788 -0.2256821 0.4060975 0.13593857 -0.0021004677 0.25009066 0.5746004 -0.41566196 -0.017462747 -0.17351621 0.0529658 0.5334849 0.49836075 0.3032696 0.43584207 -0.1924549 0.41558507 0.26519057 -0.13223448 0.05572326 0.42375147
881 0.05576183 -0.43050328 0.41853604 -0.28126332 0.14941908 0.024584178 0.0966226 0.124457546 0.1894941 0.1414787 0.2147437 0.15319224 -0.14862353 0.06948116 0.41369882 -0.08950806 0.55232614 -0.19986151 0.11999867 0.19364986 -0.977501 -0.14073043 0.038764235 -0.120390914 -0.56994694 0.015984053 0.36405727 0.14598458 0.4052611 0.20368546 -0.023100752 0.27362797 0.20131634 0.15012403 0.42354605 -0.06562452 -0.43764433 -0.09034901 0.06136361 -0.6726641 -0.12771465 -0.3260511 -0.11852757 0.68985045 0.046438064 0.24531035 -0.21513587 -0.7279676 0.14921354 -0.0046979045 -0.16838454 0.03865409 -0.6000805 -0.32938927 -0.050666492 0.051313017 -0.049718734 -0.11420149 0.09856695 0.44946432 0.46565112 -0.28621218 0.1452458 -0.24997652 -0.47541544 0.2970019 0.14534386 -0.28838202 0.4101591 -0.24782509 0.10795749 -0.8542311 0.15164907 -0.15018366 0.060426146 0.26492345 0.28623 0.123489894 -0.08196826 0.23528045 0.09550663 -0.13244948 -0.46063304 -0.0064468775 0.24542177 0.12779725 -0.545449 0.2398749 -0.5175439 -0.15343983 0.041528556 0.24960949 0.31642562 0.23310041 0.0658312 0.060055174 0.24576406 0.0931481 -0.22561613 0.52827275 0.40004432 0.044738304 0.007292128 0.33430675 -0.2189759 -0.1401393 -0.030706262 0.44308984 -0.19058707 0.017689586 0.08848705 -0.11588907 0.14151807 0.38187894 0.1284757 0.08607818 0.22097167 0.28438464 -0.066705175 0.1852042 -0.102730356 -0.14875071 -0.037221134 0.10159373 -0.3712284 -0.12560122 -0.03763287 -0.22405337
640 0.22177558 0.07208951 0.016982622 0.24023242 0.2358738 -0.4537771 -0.16940713 -0.29931092 -0.17952532 0.70005727 0.19707109 -0.07994242 -0.29248145 -0.24543603 -0.51069105 -0.40553722 0.22884919 -0.19812381 -0.07356282 0.13333839 -0.18727127 0.08639912 0.28398812 -0.07191944 -0.3488216 -0.11477691 0.19662483 -0.45235842 -0.19780076 -0.17529786 0.33426505 -0.0832939 0.42866927 -0.30202007 0.2997374 -0.20817362 -0.2247595 0.0725129 -0.5154495 -0.029261382 -0.5814062 -0.24874073 -0.08137835 0.2732307 -0.09031036 0.37011632 -0.14480346 -0.65398604 0.57345366 0.40846774 0.3597031 0.42954087 -0.02407529 0.32834533 0.672125 0.05817256 -0.4005237 0.35335207 -0.28416175 -0.6403793 -0.09201629 -0.08414873 0.0037058175 0.019685682 0.4868942 -0.5579693 -0.66106284 -0.42323354 0.23081896 -0.08412628 -0.19849257 -0.37106943 -0.003598944 0.08747352 0.28617278 -0.3305909 -0.20865934 0.06345236 -0.15148333 0.1675095 -0.15043823 0.34894124 0.07636095 0.2809659 -0.27463955 -0.22930722 -0.13261786 -0.09591409 -0.3389827 -0.13013165 0.33878222 -0.49127543 0.20538838 0.18311617 0.040806387 -0.17965133 -0.030269317 -0.38355795 0.28432357 0.42279682 -0.15350716 0.07004804 0.60389346 0.5076849 -0.23505044 -0.057601146 -0.116160326 0.4484661 -0.10179327 0.44178006 0.43138728 -0.16783513 0.7257137 0.21947196 0.49929821 -0.21501783 -0.40718117 -0.19481573 0.21829626 -0.2721238 -0.15392324 -0.23604462 -0.19220191 0.30845004 -0.73816884 0.5238218 0.00093157875 0.20529558
738 0.016878154 -0.43194368 -0.042641085 -0.15003595 -0.14021754 -0.6640367 0.0073461356 -0.54201984 -0.011595228 0.4665244 0.024870716 -0.08002677 0.1597546 -0.67320347 -0.034421265 -0.69619 0.27044582 -0.063692346 -0.11261413 -0.30231068 -0.2772057 -0.27020204 0.17354108 0.47338206 0.010384863 -0.7538873 0.096693724 0.27570838 -0.18804021 -0.23999488 0.13111486 -0.24095589 0.1937461 -0.18124473 -0.09029608 -0.4349814 0.08313141 0.002663885 -0.6034606 -0.36980522 0.16742715 -0.2757558 0.3066761 0.12366465 0.09464926 -0.23322743 0.34293526 -0.34352073 0.17686476 0.391009 -0.25303885 0.41232625 -0.14313048 0.06299984 -0.5242235 0.53109187 0.00730842 0.03481148 -0.06109978 -0.22450761 0.14624777 -0.21391115 0.17433701 -0.3396544 0.14402461 0.429891 -0.14209478 -0.16806546 0.3638776 -0.18582165 0.35752338 -0.27618074 0.006311542 0.38829592 -0.24388154 0.17808133 -0.09205394 -0.0052867658 0.020579616 -0.20358436 -0.028191324 0.14151068 -0.36523566 0.20212361 0.68962616 0.043099537 -0.07856664 0.21805829 -0.032281693 0.02878125 0.7900757 -0.25580993 -0.12829317 0.28737324 -0.106829934 0.5048586 0.7117249 -0.19393317 -0.10738867 0.43501985 0.14382455 0.034067214 0.48743346 0.2102097 0.026392773 -0.28689006 -0.2970243 0.13523173 0.08388265 0.16135746 0.16505226 -0.014709945 0.5846499 0.4201184 -0.28371745 0.03904406 -0.6335671 -0.14249142 -0.13460626 -0.39459613 -0.6126261 -0.21111651 0.32731768 -0.3589446 0.23704515 0.28161147 -0.36479214 0.15220371
415 0.29189613 -0.3392315 0.016300963 0.312004 -0.20204918 -0.7809784 -0.2126854 -0.31645834 0.25277546 0.42146745 0.43194166 -0.29840124 -0.07528093 -0.1528413 0.009135663 -0.37932777 0.041277617 0.17162462 -0.3250387 0.45395854 -0.36106527 0.116579786 0.09990771 0.24268804 -0.075620346 -0.023515841 -0.29343817 0.4410911 -0.09509031 -0.31886926 -0.30185068 -0.44433227 -0.23125444 -0.6911858 -0.16172047 -0.70247585 -0.17519358 -0.030167824 -0.43224287 -0.27857408 0.10483666 -0.075965896 -0.21873313 -0.16034888 -0.32419956 -0.3051901 -0.23248915 -0.4502472 -0.04553401 0.3759556 -0.04392945 0.2315387 -0.03139048 -0.48798501 -0.0024181923 0.6190376 0.15571558 -0.3490721 -0.3941517 -0.21365696 -0.3373057 -0.24250433 -0.061367843 -0.3419521 0.26428726 0.16771892 0.04374367 -0.028630428 -0.03382146 0.27750668 -0.38702926 -0.48758072 -0.03818835 -0.15512516 -0.024409125 0.12534189 0.024254374 -0.29058474 0.02088316 0.014281336 -0.049746715 -0.35609853 -0.10951498 0.28539574 0.5294016 0.12369853 -0.22178656 0.05158476 -0.59008217 0.041411377 0.10008578 -0.039493494 0.36638764 0.14869043 -0.12133844 -0.19290134 0.52099156 0.04046772 -0.37066162 0.5286773 0.29088977 0.10948935 0.19911306 0.14144026 -0.40943542 -0.55520797 -0.54457 -0.045379538 0.05120695 0.16068067 -0.036289703 -0.28074485 0.0618686 0.72885615 0.10554135 -0.060919385 -0.38427302 -0.12266883 0.41820434 -0.12471106 -0.008403468 0.41420403 0.025300818 -0.29091376 0.019564299 -0.44691473 -0.060369443 0.31876755
967 0.33212984 -0.4532802 -0.28903908 0.3413671 0.20052437 -0.6824894 -0.16974524 -0.41872987 -0.011988534 0.46191198 0.033281617 -0.20625378 -0.17493987 -0.30389524 -0.38399515 -0.45920447 0.12681378 0.23025283 0.019233821 -0.6189788 -0.761301 -0.3458896 0.36985242 0.16323718 -0.21671882 0.084701866 0.15920204 0.1566585 -0.08278244 -0.111763716 0.08012836 -0.095414065 0.46521282 -0.4588215 -0.10804818 -0.37836134 -0.39412636 0.05025016 0.14873187 0.10200466 -0.16204837 0.0010777967 0.45366526 0.33636013 -0.41570768 0.43942335 0.040725462 -0.7667914 0.19680385 0.55628616 -0.38869593 0.39843386 -0.17662862 0.10462583 -0.07993736 0.15588322 -0.17967528 0.36877006 -0.091958515 -0.23366594 -0.09396835 -0.21678223 0.0030534056 -0.50545454 0.65619487 0.06699996 -0.12699701 -0.2120094 0.091727115 0.19048166 -0.22895409 -0.5883794 -0.18916973 0.027089367 -0.042693 -0.601859 -0.39427954 0.0033656438 -0.12651671 0.25731713 0.40025988 0.53484595 0.104656495 0.37749067 0.0386033 0.21836841 -0.32771096 0.2590281 -0.06770293 -0.085075386 0.36686304 -0.4864379 -0.21611252 0.018301828 0.10811056 0.16067375 0.3340632 -0.44528928 -0.17330268 0.28258467 -0.2886273 0.25181606 0.271707 0.31598628 -0.2451159 -0.12926885 0.081201576 -0.08344807 -0.09664058 0.28023377 -0.025403526 0.0066865967 0.5298653 0.14769247 -0.109382086 -0.03374841 -0.08163014 -0.21690185 0.4509145 -0.36023957 0.026329394 -0.18377697 -0.024568453 0.18204863 0.21438235 0.5970021 0.52458787 0.26410773
84 0.16449532 0.030889211 0.16964744 -0.1538209 -0.17703883 -0.21943057 0.11267709 -0.2552493 0.13510707 0.6817995 0.69078684 -0.32771292 -0.095803306 -0.19744426 0.12742664 -0.3422068 0.4615492 0.008606246 0.4114484 -0.002097608 -0.5481492 -0.105225846 -0.053950723 -0.44667625 -0.2800046 -0.74845773 0.38240394 0.58885497 0.2550048 -0.54107267 -0.12912287 0.34828937 -0.17949921 0.22253327 0.5164852 0.47460592 -0.21855721 -0.028853277 -0.15710619 -0.04482115 -0.61752677 -0.104544476 -0.09515767 -0.003874281 -0.31931564 0.47393286 -0.09235928 -0.38964152 0.21957228 0.13747388 -0.4384129 0.122148395 -0.3090698 -0.56546336 0.32343796 -0.13071193 0.28290445 0.100635804 -0.15601481 -0.3089543 0.015000652 -0.17575355 0.11730836 -0.18496193 -0.078997254 0.102606624 0.40645358 -0.5886568 -0.30190215 0.24610841 0.03266728 -0.41807544 0.43499622 -0.2113947 0.28381464 0.39776143 0.20709376 0.3705881 -0.07920761 0.20927845 -0.18195619 0.6730813 0.37634435 0.21519713 0.35537508 -0.43241864 -0.17050418 -0.22999728 -0.33811465 -0.56736046 -0.5600543 -0.104148515 -0.4941329 -0.07472145 0.6184362 0.36798608 0.47871324 0.18687008 0.50371933 0.5062878 0.3252497 0.033250745 0.3437711 0.3197649 -0.31115803 -0.14117984 0.06628308 0.65227187 0.1831177 0.11176529 -0.21606062 0.26249155 -0.42706555 -0.07503456 0.6352852 0.4500971 -0.2646301 -0.09566177 -0.3466061 -0.038523152 -0.61250776 -0.058479052 -0.12392317 -0.2535471 -0.54915744 0.5546405 0.42202026 0.09829173
519 0.032669056 -0.48213977 0.058086038 0.15716103 -0.21450134 0.039141808 0.096182 -0.29314464 -0.09148 -0.13642569 0.5472656 0.3685528 0.23275894 0.106470644 0.14221452 -1.082236 0.29075605 0.17336667 -0.61089337 0.21490116 -0.5544147 -0.36449566 0.26838735 0.08909876 -0.70705086 -0.4750193 0.31998634 0.021003805 -0.01961925 0.20759694 0.08224122 0.39687908 -0.17250606 0.2542962 0.30103296 0.07944202 -0.38110536 -0.16198626 -0.4982249 -0.3715046 -0.5382868 -0.13905098 -0.09141897 0.5378491 -0.33725148 0.15440659 0.47716737 -0.5995747 0.58926237 0.12629637 -0.27124146 0.29725108 -0.084308855 0.27725682 -0.088828325 0.2894385 0.4631285 -0.32809323 -0.10461824 -0.18932292 -0.58926386 -0.20423928 -0.26209426 -0.2955249 0.39346835 0.25188527 0.17204973 -0.19632943 -0.72451127 0.20316215 0.17912933 -0.7724218 0.29568744 0.021834403 0.13914198 0.6544578 0.17960513 -0.49357215 0.09452657 -0.3333734 -0.044912037 0.28128877 -0.032693826 0.07181148 0.4232796 0.2014025 -0.23348035 0.33459562 -0.6536998 -0.40849525 0.023061693 -0.110200755 0.23425552 -0.04531947 0.67980653 0.36094385 0.45150864 0.13321346 0.44073087 -0.049067747 -0.020110263 -0.05008272 0.20324264 0.51244444 0.35528016 -0.5422477 -0.0005471159 0.97439206 -0.16700892 -0.055567414 -0.15257297 0.28149387 0.14866164 0.50902456 0.29093164 0.47666642 0.2092788 -0.039910514 0.11517684 -0.119220026 -0.6106254 0.013282653 -0.45119306 0.37684846 -0.8833285 0.053468868 -0.16102865 -0.10917935
1484 0.341759 -0.2032783 -0.078814924 0.001877791 0.049313184 -0.6797992 -0.0014069643 -0.2767341 0.32734823 0.57094127 0.29918635 0.34628832 -0.36594734 -0.07708978 0.27326596 -0.7267556 0.29631588 -0.045925573 0.20779553 -0.044106398 -0.050380316 -0.18761727 -0.09779336 -0.23131897 -0.21803392 -0.39814997 0.46114033 0.27955046 0.134698 0.004733668 0.10711266 -0.35143164 -0.07675729 -0.13060018 0.72901016 0.07296493 -0.049938705 -0.1831268 0.28699258 0.19345056 -0.6115949 -0.14397494 -0.15109944 0.49418086 -0.11950746 0.9213353 -0.021927662 -0.74061304 0.37861088 0.37617344 -0.20061937 0.30855256 -0.23375647 -0.24121319 0.050035458 -0.2766297 0.028694607 -0.07060681 -0.4644025 0.033988837 0.20929475 -1.339 -0.055536862 -0.39445046 0.31734 -0.040180165 0.284785 0.12446319 -0.45374912 -0.04327242 -0.12188134 -0.5934566 0.22621484 -0.28565735 0.5528498 0.32303122 0.378716 0.11049874 -0.31573576 0.098871745 -0.32037246 0.67109317 -0.23703337 0.09877327 -0.5001612 -0.044451393 -0.3187744 0.05735622 -0.11746117 -0.23311354 -0.08911033 0.23366815 0.19150345 -0.045878876 0.26237318 -0.29889113 -0.055662386 -0.16671456 0.07517727 0.4074115 -0.32219213 0.22924206 0.08499583 0.43166804 -0.22087105 -0.41461626 0.09146037 0.11054523 -0.05963781 -0.33789846 0.3424325 0.11805662 0.21697278 -0.0940879 0.13364665 0.03713996 -0.053135976 0.011267974 0.13399589 -0.10698043 -0.56619334 -0.17000465 -0.019929202 0.06608019 -0.2738415 -0.2523301 -0.0039315056 0.15912578
2421 -0.13025045 -0.8873061 0.16816208 -0.098129444 -0.29921362 -0.12816304 0.39238226 0.22007446 0.08670953 0.04093149 0.1232715 0.025935652 -0.06677878 0.10212524 0.24781686 -0.57402736 0.0029421963 0.14142448 -0.07946892 0.31470975 -0.4854917 -0.45447636 0.09096744 0.14432108 -0.6371029 -0.48072055 0.06445949 0.07884508 0.20275864 -0.031142129 -0.17453304 0.34586096 -0.040737532 -0.057063352 0.52413887 0.24836287 -0.3501089 -0.037193324 -0.3103269 -0.17477325 -0.2898861 -0.30732155 -0.16166082 0.4337977 -0.17666645 -0.047840443 0.18736756 -0.65899265 0.40686664 0.0017270907 -0.29788244 -0.0017167076 -0.4486752 0.48508012 0.18562749 0.34508595 0.45439896 0.26610756 -0.35498643 -0.23335537 -0.2858617 -0.2632403 0.01804211 -0.26427338 0.4746933 0.25118986 0.10940738 -0.3152862 -0.70319444 0.11779183 0.34731737 -0.5673128 0.18422242 -0.11467415 0.23162587 0.46753564 0.22174889 -0.13248299 0.107705995 -0.18934028 -0.18242413 0.32715926 0.16076542 0.3761586 0.40595415 -0.24221142 -0.08895227 0.178802 -0.72462696 -0.34706992 0.1972165 -0.16437681 0.3161067 0.15418361 0.28082636 0.19352119 -0.24210496 0.124881834 0.5338116 0.345029 0.011163601 -0.4698795 0.116397716 -0.038088012 0.1677934 0.073671274 -0.010740983 0.55751437 -0.6367452 -0.09956402 0.041813347 0.12845363 0.13675359 0.16205522 0.23405877 0.40221745 -0.12864873 -0.43035275 0.16976288 -0.18622114 -0.6315426 -0.045558102 0.06415191 0.21836211 -0.7471392 0.113467366 -0.13244887 -0.05248431
342 0.34089753 -0.2109387 0.07358468 0.20135882 0.357312 -0.58838826 0.2466553 -0.097959295 -0.06857461 0.732003 0.7655472 -0.45078102 -0.054258473 -0.61978745 0.18201768 -0.5014045 -0.0075743063 0.36954755 0.28808975 0.28416166 -0.48777625 -0.59195155 -0.0734618 -0.26167497 0.15718769 -0.28347173 0.76156604 -0.29122245 0.27064154 0.14993414 -0.16725245 -0.1982803 -0.20752041 0.3735699 0.77582127 0.18277277 -0.45729324 -0.26005152 -0.65050554 -0.58158106 -0.50395197 0.027389225 0.071737245 0.46896312 -0.9001531 0.2353772 -0.26363084 -0.29270193 0.43165487 0.3244662 0.06540715 0.50889957 0.08926928 -0.19598646 0.26635325 0.38186646 -0.01944647 0.37816146 0.14678115 -0.17758033 -0.059977256 0.3227084 0.53526515 -0.11409968 0.4173635 -0.5291122 -0.3899587 0.021530837 -0.11117672 0.37591702 0.64265114 -0.32753673 1.0915043 0.24964905 0.17657308 0.9041983 -0.41817445 0.14298023 0.21088946 0.083844334 -0.18472937 -0.15074505 -0.10706814 -0.18125479 0.39997014 -0.3515582 -0.4282773 0.03998262 0.009428457 0.010278241 -0.48240688 0.06499769 0.05533081 -0.012031315 0.54792196 -0.3931275 0.823008 0.09269233 0.034716863 0.49362296 0.2607959 0.23476543 0.75173116 0.47074258 -0.5895764 -0.6531131 -0.5946822 0.39564517 0.095448464 -0.3779258 -0.32176858 0.06277675 -0.9476987 0.41823474 0.00525343 -0.004297602 0.052969873 -0.55144596 0.004388309 0.05383642 -0.26288489 0.118549965 -0.55333936 -0.007789396 -0.5889957 0.21656647 -0.025676057 0.83459693
558 -0.06058028 -0.41444528 -0.08891313 -0.13217567 -0.55587536 -0.38341388 0.003671574 -0.30054274 0.28698555 0.7289006 0.22566004 0.11167334 -0.28615344 -0.55939937 0.2540106 0.09076759 0.09676005 0.2751122 0.33932027 0.3522429 -0.55461526 0.063515395 -0.09377955 0.27536115 -0.13443139 -0.26126748 0.15132456 -0.062013023 -0.17140156 -0.1942949 -0.39437065 0.1092508 -0.05770843 -0.15384722 0.24849008 0.21201026 -0.15990177 -0.055974074 -0.66782564 0.3482353 -0.25516614 -0.7707222 0.056584563 -0.16525525 0.037634507 0.4138439 0.054180246 -0.38195026 -0.15673059 0.23274167 0.04994701 0.6730516 0.08255476 -0.14938347 0.007545455 0.17596756 0.06332123 0.20427662 -0.17665812 -0.0701696 0.17608419 -0.027614262 0.06057715 -0.026205853 0.40909252 0.16398256 -0.018203884 -0.4968425 0.1699448 -0.06471621 0.06868039 -0.37314397 0.3737995 0.1604724 0.23881312 0.18197228 0.2091893 0.15459187 -0.02765369 -0.02988489 -0.2780171 0.63694876 -0.08984272 -0.014520529 -0.06625051 -0.21226858 -0.421494 -0.15485701 -0.1872742 -0.007075881 0.26550332 -0.30661997 -0.11196182 0.10305536 0.23728307 0.5909596 0.45920458 -0.09304186 0.38641858 0.5530293 0.27074128 0.12525235 0.38005474 -0.07887172 0.119406424 0.15302047 -0.2873841 0.3190371 0.28879228 0.065763384 0.13773899 0.07884385 -0.08320829 -0.026891366 0.5211905 0.31385127 -0.36231098 -0.6887769 0.54636633 -0.072061256 -0.56029737 0.07359666 0.44999045 -0.5998833 -0.29239732 0.23957662 0.43889564 0.32917464
995 -0.05008498 0.07625308 0.20309953 0.052235488 0.079232 -0.7918505 -0.24474744 -0.5981149 0.2791312 0.3023331 0.6154686 -0.0051971893 -0.2833022 -0.30169755 0.107644044 -0.43133178 0.20510988 0.1476691 -0.4724993 0.5688991 -0.49588302 0.2810887 0.283728 -0.06697321 -0.1085072 -0.18978725 0.10269416 0.073301084 -0.4681763 -0.44140723 -0.11188927 -0.22741592 -0.057953067 -0.6367571 -0.13541275 -0.5408253 0.11011398 -0.014212768 -0.21760264 -0.3469473 -0.1908792 0.091600135 -0.43149805 -0.2894711 -0.48371667 -0.11536883 -0.22227225 -0.6540087 0.3456278 0.43991536 -0.04447545 -0.10161631 -0.19930972 -0.3587109 0.033700388 0.53068537 0.18052487 -0.5307998 -0.2046349 -0.3046165 0.09194611 -0.014181039 -0.073411144 -0.21031001 -0.026135877 0.37376377 -0.12952675 -0.0017567809 0.0044594803 0.23608509 -0.37981203 -0.51237524 0.24674602 -0.13215633 -0.27441317 0.09790702 0.2852952 -0.55303293 -0.07280834 -0.025965903 -0.1285905 -0.23202242 0.04989606 -0.10608813 0.47970104 -0.38007835 -0.029736951 -0.18700151 -0.9635154 0.03960283 -0.27184895 0.1168482 0.0691224 0.114847586 0.25707975 -0.34760937 0.39095888 0.266921 -0.50602585 0.5847183 0.55023694 0.5657528 0.39753497 0.36094528 -0.39384356 -0.6087654 -0.1295368 0.0012011643 0.02195119 0.43964404 0.34293303 -0.18462595 0.23170605 0.40761116 0.44645515 -0.3332043 -0.39255401 0.03503507 0.7604639 0.26239133 -0.12720852 0.51951027 0.03768736 -0.13100496 0.32868385 -0.18502194 0.22775407 0.0067034126
438 -0.20418103 -0.5406441 0.08178937 0.39876497 0.20279954 -0.40259328 0.11389399 -0.3997218 0.11107564 0.28116313 0.20040813 0.2791661 0.13179928 -0.18208581 0.076922834 -0.82528335 0.27043402 -0.1641227 0.3763427 0.4388341 -0.40373644 -0.27663162 -0.19648644 -0.07376874 -0.19773135 -0.04447618 0.18154605 -0.3567843 -0.32876262 -0.1629038 0.37046292 -0.21570736 0.17772305 -0.25862816 -0.22345643 -0.003573989 -0.48252875 -0.5072943 -0.4523513 -0.10087876 -0.40898293 -0.5516955 -0.030776514 0.36697155 -0.12489131 0.49024504 0.12681717 -0.59447986 0.3410028 0.71945614 -0.29698086 0.26837373 0.022024104 -0.14520317 -0.36314481 0.09881442 0.14745648 0.06916624 -0.13106024 0.3565592 0.49656662 -0.2952095 0.14064011 0.15466432 0.34982532 -0.012852952 0.14799586 -0.30523473 0.25123295 0.20657545 0.26597273 -0.53114766 -0.46865144 0.1969309 0.28995836 0.1493561 0.060445428 0.14391336 -0.42288154 -0.0067042755 -0.0004190733 -0.008996329 0.12661342 0.11507379 -0.56396675 -0.013021416 -0.7191473 0.5567003 0.25517344 -0.2036937 0.517209 -0.07190258 -0.10301263 -0.6513123 -0.25394234 -0.1399236 0.1857974 -0.42284352 -0.33642232 0.6137489 -0.57434213 0.29343286 0.20274869 0.25776154 -0.15887465 -0.024989836 -0.014095425 0.055662096 0.37486997 -0.06991114 -0.40469444 0.08190066 0.37231883 0.045333352 0.31381106 -0.0201434 -0.3502392 0.08972527 -0.048376814 0.046650957 0.32557866 -0.19022562 -0.18204121 -0.07103323 0.028174805 -0.033827547 0.18908633 0.2543321
